29 100
e 0.4183787 -0.078244664 -0.11308126 -0.026343647 0.24574879 0.13351913 0.5623874 0.17418781 0.24452496 -0.057939604 0.13936868 0.032394044 -0.38663208 -0.029392445 -0.20476429 -0.07934182 0.43131366 0.068256296 0.026685406 0.019222012 0.077433325 -0.2761679 0.55210805 -0.51742804 0.076054364 0.37737066 0.15273824 0.23417862 -0.15220472 0.076989435 0.03255655 -0.75396144 -0.034923848 -0.31852356 0.36689216 -0.11147021 -0.09796425 0.02804218 -0.0007863034 0.052597426 0.20055379 -0.32410565 0.17984213 0.4106607 0.18617868 0.17452663 0.31268033 -0.1735297 -0.39366034 0.009350248 0.1661377 -0.34535936 0.28704515 0.6268979 0.19940567 -0.17079824 0.2285156 0.06450283 0.16461061 -0.0673371 -0.40649495 0.15132001 -0.36302835 -0.4157328 -0.29005948 0.4228247 0.21596992 -0.5558898 -0.15538588 -0.34520343 -0.28358462 -0.22047156 0.2896732 -0.04507994 -0.14130485 0.5010802 -0.34794447 0.2835066 0.4604119 -0.114535674 0.11281138 -0.03253443 0.2304649 0.039895404 0.21530102 0.16405904 0.756182 -0.28897804 -0.31510398 0.46692896 -0.25934693 -0.21769062 -0.0857357 -0.23453183 0.008720903 -0.332009 0.45471573 0.038687866 -0.070138365 -0.08949546
t 0.13268636 -0.34296083 -0.35689616 0.3798989 -0.09050129 0.06543695 0.2972044 0.2827117 0.11582454 -0.29180077 0.65821993 -0.12924494 -0.5775874 0.13387787 -0.9374612 -0.17497405 -0.59241617 0.24631007 0.37170947 -0.59118026 -0.10603791 0.24071462 -0.23895171 -0.003372057 -0.18029806 0.17845394 0.1645804 -0.21662024 0.8124022 -0.04750969 -0.26438585 -0.35286692 0.2854041 -0.40246862 -0.34199744 -0.15047224 0.030137563 0.25730976 -0.077451 -0.028688176 0.42337954 0.52290744 -0.11548559 0.026765985 0.20809631 -0.30372974 0.08920572 -0.48872662 -0.06010606 0.13647075 -0.17822652 -0.48337182 -0.1057782 0.41178703 -0.617859 0.2970517 -0.022500454 0.082721315 -0.1472497 0.37335873 0.0053532915 -0.064151466 0.30048522 0.1395009 0.3545472 -0.08350369 -0.3961128 0.58047813 0.02918708 0.15277281 -0.009543644 0.22693609 -0.048674293 -0.10924121 0.68534964 -0.2556567 0.120493 -0.47415593 0.257643 0.452469 0.33875465 -0.04185646 -0.26677942 -0.45582214 0.057716995 -0.028518813 -0.8935436 0.074182965 0.12567449 0.012468518 -0.27460688 -0.19884236 0.14405851 0.4693478 0.17613812 -0.24691351 -0.25112385 -0.30882102 -0.036973417 -0.25405878
i 0.17916831 -1.1500798 0.45299906 0.21023194 0.27231732 0.18966739 0.462107 0.24943773 0.6596715 0.022446988 -0.18731986 -0.076698884 -0.77830595 0.5272823 -0.04854749 -0.3166151 -0.30922753 -0.025922399 0.3566414 -0.056720812 -0.80047643 0.15170486 0.047653854 0.058320474 0.33831415 0.0746095 -0.075475715 -0.45288917 -0.13277178 0.5824106 -0.19024792 -0.86197835 0.31302464 -0.40274423 0.13474122 -0.030437028 0.2265733 -0.115633145 0.23335765 0.11858872 0.5279288 0.099760875 -0.27294603 0.46624714 -0.4682132 -0.16541483 -0.34161878 -0.4421697 -0.4312336 0.40115267 0.3316843 -0.27337775 0.7787105 0.23094124 0.9162794 -0.69714355 0.7593114 -0.15935075 0.028337711 0.09116628 0.2411731 -0.17837845 0.10664324 0.34414682 -0.23667172 -0.43065903 0.7163531 -0.063226126 0.1739777 -0.2131169 0.07002978 0.35400873 -0.3004275 -0.040452227 0.45560646 0.19906236 -0.061572127 -0.15585805 -0.44870266 -0.039298516 0.59208715 0.50205463 -0.74541676 0.07006368 0.29175127 0.7101573 -0.6231286 -0.27091312 -0.44728732 -0.3498282 -1.1614178 -0.30999905 0.23310234 0.12999709 0.7039233 0.20143418 0.3379519 -0.41725567 0.26959527 0.20423241
o -0.10519214 -0.67356086 0.33234254 0.18545808 -0.12956701 0.61987984 0.022209307 -0.05195005 0.8652553 0.4135394 0.7291625 0.63880146 -0.47531238 -0.045941524 -0.23193252 0.2213192 0.09705406 0.03282413 0.5911206 -0.3038963 -0.24759673 -0.054758172 1.0156521 -0.04341229 0.024002945 -0.50641996 0.16349192 0.082880385 -0.0951495 0.40912873 -0.59695077 -0.44779783 -0.3724113 -0.3396904 0.20747785 -0.32459965 -0.2881654 0.09954225 0.050128594 -0.36514747 0.13659984 -0.18712959 0.39095762 0.055938814 0.4945818 -0.25520518 0.2388256 0.101239555 -0.5318331 0.41610077 0.41216558 -0.3473679 -0.15591756 0.4853436 0.36119422 0.117328286 0.20499274 -0.0038393943 0.23939423 0.010983946 0.068170704 -0.4355126 0.002930203 -0.27898067 -0.3699515 -0.041841913 0.52225864 -0.105190784 -0.14940561 0.15708037 0.1062068 -0.12856808 0.24781673 0.24235018 0.4011958 -0.03925422 -0.7784401 -0.43541533 0.39262167 0.44469342 0.4972637 -0.07312032 0.28196508 0.28408802 0.2861032 0.23505524 0.08661687 0.423738 -0.26602077 -0.0046748137 -0.42105603 -0.074265845 0.23876478 0.023262924 -0.06477194 -0.046047535 0.25221035 -0.2855865 -0.13108926 0.37754133
a 0.27695912 -0.3195026 0.16480948 0.0137671735 0.10770303 0.18949075 0.30292216 0.08707396 0.4656296 0.32269302 0.34442765 0.3278916 -0.34487262 -0.123403214 0.07634682 0.39605033 0.45788798 -0.067400195 0.09743699 0.21928903 -0.21003354 -0.28114083 0.6468204 -0.026171055 0.28927812 0.07317972 -0.040077284 -0.07939676 -0.51142293 0.13734736 -0.31368887 -0.4639743 -0.184516 -0.305403 0.13130483 -0.14889254 -0.2246459 0.24592446 0.037253615 0.016371597 0.18660049 -0.43086734 0.32333353 0.1084831 0.6310903 0.14889148 0.10682691 -0.1966005 -0.5731057 -0.041987866 0.60115546 -0.04703867 -0.10721114 0.11917914 0.26513335 -0.0023098297 0.08766183 -0.20135505 0.28262466 -0.057581693 -0.4411009 0.14322442 0.38368934 0.0071750768 -0.26380438 -0.43209302 0.3483242 -0.15859236 -0.037351508 -0.0033616226 0.21231279 0.22377354 0.03583974 0.074990235 0.47725153 0.029551659 -0.7341057 -0.7474524 0.19422306 0.4146971 0.4867637 0.20740141 -0.0056483485 0.12689652 -0.04806758 0.3623833 -0.27638733 0.4593611 -0.058177818 -0.3044375 -0.451633 0.23907442 0.045113035 0.15056364 0.124327675 0.0064071557 0.3112863 -0.39070204 -0.2507512 0.011424246
r -0.42977947 0.44212684 0.12157147 -0.8716272 -0.19455479 0.06938563 -0.40273023 0.32244137 0.051782526 0.668104 -0.35805523 -0.09006203 -0.070236824 0.007340862 -0.22553763 0.31762147 -0.040282175 -0.33508372 -0.35110265 0.21246912 -0.19553299 0.5902253 -0.10443442 -0.06998243 0.29138798 0.32835916 -0.09099737 0.12808271 0.2361655 0.49693027 0.41285253 0.103695594 0.06091122 0.48509836 -0.3406325 0.5667134 -0.19010928 0.25201407 -0.7187259 -0.14848597 -0.039682284 0.25963685 0.37143818 -0.14256851 -0.3744459 0.19358899 0.07321678 -0.2713324 0.3677153 0.117575094 -0.38647342 -0.26195392 -0.24124706 0.31087026 0.11548169 0.74020404 -0.17800517 -0.10064849 -0.67674243 -0.15578014 0.618873 -0.38987827 0.37648958 -0.11476801 0.1647779 -0.091966815 0.3502498 -0.04672053 0.06452479 0.43094078 0.29414257 -0.36951646 -0.21887177 0.20923506 -0.2286163 -0.38192898 -0.067228146 0.32096368 -0.48761642 -0.29480055 0.12841304 0.478553 -0.2586727 0.08471138 -0.22776872 0.06446389 0.38846275 0.1464361 -0.027587881 -0.030441446 0.37346083 -0.31384766 -0.20260845 0.20923004 -0.030414814 0.1908917 -0.07888704 0.5524665 -0.0520066 -0.24558957
n -0.19745187 -0.39937896 0.14243118 0.81752956 -0.0058994778 -0.4039773 -0.4610036 0.4242186 0.601933 0.4693642 -0.060903195 0.07967594 -0.012784648 0.07736673 -0.7725245 0.2952269 -0.5150315 0.28709966 0.57735085 -0.16231386 0.49682975 -0.34175977 -0.30917883 0.856983 0.17252766 -0.032821648 -0.13826008 -0.018236872 0.05467377 -0.05513733 0.31019077 -0.09269706 0.26578838 0.32669824 -0.6330381 0.3558253 0.10221901 1.1756138 0.0955763 0.23320705 0.5317366 0.18376054 0.39378017 -0.62257206 -0.4731262 0.20524375 0.11166068 -0.37363613 -0.40405768 -0.083397895 0.39070293 -0.35300842 -0.09560004 0.16569336 0.1706668 0.3358642 0.36405927 0.18661603 -0.7937395 0.07793965 -0.14724201 0.16554472 0.7676558 -0.10153681 0.10430251 -0.46729305 -0.028272545 -0.24668612 -0.01901055 0.066045366 0.36485568 0.05290114 -0.45510277 -0.3531357 0.0024448358 -0.052900705 -0.41836095 -0.6370851 -0.28975964 -0.35299504 0.5861785 0.475827 -0.4770596 -0.45749673 -0.011913538 0.5900441 -0.046598483 -0.22689214 0.31048897 -0.2486194 -0.024154693 0.2463096 -0.5408911 -0.122854315 0.63622093 0.2715451 0.013280718 0.03961932 -0.53295416 -0.310333
c 0.13523987 0.3396656 -0.23477334 -0.4411045 -0.5620983 0.17942913 0.45434627 0.22508876 1.0474352 -0.3133433 0.11671548 -0.3036855 -0.13713364 0.642807 -0.32307965 -0.43541974 -0.61398965 0.22766386 0.4533797 -0.3925112 0.34972793 -0.18072769 -0.008301132 -0.04218759 0.14910688 -0.36489555 0.22469777 0.25923845 0.07480155 0.18678948 0.28189266 0.27527016 0.7267486 0.07250946 0.39325416 -0.004059838 0.44682723 -0.11922812 0.18592483 -0.1487457 0.05914451 0.7749664 0.2812902 -0.015946293 -0.02353213 -0.18908869 0.27645862 0.17030524 0.36710337 -0.14838319 -0.39076027 -0.16369663 0.09894603 0.46390268 -0.30214554 0.05010412 -0.15547593 -0.4217596 0.06964946 -0.05023635 0.07023111 -0.11917479 0.021912605 0.23764805 1.1017653 -0.3620095 -0.7183147 0.34093723 0.2429373 -0.18038851 -0.20282584 0.12103983 -0.2930179 0.104779474 0.51707774 -0.2946311 0.9766887 0.122610636 -0.33499646 0.02805285 0.030281018 -0.08017017 -0.3905674 -0.8657803 0.27703583 0.06501194 0.033358775 0.025559345 -0.15566364 0.5520504 -0.19561543 -0.26385027 -0.2942627 -0.12165553 0.07266471 0.20537959 -0.13150676 -0.25390968 -0.5715594 -0.1417607
s -0.06616806 -0.026916428 0.03868849 0.3444321 0.023342183 -0.11611467 -0.08024247 0.11598193 -0.21473171 0.083032355 0.077066295 0.009713286 0.34200218 0.074501105 -0.26040813 0.08531634 0.17752013 -0.042008642 0.39491856 -0.5878267 0.074058704 0.00047438688 -0.19639184 0.18033233 0.2304858 0.45825204 0.23565063 -0.17263429 0.319747 0.2525682 0.017791606 -0.1286326 0.009785797 0.2649743 0.026553985 0.016958304 0.0070149177 -0.07619632 -0.02346047 -0.28488004 0.30180013 0.09799474 0.03172392 0.19285946 0.1298525 -0.065639354 0.25509712 -0.047372293 0.12576461 -0.00601405 -0.15920432 0.17551602 -0.13433744 -0.23640758 -0.35771382 -0.042233083 0.12394234 -0.42344576 0.22812773 -0.120315894 -0.036191843 -0.07763674 0.14060524 0.22113106 0.013288378 0.12316959 -0.3602571 0.19408672 0.32056737 -0.20102172 -0.1464899 -0.15469323 -0.29962295 -0.11735327 -0.158963 -0.12251318 0.51862186 0.21415319 -0.4924692 0.16719194 0.14299192 -0.057613295 -0.26973638 0.08303333 0.19529612 0.19584511 -0.28157315 0.2984489 -0.065932386 -0.18625557 0.010111978 0.105726406 -0.010726471 -0.005554804 0.022006687 0.3879221 -0.147706 0.15056056 -0.19622445 -0.12567922
m -0.3253345 -0.31968045 0.067472294 0.1645315 -0.34824586 0.073947266 0.098785 0.14840987 0.43590802 0.1294905 0.18624978 0.10912177 -0.4298016 0.55615556 -0.17170492 -0.053915348 -0.52236295 -0.069166176 0.22867201 -0.15752496 -0.3814227 0.42136288 -0.16934094 -0.04877374 0.022918016 -0.2734914 -0.472587 0.07166002 -0.1165377 0.3521529 -0.36454552 0.2827084 0.35402387 -0.17839532 -0.03285023 0.26169482 0.27063993 0.29120335 -0.29290557 -0.0026226696 -0.1267307 0.3808315 -0.021672316 -0.4476797 -0.24432656 -0.2283446 0.22260232 -0.100695476 -0.14760937 -0.06372484 -0.21801093 -0.49954152 -0.0046744808 0.4086161 -0.034442604 0.41343313 0.10187244 0.16683161 -0.16937959 0.27895015 0.074258424 -0.38541135 0.45834747 0.189114 0.5220588 -0.50815123 0.13568012 0.30750182 -0.03889701 0.27294895 0.2846939 0.3122644 -0.2509003 0.11266758 0.37504956 -0.13778521 -0.029164793 0.0049585905 -0.11511301 -0.13786282 0.008983916 -0.022269124 -0.32883367 -0.11295297 0.1408543 0.084402055 -0.3840558 0.15474392 -0.14962423 -0.021344969 -0.29842559 -0.043007914 0.18611453 0.20325159 0.22643103 0.1263048 -0.040574726 -0.31028238 -0.11689213 0.060559027
l 0.022828475 -0.6853846 0.09397984 0.40501615 -0.26295993 -0.2164661 -0.1961206 -0.17021303 -0.05073416 0.397447 0.24933396 0.24186654 0.19973285 0.34605905 0.12616774 0.028947145 -0.051454764 0.24588451 -0.24013308 -0.34257308 -0.45465457 0.61474234 -0.18202275 -0.07117916 0.49775246 0.47846764 0.21032205 -0.13824424 0.5543694 -0.15921709 0.61946195 -0.2453964 0.11652128 -0.026677249 -0.5992925 0.4267955 0.20464619 -0.104759075 -0.5217878 0.14424099 0.30628434 0.31829047 0.2688723 0.077973925 -0.33535913 0.030717688 -0.30378807 -0.35935977 0.07947677 0.19282241 -0.043023497 -0.1862254 0.042875554 0.21543042 -0.22109233 0.099948265 -0.17812775 -0.17543083 -0.7006047 -0.33917734 -0.081962645 0.09594079 0.3708746 0.46767253 0.09059672 -0.35468417 0.09005704 0.16549018 -0.005370226 -0.019637974 0.27570364 0.2892097 -0.5974105 0.08805963 0.058184717 -0.2524986 -0.37353298 -0.019793307 -0.73645085 -0.053772192 0.2768529 0.3565288 -0.27044055 0.010623121 -0.04690218 -0.17436521 -0.7950789 -0.39595905 0.43287545 -0.062714845 0.052119914 0.031743888 -0.30522215 0.18910903 -0.15574515 0.5395926 -0.5733387 -0.11023182 0.2543001 -0.6010057
p 0.17482533 -0.10182948 -0.20004949 0.61764884 0.13618809 -0.34337613 0.4006441 -0.056725133 0.25953284 -0.73036087 -0.16543601 -0.84594774 -0.11181087 0.3477092 -0.12850013 -0.5334217 -0.6911165 0.012282473 0.0018223141 -0.43113673 0.09057103 -0.21196638 -0.2588748 0.38529283 -0.2055969 -0.4540913 -0.187389 -0.1421767 -0.18266945 0.008864078 -0.07023138 0.37973523 0.6365581 -0.13600565 -0.047892455 0.12783891 -0.3061234 0.4047372 0.112267695 0.17118935 0.31433886 0.30301386 -0.17017186 -0.6265366 -0.22254367 -0.37844795 0.050372083 -0.30494007 -0.15036878 -0.2449037 -0.15368299 0.015787784 0.04042379 0.2600689 0.19485235 0.060404953 0.4278864 0.64499617 -0.59895766 0.19178872 0.11327462 -0.08742406 0.3704413 0.14077614 0.11464489 -0.17983921 -0.5449133 0.29520628 -0.10652932 0.17907369 0.09854392 0.09848808 -0.37282616 0.22121376 0.60251063 0.032215547 -0.55918753 -0.55722964 0.18517204 0.25268635 -0.08292434 0.2548588 0.01085064 -0.19066967 -0.016406804 0.10862671 0.31693548 -0.0030584238 -0.141214 0.17616254 -0.4835211 -0.41205448 0.15294471 -0.16039783 0.5235954 -0.35092625 -0.57445705 -0.40420973 -0.12020243 0.30287874
u 0.5402899 -0.26473886 -0.10457043 0.91817594 0.39091027 -0.19571352 0.7456264 0.0077824476 0.4027976 0.2846501 0.2454532 -0.54403013 -0.6851265 0.62880456 0.027544359 -0.116031006 0.7298656 0.6361284 0.10546703 -0.21811785 0.0860182 -0.31184804 0.061868027 0.46276173 0.32248983 -0.027777903 -0.49933386 -0.49158165 -0.3965985 -0.011089329 0.15706274 -0.9241491 -0.09075968 -0.16039638 -0.036049433 -0.34236094 0.08292574 0.12960228 0.36307943 0.33230248 0.113340564 -0.57702357 -0.25620148 0.015031797 0.1819197 0.19838396 -0.13776554 -0.38566855 -0.36576223 -0.37085772 0.7552722 0.7027201 0.69194293 -0.56453127 0.5432746 -0.99141616 0.9554579 -0.11231658 0.3076178 0.06102905 -0.36403152 0.5102574 0.5787537 0.6069794 -0.43039206 0.2203699 -0.05049437 -0.11657868 0.0010669524 -0.24597538 -0.20848568 0.24231969 0.09638716 -0.6951922 0.54368204 0.22724497 0.708641 -0.7563759 -0.13376562 0.14484215 -0.25606224 0.09988302 -0.308201 -0.5048862 -0.075329445 0.8316134 -0.45369872 -0.076895975 -0.18236741 -0.17951587 -0.75699615 0.22683674 0.32512406 -0.2803093 0.8096281 -0.07076659 -0.2593448 -0.25869575 -0.5139692 0.6971322
d 0.08797669 0.5612019 0.09700102 -0.42167556 -0.0461993 -0.20689486 -0.116819546 0.28756055 0.003648653 0.060121413 0.25090736 0.61571926 -0.08938045 0.36509895 0.07838817 -0.07675648 -0.032704175 -0.181443 0.36070022 -0.17769946 -0.15462834 0.10273302 -0.37847725 -0.22496723 0.25764295 0.16892703 -0.17266111 -0.1857343 0.20722258 0.048622437 -0.040858395 0.24089208 0.4184489 -0.075272165 -0.24383825 0.34303468 0.12082149 0.2957963 -0.33908993 0.11092645 0.0771 0.1737425 0.02100309 -0.43604022 -0.3448409 -0.39963496 0.13014284 0.088070475 -0.08308287 -0.2395143 -0.24996376 -0.15554519 -0.61776364 -0.14650936 -0.93881696 0.30985683 0.13665448 0.09896313 -0.1820262 0.093765534 -0.40317315 -0.016740263 0.3447483 0.23772012 0.24754015 0.0076764654 -0.03398843 -0.07672406 -0.037682176 -0.10405395 0.1900479 -0.26692218 -0.23914433 0.08392317 -0.31816944 -0.40126497 -0.3695432 -0.13234553 -0.1989399 -0.08521493 0.43538666 0.26986963 0.1908878 -0.20373392 -0.23425904 -0.080329396 -0.40548718 0.22943132 0.7096258 -0.33634934 0.4349952 0.23422542 -0.08691947 -0.012295608 0.11510107 -0.08915298 -0.10265218 0.26840046 -0.040291898 -0.36814386
y 1.4094574 -0.12679784 -0.37070462 0.22767305 0.11850565 0.05374528 0.2896246 -0.31339213 0.84017956 0.7512511 0.6981785 0.50470996 -0.1590986 0.3111622 -0.49169987 0.075804435 0.99854016 0.5463636 0.3486258 -0.38034946 0.3172072 -0.31733665 0.4946554 0.23523554 0.64757764 -0.16078645 0.09004737 -0.34303775 -0.27821973 0.13876759 -0.0995538 -0.9437635 -0.42947754 0.39613697 -0.0069728065 -0.23465063 0.6925256 0.25336444 0.18320778 -0.17280242 0.2638777 -0.56763524 -0.01058754 -0.14250566 -0.5758018 -0.016054705 0.2187605 -0.3074642 -0.58039725 -0.2257095 0.43671012 0.15139897 -0.015680023 -0.053939886 -0.28021112 -0.4207263 1.0988756 0.15409519 -0.30086723 -0.18185598 -0.64631164 -0.34495035 0.97600716 0.41846347 -0.22845079 0.39042854 0.8405845 -0.20999582 -0.24570262 0.013912638 0.38479432 0.028728727 -0.27555957 -0.6705364 -0.11646913 -0.3464969 0.008020118 -0.35193694 -0.3638385 -0.53049004 0.44251558 0.025116334 -0.3179107 -0.18668558 0.3987523 0.8651107 -0.6899299 0.5330078 0.18752395 -0.37686753 -0.2762728 0.21231718 -0.28702825 0.15047143 0.13694678 0.31669545 0.46172854 0.060342647 -0.21522464 0.5218022
g -0.3591219 -0.5103683 0.74255884 0.05336315 -0.6545921 0.3885565 -0.1209515 0.49326038 0.6655491 -0.45801824 0.6672955 0.5561034 -0.5999525 0.46152106 0.38668367 -0.14199296 -0.43340802 -0.06105736 0.45432281 -0.30669823 0.1137113 0.03456551 -0.76635325 0.06994098 -0.68603426 -0.59738326 -0.56446356 -0.21272247 -0.09677083 -0.0658516 -0.17538023 0.67747664 0.35124314 -0.533121 0.3060783 0.097604014 -0.10755255 -0.2364656 -0.2743428 0.2644352 -0.5939413 0.34495944 -0.20139651 -0.40100977 0.4269027 -0.36115873 -0.00050974666 -0.18730944 0.38544178 -0.109424114 -0.089728214 -0.21557143 -0.03216816 -0.34170353 -0.8727342 0.3862016 -0.20376004 0.12103688 0.5957898 0.019432712 -0.28032213 0.24270809 -0.086453296 0.6755386 0.39152932 -0.13497545 -0.7849223 0.3581824 -0.10251196 0.22387007 -0.44677195 0.01716238 -0.004034601 0.43790781 0.2815918 -0.43569428 0.043419123 0.08387062 -0.14627002 0.24917851 -0.10649814 0.13249698 0.13717902 -0.11184144 0.100036025 -0.70666695 -0.36624196 -0.256539 0.32249227 0.097043745 0.16024019 -0.09519429 -0.0048764623 0.16146223 0.41186833 -0.3762938 -0.7920355 -0.3999547 0.19367193 0.0592389
f -0.7876775 0.45063913 0.033722896 1.0105219 0.120968476 0.07520962 0.07737245 0.2756433 0.7043192 0.20646285 0.20356245 -0.22904353 -0.5328841 0.17383873 -1.0817415 -0.05304997 -0.1546738 0.23008375 0.8556563 -0.91070384 0.48587236 0.017119434 0.14813319 0.51763296 -0.49049208 0.43835762 -0.43901318 0.36068293 0.8508408 0.68631244 -0.24861236 0.30511895 0.7705232 0.01714853 -0.022532757 0.4836146 -0.6976924 1.0575696 -0.41534558 -0.13496044 0.49657354 -0.25879917 0.69111043 -0.77641165 0.26440558 -0.34053275 0.78812563 0.2365731 0.10297656 -0.02003294 -0.113574155 0.0014895445 -0.3009947 0.43251327 -0.1874448 0.63999563 0.4662807 -0.033193395 -0.016306939 0.23801576 0.63246644 -0.17435445 0.38461486 -0.5613687 0.11932687 0.44700077 -0.8604761 -0.11903874 -0.43456906 0.32814515 0.18044741 -0.43870425 -0.21732724 -0.26443484 -0.032847542 -0.30628806 0.17072812 -0.36329627 0.10902624 0.57154447 0.0678112 0.30804622 -0.03043401 -0.2905218 0.18585806 0.40115932 0.84300315 0.55598867 0.2995575 -0.17227788 0.5277572 0.0045649055 0.048151396 -0.28619236 0.74427754 -0.901418 -0.6603941 0.19504726 -0.48944363 0.41003087
h 0.27825636 -0.46237972 0.23379646 0.9616412 0.03003961 -0.20024008 -0.19661623 0.044890475 -0.09937942 0.5795571 0.035481304 -0.48123044 -0.081648424 -0.22014359 -0.58870023 0.8313468 0.9456258 -0.10795153 -0.5664384 0.08501676 0.52815723 0.031581897 -0.13241434 0.11178022 -0.1778461 -0.3420322 -0.2972315 -0.1883748 -0.40362012 -0.26927048 0.3480334 0.48552805 -0.41403237 0.16460678 -0.15975109 -0.16374238 -0.157178 0.011806591 0.10438926 -0.11498709 -0.37387446 -0.768137 -0.32903862 -0.30700457 -0.26811278 0.62653565 0.14645885 -0.48586965 -0.056158792 -0.5049104 -0.00017183604 -0.2229018 0.2979642 -0.18272401 -0.25977027 0.17261247 0.07007357 0.4041896 -0.3172218 -0.16880204 -0.6469473 0.41969478 0.16924287 0.18571389 -0.30218297 0.40194762 -0.15749584 0.18747662 -0.25903118 0.54187465 0.0930989 0.06648911 -0.29590383 -0.30648002 -0.0013185797 -0.36415163 -0.42115176 0.10502093 -0.12902918 -0.23785867 -0.070753805 0.3626277 0.24253091 0.35628527 0.02235776 -0.055669416 -0.15031151 0.11711325 0.40687537 -0.45367956 -0.037357453 -0.047230598 0.24948539 0.5456411 0.33565125 -0.6553709 -0.027847013 0.11638821 0.3355948 0.33863363
v -0.12248054 0.010810199 -0.09391725 0.86872655 0.113959044 0.0801087 0.22781412 0.3232121 -0.17649509 -0.083759926 0.4527919 0.2610131 -0.3504517 0.48512465 -0.2744484 -0.27389002 -0.5244689 0.3435429 0.7855222 -0.7999004 0.059030846 0.17354152 -0.4939673 0.8070185 -0.15698096 -0.1316793 -0.82869333 -0.40085283 0.22973582 -0.054233532 -0.8672057 0.47434226 0.11157361 0.030850094 -0.29304495 -0.32008845 -0.10020585 0.33277574 0.16581267 -0.2397949 -0.18486404 0.22893028 -0.32106823 -0.94254214 0.19956543 -0.68059206 0.612463 0.3138704 0.027714442 -0.029089833 -0.40460703 0.53840023 -0.63563704 -0.54807127 -0.8158855 0.29317883 0.5173287 -0.0056297127 0.36005136 0.9734958 0.048558775 -0.26928663 0.68301857 0.3963748 0.30203292 -0.22806118 -0.72338825 0.8288263 -0.26701263 0.24180236 0.5235299 0.4011051 -0.51238686 0.08131933 0.2829001 -0.45246935 0.55948544 -0.6253108 -0.11549788 0.30358702 -0.086123765 -0.27130467 -0.034125175 -0.13716905 0.27719158 0.059645817 -0.82650524 0.5189972 0.38069105 -0.6050141 0.1622617 0.69225395 0.8667695 -0.26106676 0.41359007 0.020723991 -0.5577588 -0.2898677 -0.19310006 0.42718637
b 0.5309519 -0.16269219 -0.23800324 0.26542354 -0.096123695 0.26161826 -0.0054650223 -0.50806683 0.15196732 -0.056745976 0.1872041 0.123118214 0.49294084 -0.05448945 0.023423277 -0.32123244 -0.4525873 0.6262762 0.33005592 -0.14361602 0.16751964 -0.66742235 0.32297793 -0.22787057 0.26446477 -0.53118414 0.9386464 0.03538332 0.6497656 -0.13515615 0.37918362 0.57133496 0.5305814 -0.0067107417 -0.28823683 -0.28092957 0.28726548 -0.1942366 0.776797 -0.14395235 0.1944337 0.325128 0.25753215 -0.27519113 0.16245344 -0.880502 -0.12440874 0.9191814 0.3157378 0.7027246 0.20094 0.38943133 -0.37782368 -0.8399615 -0.6286192 -0.12981854 -0.28914392 -0.46607852 0.10633926 -0.11800408 -0.3178444 0.31267992 -0.45282483 0.18541016 0.7212837 -0.05702289 -0.33715504 0.06627052 0.30172756 0.08072689 -0.2748506 -0.033618156 -0.26418334 0.16312821 0.07162507 -0.667409 -0.06919132 -0.96651655 0.11021579 0.41392964 1.4372761 -0.24432029 0.45284587 -0.577644 0.21443416 -0.40370306 -0.7702716 0.15948692 0.4498286 0.16012423 0.6371277 0.3054133 -0.47985744 0.27150133 -0.22684179 -0.03298075 0.07508736 -0.28277248 0.024241826 -0.24519013
w -0.69923204 0.88024324 0.016909327 -0.08560008 -0.4817738 -0.2711102 -0.90579426 -1.2990174 0.76674825 -1.1855516 -1.1082926 0.5078788 -0.016789302 -0.02053491 1.2255757 -1.0350521 -0.5125645 -0.4249763 0.06633419 1.280997 0.4380338 -0.6548444 -0.20092084 -0.5754563 -1.7863791 -1.1181941 -0.9299259 0.81532985 -0.31271774 0.5672672 -0.68473893 2.1918623 1.77602 -0.5595549 0.68521017 1.1582434 0.5248746 0.7211721 -0.30246803 1.1867881 -1.451351 -0.58586866 0.56421524 -1.5089173 -0.22072221 -0.1693274 -0.2662031 1.2932696 0.5812614 -0.31550476 0.79063815 0.26582325 0.56583154 -0.5376625 0.89884967 0.75244516 -0.42612118 0.03666669 0.9393297 -0.5234017 0.012812686 0.8475318 -0.38116348 -0.47251946 1.007662 -0.3058105 0.291 -1.2787911 -0.6937867 0.80167824 -0.3816358 0.13687415 0.6754648 0.027270555 -0.8156549 -0.074485905 -0.01873619 0.406968 0.52840996 -0.4775145 -0.39085656 -0.16527301 -0.3180242 -0.1422652 -0.16512588 -0.8472445 0.8453297 0.51103956 -0.021886516 0.7096937 1.4440928 0.35341862 -0.8796964 0.47677094 0.6693838 -1.0630463 -0.5175724 -0.6029346 -0.20897764 0.29204452
k -0.47981852 0.73456234 0.3356478 0.07678076 0.38526523 0.065987416 0.5242832 0.31318977 -0.38510674 -0.3148212 -0.64151525 -1.0002316 -0.5510838 1.0234056 0.44874275 -0.16632818 0.5333519 0.783193 -0.80675745 -0.21141706 -1.5398493 0.59182966 -0.6201295 0.40042445 0.08183774 1.6447517 -2.0903265 -0.1915605 -0.23368165 1.5008446 -0.5717342 -0.41835874 0.5887836 -0.5826818 0.3128783 1.6661017 -0.82845753 0.45650557 -2.0133553 0.6061921 -1.1889769 -1.5235244 0.54452926 -1.2745283 -0.13596223 -0.6024554 0.998889 -0.38148284 -0.587975 0.34861025 -0.030413385 -0.87923163 -0.37610966 0.51379776 -0.8142688 0.8492342 0.8549942 1.5497187 -0.05034629 0.86038125 0.18547064 -0.835677 0.28730488 -0.014510103 -0.48675853 0.41733375 0.1391791 -0.34746793 -1.5154973 0.3088008 0.94700533 0.11386118 -0.82557565 0.85567766 -0.78092474 0.06693633 -1.2271806 0.040383298 0.5486831 -0.38696867 -1.4116092 0.07555371 1.0921744 0.8205934 0.4506531 -0.60370153 1.7634522 -0.32789573 -0.091246076 0.0035740933 0.89109254 0.20567116 -0.38229632 -0.2903021 0.18904878 -1.2966651 -1.0240068 0.28907683 1.0065551 1.1713917
x -0.685999 -0.006403247 0.26418748 0.57056504 -0.32713386 -0.10696556 -0.5197507 0.9729111 0.54913354 1.0845556 0.73681575 0.26372537 -0.3253985 0.8510818 -0.38880044 0.6488863 -0.5510962 -0.62334764 0.98125213 -0.90359575 -0.21980612 0.393155 -0.16678496 0.755652 0.6191131 -1.0326494 -0.5588144 -0.97179264 -0.10092297 0.4840349 -0.45626014 0.8694888 0.18161911 0.22467007 -0.7750887 -0.69811463 -0.7567235 0.43831074 0.19732654 -0.6136593 0.3535991 0.42472303 -0.14998028 -0.8273469 -0.22254261 -0.14291011 0.33260664 -0.0809689 -0.31645545 -0.090023555 -0.24319129 0.08571976 -0.7102238 0.04959091 0.22543228 0.39042842 0.3363156 -0.466223 -0.6121754 0.5716176 0.2500639 -0.16427702 1.0555402 0.39421645 0.38358015 -0.39827207 -0.2642049 0.8532387 0.49751738 0.07698264 0.5714223 -0.5142206 -0.5934047 0.34777012 0.9753676 -0.77382463 -0.0035266269 -0.72491825 -0.5672055 0.42839697 0.5364579 0.57420576 0.019569172 -0.3012416 -0.45945722 0.66029674 -0.6560412 1.1285943 0.2911322 -0.925372 -0.71971196 0.051817406 1.5093089 0.028061857 0.69943005 0.07183117 -0.24976842 0.3230856 -0.8590782 0.23513044
z -0.42851144 -1.997828 0.5266137 1.007429 -0.9633051 0.7051176 0.47649494 0.9120141 2.1849632 0.29762506 1.8450384 0.8129982 -0.5150418 1.0170597 -0.49459377 -0.40810513 -1.7930366 1.2285606 0.89740545 -1.0102137 -0.12851688 -0.49062106 -0.07419271 -0.010579897 0.56313056 -1.0712873 0.66094077 0.5307076 0.10584006 -0.1171307 0.3671926 -0.69924897 0.7042871 -0.4378862 -0.24019325 0.6067089 0.98523504 1.1535763 -0.023370046 -0.07452753 0.96670294 1.2113389 0.80278635 -0.43285498 -0.08728565 -0.8050212 -0.047465596 -0.54163533 -0.36117867 0.3520879 0.5625209 -0.95331925 -0.608763 0.060184926 -0.62959415 0.09981316 0.46117917 0.48348635 -0.65221107 0.06626646 -0.18727781 -0.77612436 1.244408 0.55223346 1.2406783 -1.3571669 -0.58236456 1.214554 0.40991935 0.17217673 -0.2565087 0.5767587 -0.5933088 -0.29368457 1.3505496 -0.89611036 -0.37406904 -1.709382 -0.6831863 0.19867012 2.145711 0.4746926 -0.65307844 -1.2136742 0.7753696 0.6261075 -1.7444488 -0.8152448 0.7588715 -0.21364376 -0.44094825 -0.46553478 -1.2410562 -0.24675742 0.81641775 0.26389933 0.053464536 -0.7380277 -0.41338685 -0.11467496
q 0.8357796 -0.49248886 0.69904464 -0.26513457 -0.43825987 0.75185126 0.33427945 1.2806695 0.9371225 0.5759691 0.124394156 0.054125547 -0.33941546 0.117415704 -1.4940205 1.208832 0.2359535 -0.511626 1.5940334 -0.9109195 0.5825168 -0.20341869 -0.8264152 0.8082132 0.47576854 0.97232103 0.30772793 -1.0397449 0.6880589 0.9846486 0.3058064 0.93506485 0.8475238 0.47364953 0.5587819 -0.7613401 -0.40373898 -0.9469322 0.7827096 -0.76003134 0.8369877 0.71085256 -0.38627863 0.52843714 0.7025296 -0.6400871 0.89814144 -0.17890237 0.76373744 0.5576187 -0.9520712 -0.20804663 -0.02965404 -0.25944722 -2.090332 0.27092856 -0.3386509 -1.9616193 1.0039867 0.024012258 -0.43092313 0.39760092 -0.44115642 1.226814 1.2966459 -0.14455193 -1.4677413 0.53907317 0.94845414 -0.29393005 -0.025408724 -0.27933148 -1.6110338 0.7670266 0.4445935 -1.2103438 1.3886262 0.25431544 -1.1287605 0.72673666 1.389899 0.5424672 -0.6629565 -0.49004397 0.74660885 -0.12085376 -0.9540671 1.0026435 -0.108764395 -0.56999505 -0.38231015 0.1428305 0.16060814 1.2817383 0.20758726 0.40013355 0.09184441 -0.26467806 0.17308247 -0.77020705
j 0.047510657 0.61840194 -0.46347257 0.5997328 0.1361162 -1.079697 -0.29228407 -0.37259448 0.034677863 0.110873036 -0.3762537 -0.43098703 0.74113363 0.8873028 0.23747964 -0.19699185 0.2148323 -0.35162583 0.06162174 -0.85959613 -0.82818913 0.36748168 0.14292185 0.25760224 1.0900345 0.5162727 0.102780655 -0.7525135 0.35732406 0.6703825 0.1725367 -0.12272553 0.86965793 0.10837471 -0.5011038 0.3792359 -0.26721916 0.16788192 -0.4141967 -0.034488197 0.86218905 -0.23298055 0.50821185 -0.10664525 -0.86332285 0.121504806 -0.08770723 -0.21290673 -0.55437607 -0.2152865 0.09001864 0.11259734 -0.12473321 0.6487376 0.70867765 -0.44237366 0.52777225 -0.40036666 -0.9997651 -0.3100047 0.09321796 0.011214556 0.7658766 0.25288764 -0.15958533 -0.29694277 0.19750403 0.045250118 0.1552294 -0.7160547 0.75222963 -0.19210732 -1.0032607 0.22829343 0.19613767 -0.14306927 -0.42070398 -0.12575099 -0.89376867 0.12610546 -0.032863736 0.7778087 -0.29450867 0.029649531 -0.38485578 0.62980217 -0.057439163 0.62455475 0.17880945 -0.4311046 -0.5519985 -0.08900942 0.34591615 -0.16512308 0.08051916 0.39137587 -0.7382763 0.3257783 -0.3311854 -0.20981349
é -0.2792993 0.15946928 0.042980753 0.2722334 0.06981356 -0.17004329 -0.071424134 0.02969654 -0.17439596 -0.008893025 -0.09975832 -0.33794975 -0.02633921 0.15153688 -0.27603298 -0.07741221 -0.032119032 -0.067188 0.042737417 -0.35990533 -0.013249893 0.15769435 0.059893887 -0.10824041 -0.023782708 -0.08988332 0.022003252 0.078025065 0.18879849 0.11090713 0.08155249 0.09273544 0.04017852 -0.021579243 -0.14303847 0.10734432 -0.25155294 0.11646323 -0.16591863 -0.13464922 -0.0028493912 0.03628453 0.04107817 -0.20967059 -0.14810017 -0.11368757 0.22012477 0.022571193 -0.049661476 -0.09717184 -0.26303113 -0.21587187 -0.081352174 0.25521046 -0.086634435 0.21583049 0.11957168 0.30554196 -0.27204156 0.0092559755 0.05366035 -0.12303018 -0.10635297 -0.19016485 -0.21182445 0.3972436 -0.18170795 -0.0685638 -0.086824656 0.082094155 -0.08443084 -0.36333638 0.024481121 0.04845238 -0.11783516 0.046564892 -0.36028227 0.16710015 0.16983013 0.0971897 -0.11135766 0.025050418 0.37330475 0.11123837 -0.069516234 -0.046847545 0.5265118 0.0035152265 0.003522764 0.18055508 0.057742655 -0.22823156 0.1684879 -0.15958695 0.06887928 -0.27281514 -0.24132092 0.23555647 -0.084107846 0.09202938
_ 0.06946795 0.084884 0.008686114 0.036903247 0.04768972 -0.036065575 0.007096279 -0.049819008 0.029941667 -0.08097526 -0.037176944 -0.19554567 -0.1154769 0.038283285 -0.14685678 -0.056063063 0.123472996 0.040938344 -0.028960912 -0.11310331 0.06309901 0.049035847 0.13943076 0.02626992 -0.07159708 -0.11574331 -0.010520036 -0.016685985 0.016977636 -0.06655151 0.03807117 -0.09406257 -0.1537667 -0.064997695 -0.011176674 -0.10632407 -0.14099118 -0.1057564 0.011463124 -0.051097557 -0.10855039 -0.07611736 -0.013792302 0.013049503 -0.017657893 0.037220165 0.06434474 -0.040078018 -0.06813542 -0.058200262 -0.07274464 -0.10384341 0.07957661 0.20303398 0.004230651 0.0023436996 0.06914919 0.17499205 -0.06385297 0.0016599001 -0.046379115 0.012997951 -0.16670653 -0.082277544 -0.28828517 0.23069347 -0.037431616 -0.09455172 -0.15568922 0.020447258 -0.030322889 -0.095168196 0.08935008 0.04510923 -0.015258458 0.07479885 -0.20842893 0.07652142 0.16929501 0.05234593 -0.19713013 0.00014718123 0.2642457 0.086764045 -0.021890715 -0.06425879 0.308036 -0.09151187 -0.02338996 0.15350315 -0.065356344 -0.09400771 0.12585516 -0.10401794 -0.025993118 -0.14976788 -0.1310149 0.049018394 0.008543165 0.10580277
ö -0.06195116 0.112036735 0.03838546 0.083049804 0.059152585 -0.08309226 -0.021508811 -0.05651599 -0.06563151 -0.08675089 -0.073413126 -0.14084177 0.04328289 0.0011990775 -0.09493005 -0.08552047 0.07131836 -0.03970026 -0.0010662866 -0.13367414 0.0684751 0.006293218 0.08615323 -0.04604835 -0.047066927 -0.072975196 0.10134381 0.053618193 0.05759042 -0.024061978 0.032211073 0.013945841 -0.027939286 0.0007131585 0.015797125 0.005288535 -0.06383996 -0.034987334 0.022431195 -0.10332854 -0.0022134227 -0.029410714 0.013630796 0.008173887 -0.03474834 -0.0075940094 0.049010314 0.05331561 0.01977665 -0.099860765 -0.10217081 0.0008576485 -0.009177736 0.02655119 -0.0228711 -0.013406117 0.051128145 0.08399922 -0.022209164 -0.04649819 -0.0018499137 -0.024818312 -0.10378632 -0.074423775 -0.17956829 0.1642455 -0.114999115 -0.0010028288 -0.032514434 0.015083793 -0.07983876 -0.10301084 0.029657247 -0.023831993 -0.06921613 0.0008657119 -0.09599566 0.07781597 0.007459265 0.08319815 -0.04262901 0.018844202 0.14417027 0.09650974 -0.003263504 -0.005733008 0.15055212 0.02435538 0.062404327 0.008424134 0.016335778 -0.07152586 0.06473725 -0.107610434 0.012424361 -0.0976446 -0.09611685 0.07778599 -0.010466976 0.07000542
