26 100
e 0.7737449 0.10450022 -0.6147484 0.27326322 -0.13360555 -0.13332123 0.29878414 0.08852536 0.32886168 0.1271781 0.005512601 0.043021243 -0.0685873 -0.07106356 0.27546006 -0.2871173 -0.120182775 0.80667067 0.39238632 0.32811552 0.4884631 -0.2901835 0.17729901 0.4290492 -0.0729799 0.20448396 -0.4095196 0.34854034 0.4532087 0.079297096 -0.06763321 -0.32239643 0.1516391 -0.11521483 0.24382196 -0.07927139 0.41608182 -0.10105172 -0.20470925 0.2375742 0.4224106 -0.119655706 -0.26236665 0.3006995 -0.18748827 0.37910783 0.02672364 -0.39831772 -0.11979225 -0.2768903 -0.18935505 -0.07528697 -0.06758051 0.010720911 0.5255303 -0.07639354 -0.05082847 0.30260396 -0.26125094 -0.19551408 -0.19385898 -0.053395797 0.21729796 -0.0012104996 -0.20050432 0.1369758 -0.07857834 -0.26284885 -0.46305174 -0.24182174 -0.13973853 0.01698517 0.18347462 -0.43470457 0.24197425 0.19264977 0.05157032 0.22536205 0.11199097 -0.34317872 0.14179462 -0.060583208 -0.20995896 -0.19570376 -0.067699224 0.060761914 0.25957248 0.1326198 -0.19964878 -0.07411774 0.08634936 0.0095975455 0.23566638 -0.21670067 0.12180801 -0.15332282 -0.32493532 0.3885228 -0.024084223 -0.63493127
t 0.7860509 0.31351602 0.20576766 -0.029016415 -0.15543765 -0.15850267 -0.26873764 -0.22129934 -0.70259446 -0.41137153 -0.08636539 -0.2087516 -0.8081065 0.109848164 -0.21868622 0.4436225 -0.0876178 -0.022337496 -0.37221634 -0.3160221 0.080936916 -0.27536488 0.1733929 -0.15525053 0.15459564 -0.017272297 0.11982791 -0.46569172 0.19180995 -0.105607346 -0.1476402 -0.06292041 -0.3158908 -0.58687377 0.1130073 0.25769925 -0.2583628 0.02752701 -0.1262774 0.033279024 -0.75097644 0.16088457 -0.45027092 -0.30369556 0.09752097 0.016714355 -0.25350645 -0.25118077 0.58947647 -0.28360653 0.23193075 -0.42714062 0.16594307 0.47661093 0.020234419 0.60856515 0.06402334 0.058028236 0.21552725 0.53732395 0.16664472 0.031819288 -0.934287 0.5281107 0.6155989 0.5395158 -0.49842763 -0.11512223 -0.0997941 -0.15340826 -0.009723871 -0.09487747 -0.5164088 -0.069365054 -0.37053713 -0.123085804 0.16478138 0.18442918 0.0030759247 0.32742748 -0.16909114 0.20555265 -0.07998836 -0.36634657 0.06518487 -0.24848598 0.11119131 -0.11267696 0.114921704 0.08613958 -0.42670417 0.23324148 -0.18604855 0.24557006 -0.18204899 0.23447996 0.40674016 -0.5371847 0.3411713 -0.102949575
i 0.50539905 -0.5804543 0.52096575 -0.009818273 0.16096185 0.36103272 0.30241704 0.42601004 -0.17510244 0.06986934 0.28699917 -0.42371917 -0.10777516 -0.34927833 -0.16949587 0.4835057 -0.22163256 0.1740916 -0.42980406 0.28795302 0.31915763 -0.76087344 -0.15290071 -0.39101845 0.24701472 0.7505683 0.37611884 0.26511717 0.2768561 -0.3248731 -0.7001043 -0.17053369 -0.3057719 -0.107515454 -0.13624223 0.14135943 0.2662357 -0.054022055 -0.026136566 0.27809837 0.12392566 -0.22402605 0.24464987 0.09111642 -0.02214691 0.5535893 -0.57138985 -0.33239007 -0.6051255 -0.2772455 -0.4306924 -0.47460735 0.0025627373 -0.10291902 -0.075238064 0.5299296 0.27033263 0.04010224 0.29241523 -0.118960366 -0.083351605 0.12467528 -0.0020065918 0.2068816 -0.046169132 -0.19524951 -0.8344864 -1.1242557 -0.17520379 -0.0034235148 -0.1907771 0.37497148 0.36219177 0.19770737 -0.020708198 0.13759924 0.28863877 -0.107409105 0.15269804 -0.61613405 0.34561184 0.28189516 0.2808576 -1.1849816 -0.03164009 -0.39213338 -0.007826526 -0.8748698 -0.13357307 -0.9386691 -0.27099523 0.0081481775 -0.7794713 0.004017249 -0.40127403 0.4789149 0.87763774 -0.21438266 0.5495889 -0.10725703
o 0.012925435 -0.2940743 0.20996366 0.18960743 -0.19284046 -0.32091716 0.34995946 -0.07260159 -0.32754725 -0.63985616 -0.39215967 0.14368187 -0.27936444 -0.17642368 -0.34307483 -0.012557149 0.02086447 0.45618638 0.13779388 0.3411315 0.5606019 -0.46183154 -0.1078458 0.24046487 -0.113298856 0.48225957 -0.56353635 0.17427549 0.10972901 0.2998422 -0.33532667 -0.35250655 -0.26937038 -0.072796576 0.4096986 -0.122500986 0.3685399 0.022311188 0.4398567 -0.105536394 0.23255423 0.1609104 -0.9329257 0.1351639 0.02143195 -0.02545164 -0.7267781 -0.14368977 -0.265776 -0.23915645 0.060666922 -0.43411687 -0.30502364 -0.1912055 0.14799605 -0.038311064 0.5697394 0.44508854 -0.401166 0.19187784 -0.44345957 0.15363419 0.17525469 -0.30594635 0.0039301957 -0.09288024 -0.20577936 -0.5556129 -0.43330172 0.29672703 0.23019369 0.335794 0.1462728 0.013888641 0.056859687 0.9917576 0.18746074 0.4243462 0.28716815 0.123151645 0.37155536 0.1223963 0.08111345 -0.23977661 -0.5155914 0.069254495 0.6052808 0.15070808 -0.6174373 -0.115175925 0.024105772 -0.13963169 -0.2802221 0.3537303 -0.073297985 0.36156565 0.26029783 -0.17288707 0.72679603 -0.4676108
a 0.039195336 0.10037089 -0.13523291 -0.31725955 -0.03944424 -0.035418592 -0.028341848 0.022656986 0.34815595 -0.358088 0.3028742 0.02775144 -0.11623333 0.13769227 -0.10443463 -0.06274665 0.30883375 0.39822108 0.16896932 0.3545705 0.059686683 -0.24182035 0.06834182 -0.039898377 -0.25345173 0.16214323 0.01400013 -0.015538571 0.23659019 -0.049431387 -0.23290929 -0.12282326 -0.39701328 -0.18049458 0.45141312 0.33945966 0.2194412 -0.28027868 0.14198306 0.10813928 0.5474769 0.22202614 -0.3190828 0.2302833 0.26605454 -0.26786563 -0.7430837 0.038336914 -0.2867828 -0.15535986 -0.07660582 -0.57810426 -0.37673816 -0.36477658 -0.19797778 0.1799102 0.42077366 0.353526 -0.06946873 0.07288713 -0.511885 0.22981328 0.13857564 -0.12324045 0.0008816181 -0.560403 -0.084494874 -0.70151883 -0.25477532 0.20056167 0.18619904 0.26936224 0.032423373 -0.039670285 -0.13935131 0.70799655 0.05989845 0.46760944 0.08625294 -0.24227 0.27345654 0.063816205 0.32767254 -0.2707729 0.05783839 -0.070753105 0.010990067 -0.083144054 -0.82672185 -0.33487645 0.1629676 -0.08184919 -0.27183118 -0.036633354 -0.040440667 0.1253339 -0.026267936 -0.5221384 0.54359806 -0.46272665
r -0.61954427 -0.30756453 -0.23526946 0.49495205 -0.019174134 -0.03660391 -0.111061655 -0.24280936 -0.07917717 -0.28519243 0.12404776 0.00020862027 0.14675564 -0.14329077 0.52681303 -0.365771 0.37034592 -0.52572125 -0.09037015 -0.15806106 0.5154703 0.5529858 -0.05572948 -0.16095182 -0.29134515 0.05250082 -0.22020458 0.11413003 -0.7422582 0.063782915 -0.39376202 -0.20831211 -0.3943518 0.3886192 -0.2572585 0.35061318 0.38521808 -0.10394626 0.04184137 -0.5143775 -0.30166987 0.033155117 -0.030699516 -0.93980294 0.06503108 -0.013512349 0.15852925 -0.49727365 0.1788383 0.15112112 0.10555084 0.05884936 -0.09876376 -0.40450767 -0.040211767 0.13649593 -0.31682134 0.034010448 -0.36439154 -0.052129272 0.27617392 -0.06830005 0.13495198 0.22577596 -0.2326325 0.036995202 -0.060975026 0.63744456 -0.21656708 -0.23963176 0.4816273 -0.16611679 0.43025398 0.21860035 0.15550186 -0.8049872 0.31308404 -0.22292782 -0.08823206 -0.26430672 0.4512761 -0.34063765 -0.51774025 0.18981268 0.27884924 -0.7545497 0.035682593 -0.35251373 0.31043765 0.10757357 -0.27030972 -0.119791806 -0.36386496 0.16785616 0.11166885 0.04125313 -0.060914807 0.02099913 0.100482516 0.14434946
n -0.33677042 -0.10785138 -0.4620402 -0.3691859 -0.32587808 0.21548648 0.5036453 0.13949838 -0.03806237 0.21359055 0.2647791 -0.25229454 -0.40502924 0.2562881 0.060760405 0.2642347 -0.16292672 0.36988723 -0.428623 -0.13431402 0.004358576 0.7052957 0.016434224 -0.47855666 0.028097663 -0.22326624 0.6923 0.2691976 0.039891068 0.17529628 0.28390932 -0.009198477 -0.2110783 -0.3893795 0.48801526 0.5170834 0.20455834 -0.7506249 -0.41313565 -0.15017496 -0.35340086 0.26199496 0.17578152 -0.72760767 0.4400609 0.79345524 -0.41075432 -0.21441446 0.2604283 -0.48272502 -0.24005383 -0.43234563 -0.22839612 -0.48513305 -0.6321564 0.04920383 0.56445956 0.19824892 -0.21841353 0.43138242 -0.034123216 0.3225921 -0.2712401 0.46179917 -0.08337776 -0.23557778 -0.11033095 0.21126993 0.23673575 -0.4246611 0.5646372 0.34126613 0.21639125 0.10702998 0.14412066 -0.45239145 -0.22635135 -0.6250938 -0.39651346 0.7274274 -0.32537213 -0.7689511 0.24618788 -0.04876726 -0.4574367 -0.6808789 0.07843561 0.21715109 0.10016479 -0.6527001 -0.36031872 -0.28415796 -0.2893187 -0.15846731 0.24036546 0.8848075 0.7458157 -0.9517861 0.5901245 0.34286973
c -0.11571681 0.52236724 0.72936165 -0.20826784 0.10931314 -0.022961935 -0.09758311 -0.56472164 -0.14619009 -0.26989165 -0.05760613 0.035097428 -0.27223304 0.24350175 0.32820117 0.28802627 -0.34432998 0.14953676 -0.99941593 -0.42441216 0.33455062 -0.07640148 -0.29602492 0.6360719 0.3384688 0.19172256 0.7627893 -0.32845527 0.2844574 0.13310106 0.16873185 0.10345111 0.18217368 -0.776009 0.29255837 -0.018450936 -0.06961408 0.2640804 0.2671718 -0.23707005 -0.6599956 -0.52406186 0.11399779 -0.5595287 0.1544517 0.24098983 -0.0692461 -0.56984335 0.4904958 -0.37803888 0.23268428 -0.18939771 -0.029256353 0.63046056 0.045743477 0.7302921 -0.6314403 0.035558544 -0.14781325 0.26162326 0.50336146 0.061673876 -0.13900161 0.09834914 -0.28247797 0.28617918 -0.45611718 -0.2355856 0.2556393 0.48542845 -0.3896214 0.13044773 0.266538 -0.34367007 -0.15249227 -0.7319565 0.24272032 0.20010246 -0.21964653 -0.053280037 -0.08320017 0.06678771 -0.036859863 0.063289456 0.1273894 0.33398592 0.09284827 0.28566924 0.5927676 0.21270111 -0.6380792 0.5970297 0.06211796 0.028840566 -0.10506497 -0.30572516 0.24235713 -0.062269967 0.011977144 0.0790182
s 0.26436418 0.014551567 -0.043524552 0.03153504 0.27387518 -0.21311632 -0.2944172 -0.18698917 -0.036526997 0.25220728 0.24397187 -0.29539078 -0.29760063 -0.1798871 0.27867478 0.304932 -0.18417066 -0.48502278 -0.5235258 -0.06408516 -0.13781123 0.29275596 -0.06497142 -0.24499841 -0.068618156 0.006403599 -0.14523236 -0.03402218 -0.040746003 -0.1191744 -0.09173358 0.28356433 -0.1503008 -0.22894756 -0.04625572 -0.15706342 -0.25065055 0.00084304373 0.18304747 0.29605997 0.14464562 0.08908809 0.1500245 -0.22239998 -0.24932227 -0.098097764 -0.43571842 0.28548735 0.044744402 0.12017889 0.12134209 0.14283618 -0.13995714 0.21244535 -0.5977308 0.11056038 -0.36409825 -0.07181791 0.08664145 0.10430349 0.080577284 -0.21365854 -0.1595677 0.15462385 0.22527358 0.10071285 -0.20381814 0.18302107 -0.028298482 0.1131135 -0.014703807 0.13364281 0.20798662 0.2494804 -0.07527839 -0.5064138 -0.14357127 0.12916079 -0.45858258 0.089848585 -0.1381028 -0.11162429 0.54532653 0.04659187 -0.16654985 -0.027809508 0.06714743 -0.033763614 -0.1831036 0.22058977 -0.28115842 -0.012702696 -0.039499123 0.25906006 0.0047522034 -0.026425058 0.08748603 0.014573745 0.13811381 -0.22407587
m -0.028312586 -0.10813918 0.7125756 -0.072456375 0.0061219996 0.28096753 -0.32196712 -0.004104348 -0.33404467 -0.5732541 0.056301642 -0.10243095 -0.22704577 -0.12494314 0.03653008 0.120741576 0.16156915 -0.0893199 -0.00047065658 0.036138915 0.2964279 -0.061228424 0.19638461 0.12721632 0.08616503 0.12517212 0.3819357 -0.17246251 -0.18110172 -0.107775405 -0.16632803 -0.08538357 -0.018789534 -0.30971542 0.013146647 0.4054823 0.035733473 0.0643258 0.25140017 -0.27231318 -0.43461812 0.1483039 -0.27104604 -0.60347784 0.3189827 -0.14084819 -0.066075146 -0.40711287 0.3418265 -0.13759284 0.05816384 -0.5846442 -0.16872646 0.05024329 -0.001959646 0.4078143 0.17510575 -0.012465922 -0.17281695 0.34649274 0.1654275 0.205024 -0.107538685 0.2308512 0.14699279 -0.044266563 -0.46166903 -0.2200001 -0.15117624 0.0422266 0.1881937 0.33750266 0.16390203 0.14798617 -0.16292061 -0.010880606 0.13591549 -0.17438656 0.34250197 0.24103959 -0.20947625 -0.33484745 -0.34992304 -0.4275853 0.21614611 -0.11982255 -0.11070888 -0.0062008267 0.24041277 -0.33773175 -0.49041843 -0.10443745 -0.03810862 -0.018546812 -0.22020794 0.29262018 0.5548572 -0.34374076 0.14226633 0.34183952
l -0.08902652 -0.0068308813 0.07390552 0.14295599 0.1440402 0.5877859 -0.42559838 0.26267478 -0.13963294 0.057445936 0.2453054 -0.39356312 -0.2354693 -0.05702404 0.50301534 0.3636299 0.122859046 -0.60573244 0.066231295 -0.31631392 0.055821985 0.34691206 0.22149298 -0.3618923 -0.026709445 -0.42869866 -0.42464253 0.17815503 -0.5436598 0.05645017 -0.6453028 -0.11063446 -0.4002137 0.32061195 -0.23799247 0.7417074 -0.25449198 -0.37317228 -0.47369698 0.10486521 -0.13821799 -0.2970037 0.3156439 -0.097357154 0.41771594 0.29588422 -0.13294418 0.34770373 -0.106816895 -0.20571919 -0.3860461 -0.23422332 0.14776745 -0.03524931 -0.20776622 0.47004843 -0.009055455 0.26107806 -0.1824616 0.46857318 0.2055126 -0.02814581 -0.37763062 0.4963559 0.5015294 0.42432034 0.090230174 0.017826622 0.038064733 -0.26936123 0.3173787 0.3604394 -0.112425886 0.533965 -0.19640493 -0.50875425 0.1749204 0.021718774 -0.26320657 0.4639558 0.34124613 -0.07232205 0.4686594 0.0071156947 0.30301926 -0.45240256 -0.32637376 -0.22066826 0.41077188 -0.13110429 -0.17152865 0.30036575 -0.40875018 0.15316631 -0.28606272 0.053377315 0.27510902 -0.46287873 0.24390939 -0.036683425
p -0.020886125 0.20081396 -0.111553855 -0.7554921 0.0075435624 0.24385029 0.24283682 0.013950376 -0.410333 0.08731556 -0.2447201 0.100557946 -0.15453681 0.124711834 -0.712676 0.2281104 -0.4911114 0.02865665 -0.22684172 0.16451128 -0.24429432 0.056930833 0.27759776 0.24581584 0.8023459 0.4022207 0.80424285 -0.09575468 0.7740669 0.07794397 -0.12012452 -0.3565728 -0.26226377 -0.6998438 0.08836759 -0.007967026 -0.26389295 -0.11364768 -0.4189691 -0.37600616 -0.6706622 0.2764424 -0.057867467 -0.44117412 0.72891057 -0.113792405 0.16160777 -0.13032551 0.21509926 -0.28950563 -0.1321806 -0.6623277 0.16423906 0.34201336 -0.2553675 0.11762778 0.4189244 -0.24849764 -0.14431737 0.37922028 -0.12383256 0.49685374 -0.1782751 -0.004985745 0.2959963 0.2240388 0.20000768 -0.32304788 -0.033460204 0.13259575 -0.08218038 -0.15417169 0.001149876 0.17016725 0.13234816 -0.19485854 0.24276333 -0.11165379 0.30314326 0.05143839 -0.5747917 -0.056951173 -0.18503033 -0.40914422 -0.113279365 -0.2725665 0.05756831 -0.035845365 0.37289527 -0.096461356 -0.19347733 0.026992232 0.31048003 -0.32308847 0.4425617 0.5379243 0.5983335 -0.07284975 0.0402295 0.5099265
u 1.2133646 0.4905798 -0.57964617 -0.41204664 0.4518782 -0.20939754 0.2696293 0.284937 0.26220495 0.32197326 0.43592498 -0.06476776 0.2929051 0.30341062 -0.57858497 0.24856207 -0.3809959 0.7431628 -0.019429503 -0.6086818 -0.36407244 -0.6988689 -0.39121723 -0.2410969 0.56264055 0.42286766 0.8078286 0.24412443 0.6671357 -0.12856165 0.21882758 0.218904 -0.041610524 -0.38972086 0.35742033 0.55504096 -0.14520636 -0.42379832 0.03644972 0.9417965 0.45267582 -0.1997343 0.2884489 0.0089756 0.22274624 0.28672305 -0.2999898 0.39676458 -0.3204472 -0.22088414 -0.4827168 -0.15554968 0.25272256 -0.2830611 -0.7128694 -0.09040031 -0.052977204 -0.22105972 0.09752859 0.36462057 -0.36034313 0.09859818 0.20061673 0.109629415 -0.06926455 -0.78750545 0.45395517 -1.0221462 -0.0009542306 0.54419404 -0.27899054 0.3221991 0.5116039 0.05262636 0.12450488 0.1786517 -0.14693235 0.289124 -0.2637524 -0.38644248 -0.24624926 0.16829422 0.5876675 -0.7942984 -0.22796947 0.2469159 -0.4392114 -0.2980705 -0.45457906 -0.44725022 -0.18485615 -0.26737285 -0.26082996 -0.34839344 -0.20404088 0.63580173 0.43531916 -0.6347801 0.39353198 0.08606223
d -0.2143615 0.5528639 -0.39615935 0.08339166 0.17715093 0.1611441 -0.5362805 -0.07617369 -0.44143185 -0.2035303 0.066872664 0.0011711048 -0.5466978 -0.16399874 0.5235292 -0.055260256 0.24437293 -0.34861976 0.042290766 0.43673265 0.015117588 0.34404022 0.48402977 0.08895546 -0.09478966 -0.39960915 -0.007906688 -0.22004864 -0.19294469 -0.02108497 -0.24748752 0.5880578 -0.07196464 -0.13770704 0.26643032 0.27986187 -0.1666461 -0.20441687 0.008970282 -0.023913942 -0.112701505 0.25286624 -0.023287924 -0.5551408 0.23259646 0.13488807 0.09605313 -0.22961977 0.06741181 -0.25420663 0.15284106 -0.23066477 -0.31191036 -0.15911148 -0.2128324 0.18515067 0.34459525 -0.15387836 -0.07491453 0.3646263 0.31268418 -0.18268465 -0.019219799 0.4097239 -0.07525206 0.00823797 -0.407593 0.26189303 0.4469609 0.01663965 0.23056449 -0.16303925 0.2708407 0.37144023 -0.59932935 -0.4443528 0.2804567 -0.0026503857 0.04172302 0.64311415 -0.33553857 -0.08253093 -0.14876913 0.11529148 0.33677655 0.10940117 -0.06388617 0.08219462 -0.24054408 -0.14974421 -0.097121246 -0.15533963 0.1304981 0.2517953 0.24332094 0.1642975 0.12570947 -0.20060061 -0.41617596 -0.15832122
y 0.04475419 0.5474752 -0.8991263 -0.059113696 -0.5331272 0.02449051 0.20745344 -0.39823723 -0.65103704 -0.03075637 -0.29414386 -0.16428943 -0.2195882 -0.25232437 0.7937883 0.2904679 0.3150608 0.61137784 0.36536103 -0.11836366 0.07231701 -0.03096571 -0.061024673 -0.19729808 0.05927555 0.54536885 -0.032503285 0.40995428 0.30211237 0.05380463 0.37615338 0.040267717 -0.31088132 -0.44752955 0.30663696 0.45576355 -0.13745423 -0.22196032 0.3743293 1.186141 0.62691784 -0.14708406 -0.46446216 -0.4845563 0.07407537 0.8798281 -0.5137281 0.40607545 -0.28480583 -0.4397788 -0.7626766 -0.37833002 -0.020316213 -0.5572456 -0.8570218 0.13288759 -0.02807865 0.33287483 -0.14823705 0.49323267 -0.39347962 -0.006144046 0.10053348 0.2140212 0.15729338 -0.53788644 0.06726899 -0.4462783 0.12634684 0.008819812 -0.01314814 0.9438016 0.77241486 -0.13852832 -0.07896142 0.084070966 -0.24389651 -0.19040944 -0.36585248 -0.1902563 -0.08173509 0.030577403 0.85333747 -0.53750104 -0.5705773 0.4101787 -0.35664225 -0.1505414 -0.43377948 -0.8045074 -0.19114117 -0.7917632 -0.29022458 -0.052343458 -0.6232079 0.35924116 -0.11584953 -0.8465136 0.006899708 -0.3309193
g 0.13468425 0.39934623 0.80702406 0.23503298 0.70221394 0.15277414 -0.8007872 0.33445373 -0.0062463544 -0.3979694 0.100123584 0.40431693 -0.14581719 0.003585923 -0.4141496 0.2768933 0.36744297 -0.4001037 -0.31402194 -0.31423897 -0.46779105 -0.37924072 0.04537028 0.6125284 0.3435659 -0.5980504 0.53753024 -0.38525724 -0.05865483 0.37068468 -0.07300857 0.36767086 0.35741344 -0.47366908 0.26499328 -0.17307395 -0.27808377 0.47894737 -0.32802624 -0.61963165 -0.69081765 -0.007481324 -0.06957637 -0.15355267 -0.01717672 -0.34646517 0.20096233 -0.07094801 0.7520061 -0.27321163 -0.10868131 -1.0180327 0.023526134 0.18701468 0.052895516 0.21735528 0.66228384 -0.647196 -0.03854416 0.68489635 0.520247 -0.115117185 0.087970115 0.4746116 -0.1681133 0.32989302 -0.162514 -0.1802298 0.0663371 -0.02344555 -0.17958866 -0.21724595 0.13386463 0.23749056 -0.7075727 0.29276973 -0.06118822 0.24278142 -0.09881614 0.75282013 -0.042823892 0.1667027 -0.132499 -0.039712578 0.7207717 0.5958575 0.5484961 0.5123112 0.17832832 0.19368604 0.05187388 0.11708302 -0.2936455 0.66790587 -0.20722525 0.28906912 0.58563334 0.0717048 -0.08597068 0.12866029
f 0.8735576 0.1657624 -0.63440657 -0.08508441 0.67118144 -1.2105875 -0.29294515 -0.5026884 -0.3573034 -0.51247615 -0.4915584 0.1962512 -0.53527886 0.02171471 -0.5282803 0.23039556 -0.48393002 0.12275493 -0.45486754 -0.19073562 0.31523967 0.4533172 -0.22531988 -0.0074499385 0.21019885 -0.12976423 0.23396239 0.18915226 0.16862369 0.32402322 0.15449716 0.11471848 0.03364681 -0.4393765 0.576996 0.009376932 0.09694037 -0.5320229 0.046561565 -0.6724798 -0.6279504 1.0120823 -0.4322471 -1.1668983 0.42950907 -0.31435108 -0.35728055 -0.6728996 0.7952205 -0.32185644 0.9971514 -0.26275206 -0.3654013 -0.10668302 -0.58319116 -0.31304994 0.40700823 -0.29364347 -0.80159736 0.35512355 0.022864109 0.61544865 0.05041449 -0.20972161 -0.17039432 -0.06530673 -0.09536799 0.41312674 -0.23857507 0.1824972 0.23034008 -0.31378534 0.63650686 0.3593269 0.37981963 -0.66199577 0.1897314 -0.27388665 0.00030921222 0.27360803 -0.35429618 -0.7621264 0.086860955 -0.17509635 -0.47489256 -0.5009514 0.9010553 0.42461973 -0.40155494 0.08084287 -0.626538 -0.2518952 0.4583361 0.4618296 0.5960315 0.27729484 0.7374373 0.09422227 0.39748174 0.21766911
h -0.045589995 -0.057815857 -0.09503267 -0.34567612 0.03447746 -0.38977236 -0.1395142 -0.03479026 0.14025337 0.10369469 -0.11300555 0.0057282625 0.5555065 0.38385507 -0.15599701 0.21204905 0.4477264 -0.13016132 1.0913112 -0.6144594 -0.25215077 0.077468865 0.044185363 -0.61046803 0.1694888 -0.020581886 0.24446382 0.3289582 0.21000154 0.12621154 0.62605417 -0.3028397 -0.050672982 -0.044560634 0.06916362 0.17069899 -0.04513083 -0.032299154 -0.658236 0.23635656 0.5057767 0.033776518 -0.02632429 -0.32887167 0.23954806 -0.13989411 0.46039015 0.442209 0.3149822 0.19650367 -0.3941329 -0.53755796 -0.023321433 -0.48463348 -0.26838127 -0.45580962 0.28470957 -0.32839707 0.10300529 0.32294673 -0.5153988 0.30035216 -0.20222993 0.5094895 0.1846084 0.2379221 0.51859725 0.62995356 -0.5514229 -0.7299439 0.38340342 0.09783025 0.13245225 0.19388704 0.098920316 0.16921897 -0.21305552 -0.5299837 -0.113435134 -0.19482355 0.07219296 -0.11705526 0.4814615 -0.06926656 0.28389725 -0.09989411 0.22987102 -0.36027986 0.059487168 -0.65735626 0.5940137 -0.8556089 -0.009633829 -0.23433466 0.21645695 0.28507325 -0.39058402 -0.36765492 -0.18820341 -0.2778308
v 0.444948 0.38722804 0.053239487 -0.21005996 0.520659 -0.22447062 -0.5056406 0.002614654 -0.6466815 -0.47478822 -0.20253004 -0.08071397 -0.5092595 -0.017313328 -0.48467925 0.45513016 -0.23154464 -0.23446208 -0.27447936 -0.20030129 -0.39899048 0.06439716 0.2814938 0.0987383 0.41314864 -0.3539636 0.683825 -0.5688838 -0.06671474 -0.16424601 0.4913336 0.8429421 0.19836895 -0.6358154 0.24618472 -0.0649495 -0.49624592 0.2457744 0.8190005 -0.088993624 -0.716167 1.0246418 -0.39225012 -0.42588103 0.17514461 -0.6196682 -0.46127602 0.46877855 0.10444971 0.17954524 0.7584442 -0.36182114 -0.2167109 0.42466143 -0.8370093 0.07840215 0.35635528 -0.37951434 0.121224 0.4288238 -0.058167037 0.03034742 -0.26185188 -0.09058239 0.4246444 0.04177767 -0.09852268 -0.15906964 0.025059355 0.41639814 -0.17080982 0.1833736 0.2787327 0.46408156 -0.70991635 -0.110337116 0.11472121 -0.09543167 0.11937117 0.8464928 -1.0155672 -0.1793409 0.43346938 -0.10270468 -0.52447146 0.38382939 -0.18073852 0.30486667 -0.061342098 0.20960732 -0.7916722 -0.46327272 -0.2854152 0.38604164 0.07280579 0.74094325 0.9440047 -0.9965802 0.11131448 0.80452967
b -0.7280364 0.74609065 0.2982446 -0.30619717 0.34614322 -0.4678791 -0.17751889 -0.3219036 -0.5390043 0.10682773 -0.54271126 0.035469797 -0.34186324 0.41505012 -0.09223063 0.26526123 -0.19855396 -0.44866186 -0.59645534 -0.15714912 0.23022868 -0.1331184 -0.04955414 -0.03402277 0.0019297112 -0.27919465 0.019245816 -0.36717653 0.26267543 -0.063351825 0.15762468 0.6916661 -0.74581075 -0.37398696 0.40525696 -0.35099325 -0.40412226 -0.40056002 -0.19872332 -0.1097063 -0.48103857 -0.7274592 0.22303434 0.5144482 -0.044840045 0.15247741 0.15673834 0.4494608 -0.293356 -0.08816352 0.025213959 0.32846922 -0.22309859 -0.009699926 -0.15440693 0.22085693 0.40373856 0.60130244 -0.14450404 0.3905056 0.21076687 0.45427993 -0.40522715 -0.4197792 0.1454373 0.1472005 -0.66088915 0.14665194 1.1673143 0.44717795 -0.144018 0.17647655 -0.67142415 0.17081068 -0.95417887 -0.020796292 0.28873554 0.13004337 -0.30055964 1.2357165 -0.002933316 0.48100862 0.74963665 0.83781034 -0.29573318 0.6183158 0.37070787 0.2844937 -0.1043528 0.36411953 0.29456553 0.47237822 0.03099691 0.38679534 0.29942572 -0.72748154 -0.034699887 -0.59629756 0.25246105 -0.38384235
w -0.75481975 0.28303263 1.4345876 -0.8056538 0.53500724 -0.2953331 -0.62331766 -0.122260995 0.7324459 -0.13293399 -0.9583453 1.4150636 0.95354086 0.0013812952 -0.087635316 -0.5558561 0.5717336 -0.08798079 0.0030861825 0.45993975 -0.79188186 0.10916015 -0.22643712 0.85525376 -0.6753368 -0.64133555 1.1186786 0.23760173 -0.051793896 -0.032206923 0.5367702 0.36703956 1.0677174 0.17170246 -0.1254611 -0.11686806 -0.29814544 -0.19787861 -0.6614344 -1.056912 -0.59906775 -0.65235937 0.39456233 -0.044101875 0.61831766 -0.28095526 1.5363699 -1.2458248 1.2441242 -0.39524218 -0.021775635 0.050167028 -0.4596518 -0.56028754 0.84315336 -0.6693216 1.2555196 -0.47803295 -1.0712382 -0.2527044 0.9836004 1.5119759 0.7008654 -1.099665 -1.2502444 -1.7211118 -0.56232065 0.677543 1.7063582 0.45585552 -0.18595396 -0.41319355 -0.23722088 -0.2171443 0.10530406 0.3735104 -0.544578 -1.1997011 0.6313555 0.5400938 -0.52154964 -1.0318303 -1.2579285 0.053503692 0.5654231 0.6569112 0.39745 1.2198411 -0.1337997 -0.38961914 0.19602114 0.30086616 1.6554464 0.07072428 -0.31145114 -1.6389908 0.3405989 0.7263166 -0.97415376 1.591016
k 0.42989367 1.0652006 -1.9803456 0.56144106 1.5876378 -0.32073858 -1.1621288 0.5900876 0.10613538 -0.092406996 0.011910124 0.5496736 0.6065611 -1.519855 -0.17819896 -0.26612636 1.2742757 0.3530216 1.5794375 1.9992719 0.4877856 0.5701484 0.80797255 0.8814715 0.8003415 -0.6950226 -0.8998319 0.9856761 0.22766742 0.96371484 -0.60237026 -0.05437573 -0.3700103 0.31671277 0.32631195 0.5961885 0.20980074 0.38488653 -0.57463455 -0.63608444 0.3150116 1.8129495 -0.22244823 -0.3995554 0.9021276 -1.1734315 0.98163676 -0.7870857 0.4568737 0.26291865 0.54874283 -0.5209809 0.3776244 0.13421394 0.19673108 -1.0872885 0.8878309 -1.0652946 -0.75662214 0.3791828 -0.10465586 0.57386225 0.95707095 -0.2882329 0.65990037 0.1727228 0.35520282 0.0024920495 -0.77302164 -0.4056438 -0.16697074 0.28670692 0.89634365 1.3793259 0.36442372 -1.1594455 -0.032290272 -0.8898485 1.0838052 -0.6625964 -1.1068779 -0.8035665 -1.0987989 -1.3352216 0.50927746 -1.3217286 0.11087983 -0.40219435 0.3870904 0.71674937 0.0111788865 -0.69550824 0.5222022 0.1683566 0.3143392 -0.028470995 1.3222426 0.86357766 -0.28910276 1.7849209
x -0.76518506 -1.0519695 0.6840294 -0.15946065 0.2572317 -0.13646303 0.11772652 -0.2679682 -0.733288 -0.83506113 0.5683399 -0.020392988 -0.6820298 0.59123546 -0.34640414 0.4433407 -0.31882277 -0.56639403 -0.3028902 -1.0169908 -0.16816221 0.37668926 0.1280747 -0.40093693 -0.00061266706 0.66130334 1.0183266 -0.3653746 -0.28636935 -0.120655306 -0.274069 0.3552197 -0.13757348 -0.484512 0.45346615 -0.10514885 0.33631387 0.08948958 0.9205524 -0.28786328 -0.08444995 0.7314774 -0.7739166 -1.4622902 0.69590145 -0.27394328 -0.88054234 -0.05341352 -0.29241112 -0.030269995 0.79182786 -1.0524782 -0.9125031 0.068032734 -1.2148997 0.3796066 0.16380756 -0.25521815 -0.15645953 0.5541873 -0.5907623 -0.09106714 -0.14100254 0.49652952 -0.37040338 -0.096213676 -0.053987686 -0.29391378 -0.2383663 0.6781545 1.1159058 -0.34869006 0.883349 0.7615847 -0.6319112 -0.32385623 0.62605095 0.37135136 0.25327727 0.43270767 -0.6017449 -0.1174244 0.47330737 0.01429638 -0.26496413 -0.43175858 0.0070972173 0.12912282 -0.23474097 -0.4776232 -0.52444893 -0.59569424 -0.871634 0.21620089 0.44134223 1.6707096 1.0440876 -1.2638624 0.49375913 -0.0064085526
z -0.7608065 0.79630834 1.599197 -0.8593272 -0.18102457 0.4649789 0.29947084 0.22902529 -0.7568283 -0.7463827 -0.057514798 -0.17658663 -1.2954525 0.115140095 -0.25874338 0.5453105 -0.15568683 0.8216606 -1.4279944 -0.4822799 1.3016154 -0.31461743 -0.33955818 0.15949552 0.9224546 -0.4110914 0.52341 -0.31433925 0.1682895 0.47510672 -0.34277365 0.5525872 -1.2548882 -1.237455 1.1295812 1.2938031 0.16537741 -1.3686886 -0.5410971 -0.32607472 -1.6985396 -0.13609844 -0.03236159 -0.57292664 0.082265355 1.0243967 -1.0676252 -0.34572247 0.41416806 -1.5060943 -0.46138525 -1.5600073 0.6771968 -0.5033393 -0.61305964 1.3129622 1.1944549 1.0349948 -0.049292736 1.5494593 0.4801298 0.0077948435 -0.6193728 1.0202231 0.5098635 0.60904175 -1.0514562 -1.2171644 0.38632864 -0.36308065 -0.046686057 1.2390095 0.22754166 -0.05984477 -0.9822804 -0.37494034 0.08223032 0.15492287 -0.5586827 1.9631972 0.4585069 0.00033550247 0.61879486 -0.5408285 -0.08508106 -0.37347776 0.64638716 0.22756085 0.27780905 -0.36778215 -0.74401516 0.21793146 -1.1976596 0.50707316 -0.4753334 1.3011212 1.4281408 -1.4328074 1.6102948 -0.6686336
q 0.15683122 0.06669317 0.29365647 0.92346203 1.0757546 -1.0638343 -1.6149036 -1.0603915 -0.44964302 -0.16422546 1.0446326 -0.991294 -1.071942 0.31362763 0.61982924 1.6229997 0.34076574 -1.5377216 -1.64575 -0.688197 0.21508588 0.055147536 -0.11457353 -0.58817655 -0.0094587365 0.2006744 0.9497015 -0.7876648 0.5035309 -0.0957325 0.3329788 0.45967343 -0.679183 -1.7843399 0.8006794 -1.4383119 -0.13889708 1.2172891 0.3159064 -0.2940876 0.16795164 -0.44499567 0.26761305 -0.74926907 -0.6504224 -0.23104815 -0.99974895 0.20042773 0.6374887 0.40621734 0.23182051 -1.0331018 -1.3668219 0.7901102 -1.1889 1.2376813 -1.0026314 -0.32140025 0.44542798 0.705021 0.21422854 0.12435083 -0.4856194 0.74789596 0.093451895 0.78963006 -1.9737719 -0.043057773 -0.2021943 0.06539676 0.09599033 0.57280195 0.19159561 0.4124319 -1.2366563 -0.83027273 0.1420821 0.37807968 -1.2682855 -0.057502907 0.0971498 0.38161346 1.9737127 0.45096815 0.6703594 0.56270677 0.93577987 -0.19477442 0.12268281 -0.12750836 -0.08014124 0.3918334 -0.9698238 0.7640386 0.2422476 -0.63308746 0.19781895 -0.54510784 0.62077224 -1.3593339
j -0.18899985 -0.5963716 0.12142426 -0.7782699 0.27549747 0.37242904 -0.118941925 -0.23654404 -0.10330457 0.19828683 0.5493289 -0.13587953 -0.44407937 -0.1395129 0.66573983 0.48947757 -0.4297247 -0.5180284 -0.07551869 0.053359736 -0.3868898 0.8719116 0.21512951 -0.49031314 -0.10052804 0.55633855 -0.14164189 0.58540154 0.019703021 -0.13459496 -1.2592288 -0.16901083 -0.2618824 0.23469412 -0.21608569 0.7300633 -0.20827523 -0.60912293 -0.119802944 0.6236878 0.82838213 0.24878778 0.175154 -0.83410305 1.219541 0.15599348 -0.64611864 -0.19621624 -0.46456477 -0.4927595 0.1514218 -0.3361575 -0.23332135 0.27019966 -0.885451 0.36097848 -0.30847102 -0.014267048 -0.36507347 0.17096901 -0.38656053 0.1229959 -0.13917455 0.3196464 0.17533241 -0.23791258 0.30993965 -0.4025315 0.028268833 0.5193625 0.6508473 -0.054501902 0.6932392 0.8390022 0.4634394 -1.2547793 0.3391691 0.22595087 0.22069831 -0.6542392 -0.3265711 -0.34349388 0.541901 -0.7411487 0.050200757 -1.1502625 -0.65077335 -0.35828438 -0.26507035 -0.561916 -0.43490565 0.15286995 0.36718684 -0.3184467 0.0022053756 0.32602957 0.5481787 0.006467897 -0.07252747 -0.055170663
