169 100
paper 0.02224254 0.0093783615 0.2647941 0.19017996 -0.14031017 -0.3062408 0.07466883 0.10042503 -0.015673425 -0.068733916 0.13523053 0.13666561 0.0933412 0.19609365 -0.1931885 -0.11831929 -0.20298429 -0.058998585 0.15403177 -0.31644347 0.23686963 -0.29759252 -0.09808457 -0.10159188 0.097472884 -0.23171754 0.04608495 -0.40102714 0.049724545 0.32253322 0.18346153 0.33196563 0.25808093 0.2353709 -0.0052257604 -0.024044976 0.12461943 -0.2821872 0.21710879 -0.058396813 -0.10820738 -0.10493752 0.10384436 0.143075 -0.033653863 -0.07209908 -0.09061134 0.1811786 -0.19975132 0.13874014 -0.04202031 -0.011313001 -0.104564585 0.050245825 0.21695612 -0.24789849 0.08569878 -0.005658883 -0.070400156 -0.062026974 -0.086927064 -0.06022789 0.033750996 -0.08918976 0.1352348 0.023163155 -0.040743113 -0.1975522 0.050561175 0.029376432 -0.0030231525 0.04272139 0.0017316907 -0.179279 -0.05433551 -0.32362208 -0.0025232022 -0.086791486 -0.06371257 -0.109217204 0.049390398 -0.13422021 -0.28761548 0.14760612 -0.18740827 0.029106524 -0.010403238 0.16834067 -0.123302266 0.19470935 0.07805256 -0.16143402 0.09497288 0.22847688 -0.04183916 0.07788082 -0.050583597 -0.23472375 -0.009087833 0.015772646
model -0.124429785 0.08817818 -0.21652503 0.17715572 0.18673685 -0.07214694 0.124304876 0.3094276 0.02293991 0.14326672 -0.059890676 0.17599411 -0.046138853 -0.11174027 -0.044792693 -0.098581925 -0.22858204 -0.16518784 -0.22217816 -0.22238909 0.017428664 -0.22765124 0.12814789 0.040242035 0.028781088 -0.13822396 -0.030055432 -0.17590362 -0.1633628 0.20677173 0.15336819 0.1372138 0.25542116 -0.18774976 -0.08453652 -0.25511137 0.22618243 -0.16166106 -0.02626235 0.06627202 0.15819634 -0.06216551 0.0606285 -0.05457696 -0.16093935 -0.051773112 -0.15017287 -0.08491152 -0.23495048 0.17062607 0.13017811 0.19226985 0.12989901 0.18917179 -0.15011144 0.1351329 -0.17097801 -0.16975276 0.011835875 -0.09497242 0.21004716 0.17708386 -0.08019924 0.06858425 0.16136716 0.33447182 0.045324903 -0.38468823 -0.016403267 0.012515755 0.18573682 -0.1305628 -0.057756517 -0.08679571 0.1881416 -0.041963134 0.16171087 -0.12543468 -0.016554762 -0.2882129 -0.18467109 0.14930968 0.13138129 -0.05315668 -0.102035984 0.009799793 -0.023214595 -0.040817194 0.076923974 -0.17516996 0.20483612 -0.39164966 0.14370714 0.10908953 0.035339966 0.10378896 -0.25722352 -0.0074547464 -0.20939712 0.002709033
system -0.03636504 0.22516835 0.09089148 0.10053643 0.008828167 -0.038955674 0.18382186 0.19378068 0.0741723 -0.2394484 0.20464562 0.08980077 -0.15425518 -0.010407759 0.013203146 0.12477284 -0.24930435 -0.18763241 -0.0736273 -0.13542813 0.12675299 -0.2155792 -0.13695379 -0.02938918 -0.3066432 -0.1762031 0.15763888 -0.26342034 0.03426539 -0.010860546 0.24563716 0.17842916 0.1325549 -0.009733931 -0.21961626 -0.20423305 0.16766122 -0.16875632 -0.10855877 0.121575736 0.23832577 -0.39117464 0.105288744 -0.028905129 0.069176495 0.00069078547 0.18371378 -0.002022147 0.17795956 0.10728901 -0.0657533 0.31532052 0.41654745 -0.20120804 0.14956722 0.0026549355 0.062204063 0.035059128 0.046155855 -0.38622275 -0.114218876 0.034162525 0.05408366 0.027800975 0.15209241 0.28223333 -0.073865 -0.00036934385 0.0811425 0.12330793 0.021536432 -0.0876378 -0.2080213 0.099811964 0.0033442872 -0.22459641 0.1650912 -0.063556686 0.11608288 -0.032326546 -0.20349011 -0.08554374 0.027710445 -0.207189 0.00859456 -0.011812114 -0.07316234 -0.12907307 0.031300858 0.3881139 -0.03405017 0.098511524 0.14845075 0.28718907 0.1084528 0.04117856 0.17491959 -0.033002146 0.09151659 -0.0541559
performance -0.15623562 0.17740233 -0.04615402 0.23100904 -0.017202549 -0.037868075 0.23851696 0.01682121 -0.22812325 0.12517329 0.080472134 -0.14796269 -0.30172676 0.018447408 0.07993697 0.016425328 -0.03661218 -0.0042444537 -0.16670534 0.03748936 0.11634384 -0.2532064 0.039009087 0.11842078 -0.1855115 0.10760588 -0.14826149 -0.53686666 0.056269735 0.24647719 0.10447595 0.027293105 0.15134431 0.3032495 -0.13049345 0.07929696 0.08985374 0.06549388 0.0028775597 -0.14961675 0.070448324 -0.37518916 -0.01567898 -0.15288068 0.08960147 -0.12136245 -0.21603957 -0.10725762 -0.06442449 0.0940316 -0.0005276299 0.19467106 -0.020346796 0.078121714 0.031960674 -0.1286061 -0.0028523149 -0.10697475 -0.07700131 -0.07338644 -0.053321168 -0.060936544 -0.12015203 -0.24947436 -0.24733427 -0.10878752 -0.06455488 -0.09061243 0.10381627 -0.03050725 0.44666225 -0.011466276 0.13755246 0.031966712 0.13688324 0.006500843 -0.01904592 -0.21224678 0.12151537 0.018050417 -0.30915183 0.008438574 -0.1580684 0.18892449 0.20054534 -0.24834698 0.11137064 -0.0881108 0.2454303 0.24874967 0.20337923 -0.19588183 0.13111581 0.1479587 0.011528167 -0.0024565773 -0.15033565 0.08447118 -0.059144676 -0.26955986
network 0.3071025 -0.062157836 -0.13186863 -0.051714074 0.3228051 0.19483212 0.12565057 0.1056585 -0.19109 0.15398468 -0.14399502 0.14555565 -0.011809451 0.116845824 0.31589282 -0.2561778 -0.18614146 -0.16251658 -0.044240005 -0.33069566 0.27322233 -0.35368848 0.43001747 -0.024861693 -0.1254925 0.11024865 0.10666064 0.0026083563 0.15968494 0.41304806 0.21875688 -0.03564602 0.1994431 0.20459963 -0.05545523 -0.3014973 0.084921636 0.18779631 -0.0008543299 -0.11222197 0.18564245 -0.22865804 0.2133797 -0.12739821 -0.1700395 0.17459755 -0.050341003 -0.016419439 -0.009649772 0.21013826 -0.3078129 0.3706483 -0.29480356 0.030269098 0.16586055 -0.112080745 -0.12466854 -0.20743392 -0.09560202 -0.10010129 0.20081188 -0.084756054 0.0046410332 -0.1141635 0.115304045 0.16365364 -0.0999652 -0.12128999 -0.02616084 -0.005408109 -0.3424145 0.1841097 -0.045868944 -0.454551 -0.01072386 -0.02463548 0.4480364 -0.02201024 -0.19135948 -0.090014 -0.16072921 -0.015205093 0.041290835 0.29912615 -0.0838758 -0.06224452 0.050898463 0.16915195 -0.09260448 0.10537015 0.12703486 -0.03701887 -0.19895634 0.14489897 -0.17546979 -0.06802855 0.03093374 -0.16930267 -0.2626753 -0.35428664
approach -0.15683328 0.09304692 -0.15205015 -0.09225761 -0.037176974 -0.19263266 -0.18072948 0.23002788 -0.23566167 -0.016745152 -0.06489104 0.1483256 -0.14197141 -0.088935226 0.20810497 0.030438751 0.006735676 -0.15591724 -0.121790215 -0.28211138 0.19451728 -0.123868965 -0.115078166 0.12795517 -0.08944012 -0.13103984 0.0123955235 -0.30970213 -0.19524895 -0.21806924 0.21645506 0.38855967 0.04429285 0.13811612 0.15561228 0.0075449003 0.17874312 -0.0505702 0.18678716 -0.26660845 -0.023524955 -0.08587869 0.13604715 -0.39747152 -0.37631652 -0.05557019 -0.077933356 -0.12651937 0.066929355 -0.17961349 0.2400133 0.27561584 0.13163158 0.22221968 -0.1288349 -0.24854657 0.24748118 0.102863364 0.021486148 -0.2292798 0.13496904 0.1035925 0.16043934 -0.03948313 0.26615593 -0.065668784 -0.2051766 -0.21152903 0.30390438 0.10997023 -0.016021168 -0.08563071 -0.05147798 -0.21451065 -0.18568869 -0.21642783 -0.047260407 -0.043045 -0.15264328 0.09251892 0.19221866 -0.16061683 0.25841042 0.19093616 0.024926752 -0.061380778 0.2844641 0.20065731 0.048987437 -0.21800753 0.062711224 -0.009371745 0.2962622 0.09780841 0.12995487 0.07249777 -0.092498705 0.062402595 -0.30289987 0.036077425
time 0.03958936 -0.20889139 0.13905098 0.11914523 0.06386217 -0.1576892 0.17962925 -0.1765879 0.039325118 0.032119565 -0.060462043 -0.03127661 -0.20517638 0.11256488 0.1704693 0.187068 -0.11960516 0.026335489 -0.034485936 -0.47160044 0.3379665 -0.02110209 0.119124986 0.061190374 0.042282127 -0.065483026 0.056269217 -0.07782332 -0.13799709 0.24408019 0.30068704 0.20504342 0.162549 0.27119452 0.081873864 0.06915171 0.1379387 0.10411306 0.17144687 -0.24911444 0.17417549 -0.2051953 0.13977453 -0.007694676 0.017830895 0.07594018 0.1397239 -0.17468235 -0.13131963 0.43999302 0.19557178 0.30565816 0.25096452 0.06851071 0.2784772 -0.13023734 0.044413794 0.42648962 0.18747106 -0.127262 0.09408062 0.16011654 0.21909302 0.16898859 -0.24301012 0.11681025 -0.18987256 -0.107780516 -0.0034721692 -0.23356323 0.22934508 -0.023688283 0.11032526 -0.0047768736 0.08319575 0.0280432 -0.032274537 -0.12236509 0.017006692 -0.012905004 -0.17253922 -0.012774703 -0.2134866 -0.020221239 0.35081327 -0.21868032 0.18641968 0.07295397 0.13870183 0.14187029 0.10268568 -0.42599776 -0.05645268 0.12442355 -0.08182831 -0.35912603 0.07567135 -0.17936283 -0.045527283 -0.3167777
cloud -0.058448296 -0.3772067 -0.07824089 0.2777211 0.2446257 -0.2981184 -0.12470825 -0.32463682 -0.26924384 -0.1366499 0.07296161 -0.050482474 0.011596722 0.010683714 0.056463715 -0.096872844 -0.056643937 -0.07139212 -0.08095284 0.07009683 0.22958589 -0.46951202 -0.30039185 -0.3519496 -0.2113218 0.08803932 -0.19274631 -0.1209422 -0.09582597 -0.03079945 -0.06561619 0.31248444 0.0100428965 0.06501428 -0.18954976 -0.039545767 0.121609464 -0.54187125 -0.06920732 -0.27684993 0.12392557 -0.06770331 -0.23128733 -0.35191226 -0.18438764 -0.18387179 0.36527318 0.03345691 0.069146454 0.21824287 -0.038015805 0.027240522 -0.07913152 0.20047511 0.1844599 -0.056647375 -0.18017127 0.39154908 -0.11444087 -0.22570881 0.15989144 -0.057824668 -0.089695916 0.10572291 -0.06331722 0.024483679 -0.2687151 -0.2239904 0.046297055 0.15364936 0.23625712 -0.08606084 -0.43173477 0.019221941 0.22912778 -0.11175962 0.0016441675 -0.16770045 0.15106793 0.1924427 -0.31992066 -0.2678726 -0.122911565 0.07880305 0.056441244 0.49317384 0.4927801 -0.02896516 0.069005355 0.21006207 -0.28876176 -0.2739549 0.513707 -0.1519541 -0.15679227 -0.096031435 0.033943698 -0.39891288 -0.1410862 -0.028542563
information -0.0040323175 6.964215e-05 0.0058190417 0.10582479 0.19537312 -0.405992 -0.06212062 0.053392608 -0.28133354 -0.05566463 -0.013573077 0.34823608 -0.113778345 -0.18395382 -0.25659433 -0.19052081 -0.11471258 -0.088598154 0.12189488 -0.20833303 0.3913787 -0.106323324 0.22894453 -0.342924 -0.15917502 -0.33747414 0.0077695814 -0.26181626 -0.02695222 -0.023341635 0.24423128 0.25562838 0.2433619 0.018319568 -0.17129645 0.04799511 0.22277297 0.17423709 0.25616902 0.19534627 -0.052933455 0.030251674 0.3738646 0.36530846 -0.04377614 0.09160588 -0.040734775 0.07125262 -0.34018597 -0.018710075 -0.41112837 0.2309941 -0.07385424 0.03100655 0.20299886 -0.016364595 -0.08663156 0.33953115 -0.100965396 0.039113473 0.06576896 0.32850072 -0.058706313 -0.21675786 0.015772719 0.36774313 -0.24595156 -0.066870175 0.067184456 -0.26866427 -0.0916146 0.12616682 -0.2838577 -0.29616857 -0.19288343 -0.3351547 0.39424863 0.36905026 -0.03342547 -0.13600469 -0.018497068 0.17947 -0.27509534 0.27425805 -0.055690642 0.3005713 -0.28704816 0.033284165 -0.11177764 -0.06892264 0.14914283 -0.08311997 0.24547656 -0.016933288 -0.11350256 -0.06466893 0.072587155 -0.04535081 0.09041153 -0.09810103
process 0.01928221 0.3650214 0.2825857 0.20939478 0.046514977 -0.10925994 0.04143918 0.43326136 -0.20083176 -0.005458397 0.32371306 0.15795304 -0.07641711 -0.05099202 -0.04089886 0.0040393737 -0.16556315 -0.123192266 -0.11421946 0.030295275 0.108821005 -0.08770611 0.029521214 -0.0065426817 0.10150477 0.049737956 -0.11017481 -0.07889662 -0.12760818 0.09583601 0.26581872 0.31331164 0.31687373 0.13821286 0.10679882 -0.19519001 0.46273327 -0.25917265 -0.091771096 0.0570386 0.13638452 0.04803079 -0.09267448 0.040900886 -0.0023053852 -0.10703621 -0.1098268 0.08870966 -0.06395291 0.116887115 -0.1860129 0.06863685 0.33804172 0.08383709 0.1114946 0.08764866 -0.09745237 0.02704413 -0.12569363 -0.34199733 0.101594195 0.06434426 -0.16542311 -0.17406742 -0.08356935 -0.16258973 -0.026117006 -0.3143387 0.13335584 -0.2012022 0.33468556 0.14747167 -0.3371292 -0.609223 -0.13140537 -0.19186196 -0.08796138 -0.05928523 0.032960244 -0.1552287 0.0006621035 -0.18322949 -0.0033625544 0.27675503 0.16668047 0.2472173 0.041249454 0.09527845 -0.0865798 -0.121167876 0.036075097 -0.14422998 0.20306697 0.15073298 -0.20803544 -0.28285122 -0.14145268 0.06849303 -0.05460905 -0.24878256
problem 0.00043686535 -0.14638048 0.18874781 -0.19651754 0.24481179 0.14471412 0.12108448 0.12653552 -0.15467767 -0.13990234 -0.087224714 -0.1174695 0.1444628 -0.13558313 0.108775884 0.04051176 -0.58575296 0.078560084 0.3278319 -0.4940148 -0.13902898 -0.07717108 -0.15482903 -0.18844986 -0.43944162 0.22246994 -0.19252557 -0.104699686 -0.34068713 0.2371363 0.35179806 0.3117219 -0.16838749 0.053958565 0.06632965 -0.07129849 0.25131515 -0.2145293 0.31190234 0.038579546 -0.14512993 -0.01013513 0.12174337 -0.13608696 -0.024210267 0.05606959 0.15963264 0.086570166 -0.22697438 0.2478002 0.23988256 0.26695207 -0.26444238 0.0859347 0.2829487 0.037724223 0.072364986 -0.029570634 0.18199596 -0.036995534 0.2639082 0.04731173 0.018683504 -0.07484298 0.13959591 0.014358659 -0.13567229 0.017184014 0.11946298 -0.17161849 0.3243152 -0.08784339 0.08767338 -0.15506652 -0.1090273 -0.11646678 -0.03483772 0.10234648 0.065697715 0.10853298 -0.21578266 0.046243604 0.054245807 0.015906014 -0.22005066 -0.044338178 -0.044241913 0.08023985 0.26961198 -0.13854773 -0.0072268145 -0.41225034 0.08392547 -0.11429648 0.2194994 0.059676822 -0.24968953 -0.08476206 -0.12533954 0.10157644
service -0.08833104 0.15824623 -0.46986535 0.18541647 -0.27616233 -0.04715157 -0.08125577 -0.13266732 -0.43919393 -0.5709252 0.1160674 -0.15627064 -0.096087 -0.46052396 -0.24499683 -0.14535868 -0.42029017 -0.29828477 -0.16882907 -0.41479588 -0.008400826 -0.20489943 0.3370947 -0.045808207 0.07108142 0.19523822 0.12726866 0.15537383 -0.04781435 0.18090159 0.39706576 0.3282587 -0.12675634 -0.31607172 0.09536652 0.30344868 0.34687838 -0.14691296 0.36708447 -0.4191942 -0.21058 -0.36536917 0.01439057 -0.23543712 -0.49177113 0.0110344635 0.23337534 0.1860699 -0.14606316 0.21115257 -0.0894653 -0.08962358 -0.19424777 0.012791869 0.48481497 -0.10905549 -0.36423558 -0.23465542 -0.46300894 -0.3050751 0.19840054 0.25437626 0.09753211 0.16531354 0.17295328 -0.23788956 -0.29639572 0.2760218 -0.27347037 -0.16145524 0.32101235 -0.19239646 -0.053308424 0.15606825 -0.010444567 -0.031535856 0.23309512 -0.05646301 -0.086742975 0.0351416 -0.3918161 -0.46066955 -0.007468843 0.31978568 -0.24668744 0.024329195 0.27296948 0.13851881 -0.17057021 0.339643 -0.10274699 -0.022321802 0.42145368 0.27604815 -0.025804067 0.06687399 0.22025909 0.046696987 0.035741065 -0.12260731
security -0.45573756 0.17389543 -0.11949311 -0.29834685 -0.032661844 -0.3634149 -0.17963094 -0.12323153 -0.2880946 -0.052508365 0.7688826 -0.105927885 0.052717235 -0.2609162 -0.1807181 -0.27675065 0.05967378 -0.0725436 -0.11239756 0.0057202224 0.18167882 0.07270882 -0.118679725 -0.28881827 -0.27946532 -0.22302267 0.2787283 -0.49041286 0.0014004394 0.022680195 0.493858 0.35455617 -0.0049914573 0.029754197 -0.020268153 0.044070482 0.24674448 -0.22569619 -0.09215593 -0.3008295 0.18356371 -0.1561176 0.19679466 -0.028030384 0.25495026 0.27701414 0.022104004 0.1673721 0.09329042 0.40843534 0.16126035 0.14327407 -0.05927512 -0.18528296 0.096772626 -0.10874566 -0.41800252 0.033154294 0.00010861861 -0.1808707 0.4521135 -0.2520358 0.08586635 0.1703632 -0.092661195 -0.25522387 -0.55585027 0.16165482 0.2625632 0.10567664 0.039168507 0.16214316 -0.065035075 -0.089833654 0.17918265 -0.117985144 0.17836891 0.024381785 0.047308266 0.23436889 -0.059604824 0.11404727 0.21007629 0.25789952 -0.3894068 0.5595273 0.1461219 -0.41635472 -0.4457098 0.013372192 0.31965122 -0.10425799 0.00989245 0.21908186 -0.0640911 -0.24973525 -0.016136218 -0.22263797 -0.2994256 0.14081194
analysis 0.19569468 -0.04597168 -0.27966937 0.05984689 -0.015002011 -0.39925313 0.19223665 0.1761083 0.18043716 0.15836023 0.27806994 0.5804105 -0.042621646 0.13244519 -0.19533716 0.18995991 0.009851659 0.14139001 0.073987834 -0.38221806 0.1948945 -0.23710757 -0.18708484 -0.22674745 -0.01326243 -0.290058 -0.067826785 -0.46431974 -0.22765799 -0.034128014 0.5468518 0.05064037 0.35815093 -0.1348654 -0.17286558 -0.13064088 -0.041979577 -0.114135206 -0.24178378 -0.22561389 0.24781775 -0.12946472 -0.07496707 0.031605955 0.26025382 -0.23662527 -0.3023897 0.23319235 -0.016589161 0.032565508 -0.2041611 -0.013285669 -0.23680878 -0.06521704 0.16665472 0.06959287 -0.19372213 0.024355303 0.14773104 -0.07494189 0.15962158 -0.13806668 0.23655854 -0.25655645 -0.14066374 0.18770082 -0.07808619 -0.18310706 0.045200106 -0.03539591 0.052953187 -0.123794 -0.027194576 -0.101243444 -0.016017426 -0.4032257 0.12254094 0.024519956 -0.07573526 0.09926085 0.11278977 -0.12194103 0.16035138 0.27656084 0.13301195 0.024478246 -0.21336454 0.115603365 0.16831653 -0.12383296 0.21740247 -0.20316616 0.16134718 -0.046488225 0.053200867 -0.19086479 -0.10401403 0.11476681 -0.04833362 -0.1504265
framework 0.20272748 0.24790436 -0.020413456 0.024359282 -0.022891758 -0.14734648 0.099172115 -0.2093781 -0.19248508 -0.06120777 0.02065418 0.063507624 0.12088605 0.084772676 -0.11613423 -0.37242013 -0.2971188 -0.26515165 -0.13904065 0.04451514 -0.12391145 -0.16272914 -0.1758235 0.26136717 -0.18425177 0.042562623 -0.27264088 -0.3716774 -0.4311523 0.044477556 0.4665205 0.2375828 0.41622332 0.12459706 -0.083347954 -0.013378077 0.14071982 -0.035813168 -0.135033 -0.11911181 -0.006678559 -0.2500248 0.10728919 -0.10747786 -0.1820848 -0.14190085 -0.07648316 -0.21928354 0.20575026 0.03303816 0.038906597 0.32980967 -0.056018636 -0.19019541 0.11266648 -0.31253287 -0.15170473 -0.008141404 -0.32768607 0.03769295 0.13854165 -0.043000817 0.19149993 0.002828228 0.09471494 -0.06902334 -0.2052957 -0.14235064 0.20964134 0.24736853 -0.022300443 0.41637075 -0.10932241 -0.2668002 -0.18796957 -0.10708274 0.066172495 -0.15154032 0.14582793 -0.24593657 -0.007833811 0.16483141 -0.14621404 0.077405855 0.029810354 0.056956418 0.04485884 0.13721217 0.34785092 -0.03507416 -0.021216856 0.005357329 0.105152346 0.11847237 -0.2443773 0.19170563 -0.06584646 -0.1756095 0.054209366 0.19634865
method 0.35940304 -0.016825406 -0.3172494 -0.104400575 0.18010251 -0.04622647 0.046769403 0.45356235 0.023979489 0.13721251 -0.0009056374 0.44702172 -0.10857856 0.14097649 0.2544558 -0.13415271 -0.081594646 0.22366467 -0.02339376 -0.3496082 -0.15620014 -0.2307871 0.19109456 -0.07879437 -0.28648514 -0.51533085 -0.15332717 -0.2333948 0.122757904 0.29632226 0.30204004 0.12125542 -0.0344923 -0.29355276 -0.26653516 -0.001861086 0.15799482 -0.13133915 0.16485187 -0.04308163 0.12866966 0.15532368 0.6111469 0.111920886 0.043332826 0.0641132 -0.20774019 -0.11323612 -0.31866446 0.18673466 -0.001818995 0.2185675 0.019488625 -0.15830292 -0.034783754 0.2122919 -0.11748781 0.21198365 -0.13821888 -0.104789466 0.35982758 0.2599452 0.54438835 -0.4719836 -0.031108882 -0.023895733 0.24066573 -0.061454773 0.060050417 0.008932356 -0.03580634 -0.17541783 0.038170077 -0.111977085 -0.12541802 0.09777186 -0.10295376 -0.13756056 0.07643166 -0.06196015 -0.2441517 0.41011032 -0.25378636 0.045848582 0.22054437 -0.026116995 0.18509142 0.27006748 0.39479715 0.008902192 0.14051466 -0.02175346 0.38426286 0.34261182 0.29517886 -0.17844073 -0.027760165 -0.17259385 0.107158564 -0.04602617
energy -0.12401703 -0.43146124 -0.16905996 0.030711278 0.41283694 0.27764675 -0.03343759 -0.103702344 -0.29689416 -0.20528491 0.16431652 0.015419238 0.28675947 0.2541722 0.5157392 0.019774713 0.23207916 -0.2787624 -0.23139675 -0.3936239 -0.056239937 -0.3492329 -0.0061477697 0.06128466 -0.045474593 0.0845983 0.019304767 -0.52223414 -0.058492973 -0.37359172 -0.07433134 -0.15702756 0.39882347 0.36931962 0.26120567 -0.31133598 0.52556956 -0.0662279 0.6718077 -0.32210404 0.11924571 -0.08168196 -0.059810083 -0.3127747 0.307289 -0.16076611 0.07275259 0.39796 -0.46050927 0.12587674 0.2958524 0.018810352 -0.06722554 -0.26053527 0.41252467 -0.35355404 0.16137932 -0.35964674 -0.339904 -0.2252825 0.43008196 0.44688854 -0.3196998 -0.030905327 0.23222366 0.10422985 -0.016704332 0.22120047 0.103203446 -0.32442287 0.25806153 -0.02150114 -0.012640796 -0.08784617 0.16402102 -0.290266 0.18066962 0.1749668 0.22299814 0.011624522 -0.47983375 -0.022297794 0.35705504 0.01050376 0.25715506 0.21272872 0.27075174 -0.2552447 0.29684123 0.52759254 -0.121239655 -0.36850736 0.21772374 -0.3303328 -0.18304089 -0.18779366 0.27417618 0.21574575 0.0010847857 -0.24670944
management 0.1498055 -0.028042307 0.21504217 -0.020370547 -0.20004281 0.0136436075 -0.07653103 0.057728995 -0.1080286 -0.12969331 0.20296505 0.33776435 -0.12542841 -0.01533851 0.03274228 -0.14271808 -0.117591746 0.052379504 -0.5086479 -0.07208384 0.07119263 -0.07676454 -0.028749779 -0.052594077 -0.2734627 0.037641995 -0.21927246 -0.29985577 -0.23910303 -0.32318723 -0.21417055 0.4096277 -0.12862433 -0.016839623 -0.40246174 -0.41771677 0.4848035 -0.16970849 0.15207708 -0.053517662 0.17506127 -0.4341563 -0.13866948 -0.21597542 0.013329517 -0.088715024 0.114745945 0.05332892 0.0050776615 0.27425468 0.17618248 0.012579419 0.16043772 -0.14121582 0.36552066 -0.15045254 -0.254942 0.06706947 -0.19763757 -0.10729894 -0.20463614 0.17526327 -0.074350275 -0.07701853 0.03327257 0.41100082 -0.20044196 -0.08679778 0.21158291 -0.13184418 -0.24176593 0.45743135 -0.055209506 -0.08349649 0.0019272043 -0.11118515 0.06748405 0.055376843 -0.06767792 -0.15895876 -0.44331318 0.12491353 0.054875612 0.10587242 0.2804613 0.5759973 -0.03781165 -0.046410065 -0.230387 0.04132392 0.28014964 -0.31154603 0.395254 0.031122083 -0.06258828 -0.04338474 0.3232217 -0.31509584 0.2412421 0.1268022
detection -0.030176092 0.19063415 -0.05586194 -0.08171703 0.3667426 0.004996419 0.25826734 -0.3062466 -0.10874149 0.10584723 0.32321817 0.20982482 0.17530946 0.42919078 -0.16816851 0.029360255 0.14651607 -0.15287733 -0.21362047 -0.07084248 0.30891225 0.030843625 0.33009234 0.11405426 -0.35528824 -0.43295977 0.09379762 -0.6376876 -0.27382073 -0.07980224 0.19034968 0.25305033 0.011171271 -0.15471631 0.05115272 -0.16047384 0.06644873 0.09119709 -0.08654411 0.13203172 0.0449465 -0.012965883 0.5556947 0.052786164 -0.29876432 0.040287744 -0.05668988 -0.0048501 0.1834642 0.20004384 -0.61778486 0.36884105 -0.066877775 0.037296787 0.2311775 0.19353351 -0.12622434 0.33051366 0.44556114 -0.08780824 -0.1698366 -0.04747139 0.056072477 -0.50760764 0.25307876 0.12387937 0.107417814 0.5476204 0.004397414 0.35690925 0.38510078 -0.14496519 -0.044950552 -0.2610904 -0.1723314 0.24045452 0.25483376 0.07007583 -0.19789267 -0.090605035 -0.06802713 -0.23654887 0.07711831 0.43567184 -0.5501804 -0.24760541 -0.37368342 -0.0788323 0.17624196 -0.051345225 0.23219848 -0.044629805 0.1891687 0.45149773 0.13493766 -0.31507173 -0.0039510704 -0.18462107 0.12780966 -0.09199077
algorithm -0.22612774 0.3126365 -0.037519123 -0.045732886 0.48438132 -0.0031122344 0.10662603 -0.12051523 0.4012961 0.014343576 -0.29459694 0.00226555 0.045112636 -0.053076603 0.37740797 -0.20990348 -0.10281972 0.011935226 -0.046851758 -0.24589866 0.016888173 -0.23369819 0.08078853 0.19941732 -0.23149343 -0.35294667 -0.40346807 -0.28319883 -0.23545963 0.08704523 -0.03825766 0.040739316 0.038146526 0.25864863 0.17629714 -0.20334949 0.13214506 -0.22245663 -0.061849408 0.085921325 -0.049873482 -0.1691566 0.42588586 0.11837995 -0.3901513 -0.03727444 -0.2145735 -0.23915465 -0.40308073 0.13327779 0.3215201 0.45145065 0.21692617 0.6242902 0.21294889 0.13062894 -0.1666308 -0.13832952 -0.30932307 0.04396651 0.115180165 0.08202969 0.13184412 -0.094557375 -0.29253048 -0.1096133 0.19958739 0.44495234 0.10520099 -0.16960016 0.19160429 -0.18627918 -0.12944943 -0.1890709 -0.10790405 -0.18120523 -0.08889031 0.19843291 0.061928846 0.35500112 -0.08881019 -0.04164147 0.0040053586 -0.00081962487 -0.15743528 -0.22099951 -0.05446812 0.5007296 0.18659963 0.24343705 0.23916772 -0.15714665 0.006799506 0.12162028 0.36275333 -0.15103135 -0.23886533 0.2021933 -0.32720277 0.12786327
research 0.020227218 0.0892133 0.26694337 -0.32362494 0.1625115 -0.059651047 0.23266506 0.18839711 -0.07501958 -0.24886222 0.581386 0.2782785 0.052888654 -0.35975567 -0.2846131 -0.19761729 -0.425202 -0.2399077 -0.14517464 -0.32175243 0.51014805 -0.2934507 0.07973493 0.06992446 -0.04276815 -0.107005335 -0.15667725 -0.15911852 -0.06465692 0.327763 0.057560496 0.123821095 0.30203673 0.10837025 -0.07028592 -0.2403393 0.0022040256 -0.19319855 -0.17142916 -0.2144893 0.13750133 0.42396665 -0.33923826 0.20758347 0.19464505 0.15206656 -0.031773597 -0.3067642 0.42052147 0.5350713 -0.0932249 0.37322325 0.0416797 0.074718125 0.15614563 0.04659408 -0.2120651 0.30336973 -0.15678313 -0.13046308 -0.24017145 0.12406156 0.17953819 -0.51652616 0.269095 -0.057784766 -0.40660173 -0.10371968 -0.15181759 0.094351396 0.008501445 0.07397205 -0.12938707 -0.05510109 -0.037868932 -0.36679208 0.035985507 -0.057603788 -0.14891034 0.06873158 -0.21512474 -0.21794246 0.114045516 0.48045945 0.16424422 0.244999 -0.10653842 -0.3071895 0.39085403 -0.23682491 -0.0543707 -0.10338618 0.38225245 -0.25686577 -0.012093911 -0.4157873 0.2664145 0.098818794 -0.10889105 0.15221879
number -0.33482057 0.119938165 -0.011980971 0.016307646 -0.29460973 0.22973251 0.30483115 0.083321646 -0.15002738 -0.14380148 0.06182892 -0.12148043 -0.1845999 -0.08149718 0.13742894 0.10177339 -0.41058552 0.09543659 -0.022024738 -0.3247871 0.25386474 0.15729575 0.16235916 -0.22017509 -0.12711072 -0.089725524 0.12959851 -0.09428537 -0.08098364 0.10940539 0.21297975 0.51261395 -0.025557946 0.022308256 -0.040420644 -0.18429059 0.023232084 -0.11127324 -0.144656 0.20053694 0.021791296 0.036820587 -0.033342283 -0.03877949 0.024672974 -0.27819058 0.4473672 0.31895337 -0.14411321 0.3240313 0.0021656286 0.27547655 0.27262586 0.21988378 0.2708485 -0.5917958 0.10410015 -0.33022738 0.017677093 0.14055355 0.23420253 -0.24458781 -0.12116666 -0.35913613 -0.19685256 -0.08334997 0.016833162 -0.17330682 -0.07922269 0.14009193 0.3616685 0.036168057 0.29102257 -0.07290393 0.2712453 -0.08258479 0.08005638 0.16781487 -0.09188306 0.36510724 -0.007989002 0.09718711 -0.16323765 0.19567552 0.09030612 -0.15694696 0.11734834 0.114051774 0.20457666 0.1394364 0.09033423 0.0026547802 0.62576985 0.096090846 -0.22051394 -0.20896153 0.02190583 -0.1414082 -0.10345087 0.11339277
environment 0.3130234 -0.035987284 -0.16060895 0.13031816 0.2828189 0.5241166 0.1033429 0.057847943 -0.22806542 0.15213758 0.14134917 -0.07850745 -0.10976756 -0.0329144 -0.1916307 -0.009003346 0.11418593 0.064096235 -0.086670674 -0.12433381 -0.1418476 -0.07661512 0.006434614 0.24506882 0.24485452 0.04128127 -0.2960176 -0.22496487 0.065160744 0.16243063 0.29558215 0.6523541 0.089547426 0.5420733 -0.07818222 -0.17505457 0.06960168 -0.012348076 0.0045573637 -0.22460933 -0.020911029 -0.053652797 0.27499095 0.12645175 -0.14128451 -0.053574935 0.22000644 0.014975355 0.12527621 -0.096355624 -0.008264214 0.08455633 0.005871726 0.19448757 0.34285545 0.20173192 -0.3948254 0.101679 -0.06972597 -0.042356513 0.14746727 0.045589954 -0.1489078 0.105655484 0.19749899 0.16151118 -0.39795852 -0.22327054 0.43241623 0.15001668 0.24564488 -0.09665005 -0.112361506 -0.056968655 0.03768452 -0.1478947 0.108191244 0.109296344 0.10535913 -0.11414776 -0.09339707 -0.3717411 0.0859042 0.012310794 -0.16759168 0.24083325 0.17482336 0.09467848 -0.010121051 0.117670126 0.025629053 0.020795658 0.46033967 0.07068992 -0.112014346 -0.016051173 -0.2283082 -0.17734736 -0.12867095 -0.13788262
application -0.074807085 -0.07525515 0.02753824 0.10597755 -0.010657013 -0.11539057 -0.04310282 -0.10060059 -0.27500254 0.0398648 -0.05921086 0.10106367 -0.4298728 -0.20611607 -0.45800334 0.07131446 -0.21792103 0.015091188 -0.20234048 0.13324465 -0.26276252 -0.21424076 -0.082343966 0.15387304 -0.059082974 -0.12578504 0.33163774 -0.28476432 -0.015991092 0.016522119 0.09185673 0.20107457 0.17062669 0.0039253794 0.08502509 -0.19774108 -0.14655975 -0.056416277 0.082463264 -0.15050147 0.060574606 -0.099581905 0.12596978 -0.18215571 0.09517971 -0.0426639 0.14369155 0.20393783 0.17467624 0.08587919 0.13346757 0.27069113 0.030661544 0.15029918 0.08859523 -0.3675844 0.115471944 0.15798141 -0.010182925 -0.12896626 -0.11529949 -0.41562104 0.16942038 0.011206872 -0.09115689 -0.15872164 -0.24446952 -0.072628684 0.22502506 -0.1495387 0.07007352 -0.14874418 -0.6329132 -0.5571164 -0.3834316 0.29933518 0.006227288 -0.50975853 -0.27236575 0.089624 -0.45237994 -0.16682068 -0.094708905 0.007657009 0.40328172 0.07160974 0.25527468 -0.014734434 0.014668548 0.45849705 0.22898576 -0.31298447 0.27671683 0.03963172 -0.24431506 -0.09361279 0.34245858 -0.0262351 0.05117014 -0.3138711
execution -0.12849481 0.10624123 -0.21463011 0.18837045 0.039703995 0.16587147 -0.28247514 -0.24801232 -0.0917503 0.038428433 -0.16861524 -0.2442583 -0.0679545 0.26494956 -0.034293786 0.5553023 -0.27594048 0.016491521 -0.34325 -0.24990164 0.07764893 -0.23258074 -0.15452267 -0.006363487 -0.06871065 -0.21317348 -0.04697023 -0.56518847 -0.15919662 0.16852272 0.14948498 0.27295247 -0.18136382 0.3854103 -0.020102868 -0.37213144 0.14152956 0.3336317 -0.06050142 -0.43456572 0.26030126 -0.1910468 0.33287558 -0.40165544 0.15641417 -0.1085046 0.043638907 0.10404493 -0.031604283 0.5095272 0.51654196 -0.32784155 0.053328976 -0.15801032 0.24906993 -0.08818676 0.15304956 -0.06903916 0.5419341 0.25223234 -0.17187001 0.44516838 -0.12375275 0.25010902 0.1985846 -0.4033052 -0.10246755 -0.53416115 0.45546448 0.10275385 0.103239685 -0.22894375 -0.06730807 -0.32716826 -0.4671999 0.21615648 -0.21611266 -0.17231905 0.009519124 0.06557895 -0.055856038 -0.048619937 0.16313829 0.0746195 0.18819688 -0.14502189 0.3443346 0.061703604 -0.19868505 0.36679208 0.31424713 0.054234196 0.48311815 -0.44187954 -0.33763584 -0.2697667 0.28725308 -0.08607477 0.04452907 0.18086503
access 0.028924786 0.3043566 -0.022205982 0.02736357 -0.37090942 -0.52194846 -0.07907737 -0.15974425 -0.51724744 -0.5098753 0.3479057 -0.0012753598 0.10551722 -0.5799456 -0.0637149 0.5550477 -0.1289122 0.352478 -0.046635408 -0.29086506 0.21598873 -0.20070788 0.025511604 0.211591 -0.15345007 -0.16644551 0.23517348 -0.49601462 0.11787831 -0.11798294 0.41277653 0.471445 -0.17534319 -0.023483673 -0.18917705 -0.17688219 0.15018982 -0.65722257 -0.2845362 0.14680839 0.019390717 0.0036825729 0.39070758 -0.12598518 -0.22642134 0.0251696 0.031399168 -0.15981811 0.06066772 -0.005595068 -0.27858812 0.0340897 -0.21046625 -0.16685165 0.04029804 -0.048004203 -0.4801838 -0.40761808 0.23591743 0.039285723 -0.29225644 0.012730812 -0.037675563 -0.104831785 -0.49822995 -0.3928623 -0.6490771 -0.02787547 0.42912918 -0.1687649 0.2604991 0.095716745 0.08881695 -0.18972819 0.16708994 0.098151825 0.20106679 0.13022362 0.222593 -0.13809173 -0.22645973 -0.042891644 -0.4439995 0.10786753 -0.12840173 0.3628616 0.112617314 0.047533356 -0.045186386 -0.113904774 0.16208121 -0.1162728 -0.2270506 -0.15332338 -0.320398 0.4490785 0.31384987 -0.46799192 -0.35668615 -0.13089964
control -0.13954806 0.4672252 0.23702857 0.24178466 0.1654405 0.09978457 0.2445055 0.22275779 -0.26371798 0.1475388 -0.02200824 0.28193247 0.24181661 -0.16046602 -0.19260223 0.011003633 0.5149027 -0.06018498 -0.36489245 -0.23287766 0.015149827 -0.34834853 -0.06392451 -0.11034352 -0.08683972 -0.42011303 0.6644756 -0.2807086 -0.32778445 0.24862392 0.39331216 0.30548295 -0.08490303 -0.017058598 -0.203608 -0.20874406 0.25500417 -0.5688392 0.04802005 -0.11222849 0.07414729 -0.29030454 0.2830939 -0.075561345 0.09753262 0.01623989 0.1268725 0.14190984 0.28461206 0.019300852 -0.18977912 0.38738298 0.04160485 0.09221156 -0.18626909 -0.2673854 0.17058203 -0.037224792 0.030241843 0.031664014 -0.3783629 -0.30631104 0.3574754 0.16648991 -0.052748244 0.12431194 -0.44930407 0.3021935 0.14937675 -0.07586877 -0.14282194 -0.07830447 -0.06472707 -0.0858601 0.02430288 0.20198295 0.28317878 -0.14185895 -0.33425638 -0.3789154 -0.4445004 -0.44843724 -0.067007534 0.10108988 -0.1946451 0.21888462 0.0592085 0.21037298 -0.013285521 -0.26949933 0.24539636 -0.011153739 0.17231762 -0.2329033 -0.55717975 0.28313687 0.03570952 -0.21784039 -0.2845931 0.2556699
architecture 0.19828542 0.106708154 0.21112834 0.19125034 -0.08010171 0.047078796 0.1472353 -0.15772618 -0.18018532 -0.50506455 -0.046053894 -0.06893604 -0.1293478 -0.1355425 -0.33360487 -0.4640658 -0.29599252 -0.6745717 -0.035219718 -0.06354927 0.17608693 -0.22067848 0.131856 0.08624717 0.0578384 -0.15153654 0.051500067 0.16167328 -0.16199918 -0.16626765 0.11901402 0.11691123 0.5747072 -0.04458539 -0.07739194 -0.16047104 0.05341104 -0.100658074 0.05748581 -0.122163996 0.32688877 -0.017627783 -0.043649793 0.024009494 0.07519811 -0.21268499 0.0268588 -0.33372828 -0.3638454 -0.075511865 -0.055090334 0.5020383 -0.21104997 -0.21583673 0.31724745 -0.1341397 0.04530104 0.03999142 -0.08896816 0.17648244 0.08029296 -0.1081535 0.17091039 -0.01697349 -0.22145689 0.2749792 -0.12610033 -0.010498685 0.2605515 -0.0973014 -0.20591204 -0.25590524 -0.101791754 0.07330922 0.23059548 0.11618357 0.277299 -0.1777997 -0.17144115 -0.27372807 -0.6209329 -0.38880175 -0.2068257 -0.18897441 -0.18958722 0.048667703 0.11030153 -0.05176118 -0.19168904 0.028916739 0.2628004 -0.2036591 0.29946697 0.22928569 -0.28202432 0.26820365 0.15260907 -0.0706286 0.25489664 -0.22918944
resource -0.07255153 -0.23157677 0.1655729 0.23668282 -0.026674565 -0.1306552 0.15905887 -0.14957221 -0.14430313 0.1772835 -0.19168355 -0.17556493 0.2876179 -0.06559145 0.14127402 -0.091752075 -0.50121415 -0.14326566 0.0647603 -0.26257885 -0.26698905 -0.4295286 -0.1697179 -0.30983394 -0.29219383 0.388728 -0.06987308 -0.39361262 -0.030795377 -0.22029406 0.1583337 0.26219374 0.18586276 0.2609715 -0.34470648 0.10538975 0.069246836 -0.7650007 0.25997394 -0.1075256 -0.2325258 -0.40401104 -0.27855772 -0.4653927 -0.041714568 -0.12454704 -0.014334298 0.30419496 -0.15846886 0.3709898 0.12894745 0.41124526 -0.19669954 0.16041426 -0.19829294 0.104138575 -0.33459094 -0.034297258 -0.04404191 0.10558791 -0.21001738 0.16089775 0.43895438 0.37798873 0.16467883 -0.094870836 -0.51448965 0.07516568 0.06451056 -0.28295037 0.04431319 0.0048480933 0.19005583 -0.28230527 0.20832832 0.08790657 0.09506822 -0.31874478 -0.11045907 -0.16127357 -0.32947883 -0.0058153514 0.15691826 0.22237213 0.08377965 -0.038201906 0.5218562 -0.009878619 -0.03176128 0.3030728 0.122589394 -0.0958418 0.18380055 -0.37781638 -0.15604451 -0.12060343 0.185215 -0.11807329 0.16253412 0.0016003565
scheme -0.5750546 -0.0034419843 0.10617748 0.44727018 0.45571667 -0.12128805 0.336387 -0.29910222 -0.014994475 0.21736275 0.28707284 0.14597626 -0.17174642 0.19704144 0.37153092 -0.34108233 -0.13811778 0.86175305 0.24590644 -0.048675764 0.46438104 0.028567713 -0.2511026 -0.33798134 -0.16625087 0.12188894 0.28470004 -0.08332009 0.40386668 -0.5806689 0.4830754 -0.001306967 0.3613865 -0.12186679 -0.021119162 -0.16035311 0.3091245 -0.41014597 0.11820811 -0.14462054 0.19304286 0.102866545 0.20943117 -0.1661322 0.037992816 0.14647546 0.24091029 -0.14196193 0.018826215 0.0055130855 0.24488135 0.13110803 -0.065223046 -0.62556654 0.12725244 0.21043521 -0.3885104 0.093816474 0.044957634 0.061752547 -0.00090643537 -0.028739007 -0.03609356 -0.22336076 0.04791138 -0.4509565 0.14728494 0.23369071 0.45156258 0.090221554 -0.012988527 -0.4357272 -0.3124911 0.060251005 0.045289747 -0.33870918 0.062030584 -0.1403224 0.15806586 0.057415344 -0.4244664 0.24128051 -0.32159162 -0.19123907 -0.28993914 0.29049233 -0.004426691 0.13868561 -0.39856708 0.09817274 0.6693221 -0.38677952 0.40158048 0.45318767 -0.20037723 -0.103244334 -0.22406517 -0.110432625 -0.21180268 -0.29688042
work 0.10802224 0.03593612 -0.020056814 -0.05667956 -0.06700068 0.15938029 -0.06974419 0.1128863 0.008034136 -0.13606648 0.2358146 0.20138028 -0.3289312 -0.330602 -0.115837604 0.034201197 -0.18540332 -0.0902445 0.20818189 -0.25602865 -0.15253682 0.11883287 -0.08678097 -0.13680612 0.048106547 -0.1606772 -0.12824774 -0.4211931 0.3137096 0.2656261 0.2960032 0.033839457 0.3161549 0.4036928 0.12993477 -0.10051095 0.017784515 -0.2075124 -0.16712171 -0.2501333 0.50673765 -0.044521544 -0.069336645 -0.10282404 0.20159718 -0.32045746 0.16592549 -0.001056783 -0.03805109 0.1890133 -0.25861374 0.19429687 -0.23315842 0.14996253 0.13533558 -0.30672646 0.3696738 -0.06631947 0.20016758 0.05164032 0.025571642 -0.19837913 0.44109872 -0.3356706 0.3035328 -0.20942464 -0.042340133 -0.24543135 -0.21478842 0.056792967 0.043738633 -0.2781046 -0.11385455 -0.085270174 -0.012750247 -0.08000815 0.04020288 0.033014644 -0.117316484 0.04930009 0.004172153 -0.16361915 -0.07501509 0.211046 0.083963536 -0.044767234 0.03511419 0.10468766 -0.025238238 0.14946027 0.030967312 -0.16627653 0.19181569 0.2539598 -0.3553541 0.06609938 0.105343156 -0.1358127 -0.26461965 -0.080453604
task -0.13158704 -0.014450174 0.16180858 -0.0191328 0.17030656 -0.004796116 0.29661506 -0.43574858 0.18526404 -0.38301325 -0.003093761 -0.20205976 -0.35762912 -0.10873942 0.17424858 0.13403635 -0.47854328 0.19373916 -0.052498974 -0.3167225 0.03031479 -0.42359644 -0.03276405 0.09944559 -0.0068555237 -0.061743576 -0.039431863 -0.67301255 0.186198 -0.18777613 0.2687326 0.16660656 -0.2301492 0.24724098 -0.2420698 -0.26309076 -0.2300657 0.15624498 0.37943956 -0.16726217 0.22979921 -0.0767826 0.0679131 0.060741056 0.08816758 -0.26184174 -0.19481903 0.13431104 -0.43190995 0.034151018 0.11906207 -0.004577755 -0.062218882 0.048228018 0.034264814 0.12804794 0.18767354 0.37902838 0.39203206 -0.036611333 -0.14543343 0.21017282 0.2074611 -0.38460353 0.111545995 0.35399875 -0.06439079 -0.08952944 0.08503388 0.1978225 0.3010516 -0.05853933 0.13745429 -0.21052204 0.17764142 0.014932856 0.0295064 -0.06648602 0.23469415 0.019982344 -0.19288622 -0.393788 0.5103102 0.21851243 0.26890218 0.21411179 0.47132805 0.13171344 0.23552279 -0.07207503 0.056175027 0.054624975 -0.067746095 -0.124896035 0.35637897 -0.13783303 -0.07845884 0.052349754 0.20329398 0.25843123
solution -0.1139994 -0.2042753 -0.058646 0.097976044 0.17157224 -0.0034904801 -0.24886906 0.21110658 -0.14226499 0.05315576 0.1439425 0.08403801 -0.1433076 -0.12820336 0.10698182 0.06987167 0.020251181 -0.02947096 0.09266305 -0.34690863 -0.13554506 -0.13327576 0.008333673 -0.03516308 -0.2497091 -0.10183251 0.16622446 -0.058403894 -0.032139383 -0.05663529 0.16172785 0.54633844 0.07212102 0.077298135 -0.1517701 0.10910064 0.66286826 -0.2678727 0.20149678 -0.16687 -0.019767195 -0.11471828 0.14323379 -0.32009384 -0.2766124 0.26991692 0.18069138 -0.12690456 -0.31664506 0.39486003 0.08760928 0.027551673 0.08310669 0.067220576 0.106778525 -0.121604815 -0.010311821 0.51114446 -0.059814762 0.06649055 0.13368042 -0.08961507 -0.24532595 0.0017854655 0.11293562 -0.3585672 -0.16927943 -0.10266795 0.012333151 0.32188192 -0.08398386 0.5458952 0.08227477 0.052889276 0.0031584124 -0.25733238 -0.18665157 -0.20078382 0.03919447 0.14898054 -0.43911567 -0.41098183 -0.13316384 -0.23831552 -0.0749569 0.14340106 0.03899214 -0.0010642484 0.16141705 0.17006968 -0.09912827 -0.22260073 -0.16955794 -0.08990796 0.12716955 0.07075112 -0.11527207 -0.030479645 -0.26370397 0.23724206
use 0.02085877 0.20574038 -0.010769252 0.20930275 -0.08926001 -0.06518264 -0.041580733 0.09307191 -0.2947051 -0.10430453 -0.061958145 -0.040234745 -0.28845096 0.06332989 -0.1768365 -0.014986166 -0.29523182 0.037112873 0.06177103 -0.072948225 0.11232011 -0.2936112 0.023433538 0.113801144 -0.34997976 -0.25029707 -0.1671153 -0.30431208 -0.27456778 0.10851948 0.14968932 0.48277527 0.2053924 -0.10017605 0.0020705531 0.036522113 -0.07812361 -0.23902696 -0.17898616 0.06805547 0.2820307 -0.30022815 0.067997895 -0.008273598 0.1390239 -0.14197357 0.17784326 0.08905503 -0.04272232 0.46525246 0.047606837 0.10570004 -0.18001357 0.17566429 0.25149855 -0.030747818 -0.12680396 -0.11727377 -0.17352994 -0.050933562 -0.04855036 0.001712819 0.09793656 0.10559989 0.37980077 0.17933378 -0.030826349 -0.11687158 0.37968537 0.18026048 -0.13405566 -0.31888184 -0.11242622 -0.0077289203 -0.19916365 -0.020752003 -0.13294546 0.16776036 -0.2595188 -0.34633482 0.08782944 -0.18994953 -0.3019303 -0.07432584 0.13733312 0.19318317 0.036653038 0.35394412 -0.2879693 -0.29240072 0.06558428 -0.24131857 0.025459507 0.25209984 0.034807403 -0.05335907 -0.03350921 0.08835277 0.114598274 -0.09673259
efficiency -0.20288241 0.2271376 -0.122349426 -0.17603418 0.2912826 -0.21323042 0.23309067 -0.025341725 -0.3909513 -0.20274678 0.01811659 -0.092463925 0.019907625 0.15783648 0.36302432 -0.06272405 0.066182256 -0.0029725754 -0.39654627 -0.12867694 0.060997684 -0.06090396 -0.12638772 0.23674075 0.3246341 -0.09302516 0.0016139814 -0.096768975 0.01036053 -0.10951103 0.51466715 0.29612067 0.20939079 0.074490555 -0.20505248 -0.051221248 0.36300686 0.04156359 0.034247816 -0.3429385 -0.045538362 -0.13315678 -0.085969746 -0.27345425 -0.041587528 -0.13598558 0.115511425 0.07026637 0.087880075 0.07743242 -0.12376235 -0.04191871 0.26498967 -0.23907234 0.22814687 -0.08253664 0.008768398 0.04252934 0.009156725 0.0348864 0.44256434 -0.12965065 0.008617653 -0.06525953 -0.08709087 0.13389058 0.26231554 0.119220264 -0.14173453 0.08807692 0.5177287 0.007304148 0.013419155 -0.25533995 0.09418642 -0.39195275 0.008195847 0.24474752 0.45326295 -0.18763974 -0.30818212 0.05762421 -0.05473346 -0.10511479 0.09014633 -0.22861765 0.2941458 0.19006492 0.15647395 0.23455682 0.20879048 -0.113136716 -0.06015039 0.16131002 -0.29756773 -0.09071405 -0.30290303 0.24386698 -0.23578958 -0.008302522
communication -0.0506441 -0.015434322 -0.07641177 0.041226894 -0.12853077 -0.1660209 0.13097884 0.15839836 -0.0878246 -0.31039998 0.12710842 -0.018045073 0.08774138 0.47101244 -0.06480002 -0.3550381 -0.113331094 0.06821705 -0.28805563 -0.024726918 0.54481834 0.16494061 -0.24287449 -0.025320087 0.025600608 0.20077308 0.32826865 -0.056273784 -0.15774132 0.05853885 0.6457355 0.13278233 0.004641832 0.24054037 0.12320825 -0.57618195 0.29474986 -0.063195 0.45428455 -0.11248469 0.13445908 -0.12791198 0.13582851 -0.28567612 0.3557746 0.021859935 0.101408094 0.34965563 -0.12702464 0.6554871 0.041007765 0.16571572 0.033609595 0.050906908 0.35829502 0.25962567 0.048194952 0.23535696 -0.0054932795 0.16377385 0.17397137 0.15912986 -0.40905014 -0.19398636 -0.061216276 0.17427243 -0.16306616 -0.0546214 0.055398352 -0.21421184 -0.04100232 0.2533866 -0.34616137 0.026406886 0.22737534 -0.48725417 0.44906336 -0.14196363 0.13431594 -0.08067347 -0.13910936 -0.16536994 0.19954528 0.43850267 -0.19836068 0.22658393 0.13615733 0.054243367 0.25026524 0.081313446 0.20769656 0.054068044 -0.20771055 -0.28394437 -0.2863898 -0.059819005 0.11229989 0.008470119 0.09243447 0.2710937
storage -0.45656696 0.052730665 0.19639063 0.20346545 0.2877055 -0.29917163 -0.073383704 -0.11315895 -0.10232248 -0.028388465 0.34659064 0.0496426 0.13979541 -0.023318427 0.26232678 0.003652713 0.08994128 0.15196319 -0.11136351 -0.007785894 0.3001315 -0.7604306 -0.20668407 0.0826911 0.2963206 0.07789705 -0.26525846 -0.29287705 0.009777533 -0.058118273 0.06028469 0.35957557 -0.057706494 -0.05228276 -0.0574186 0.15409313 0.53832453 -0.1362088 -0.2662132 0.067699604 0.5012069 -0.46961656 -0.22810604 -0.21788587 -0.06573729 -0.28859824 0.16174233 -0.022337338 -0.25929913 0.48675084 -0.06174758 -0.059660703 -0.09463469 -0.31468245 0.4405492 -0.34542406 -0.5820216 0.031325687 0.08074078 -0.14662229 -0.042906072 0.12136721 -0.26272115 -0.16137926 0.18650489 0.088833205 -0.27740246 0.07453122 -0.0068574925 -0.16357358 -0.18349491 0.47087517 -0.35402185 0.08821592 0.5473213 -0.14323589 -0.24998489 -0.094485894 0.40194333 0.6353728 -0.40914533 -0.24000444 -0.10881628 -0.0806614 0.19351342 -0.0014031169 -0.20207602 -0.09312729 -0.3042949 0.085156254 0.06747079 0.02570357 0.40838996 -0.03665883 -0.023334606 0.19874908 -0.11816906 -0.1661855 -0.67902935 -0.5002003
order -0.095530845 0.1125652 -0.06544966 0.15115838 -0.031221729 -0.28638756 -0.07434967 0.04030707 0.021297619 0.18382177 0.12957135 0.03857393 -0.05827878 -0.03898469 0.09619646 -0.064483695 -0.34995058 -0.028065307 0.011008875 -0.30503714 0.04669821 -0.12434091 0.07758153 0.060664337 -0.081270896 0.11050752 -0.10894894 -0.23602277 0.18849537 0.0824858 0.051151913 0.22959207 0.019891385 0.18322104 0.12813795 -0.119657144 0.2433966 -0.18007128 0.19006205 -0.14424808 0.07302952 -0.11118229 0.10940411 0.3781428 0.023415467 -0.060049377 0.11344875 -0.101074755 -0.11354158 0.017921828 0.25637767 0.28109005 0.20044307 0.028314758 0.30278906 -0.24258979 -0.22255917 -0.11580491 -0.13588734 -0.014726599 0.056111213 -0.19305158 0.3976523 -0.4726471 0.119731426 -0.0460948 -0.124650635 -0.07093742 0.5240959 -0.0064960187 0.04884068 0.012572178 -0.052341044 -0.20335107 0.19962431 -0.10973729 -0.04227028 -0.026530363 0.0030191562 -0.23106776 -0.018191816 -0.3155425 -0.15768655 0.36142915 -0.07427261 -0.06637856 0.28033525 0.22328624 -0.15383628 0.13926749 -0.31955805 -0.033832416 0.10854612 0.16608116 -0.0918685 -0.061782267 -0.3353313 0.014770012 0.05949399 0.11152724
privacy -0.3177788 0.43378872 -0.24353239 -0.24344829 0.41233563 -0.50973594 0.083161145 -0.009130663 -0.043808036 0.107835755 0.36637494 0.06949434 -0.07573219 -0.18863064 0.065160275 -0.46468627 -0.7200422 0.34265518 -0.18020198 0.113785386 0.35903013 0.30647776 -0.13992102 -0.33932436 -0.23581176 -0.43682122 0.17289121 -0.003461134 -0.041904256 -0.1479845 -0.13774331 0.09515171 0.50123405 -0.1261769 -0.6344463 -0.07245499 0.43251428 -0.44088206 -0.11524219 -0.093880616 -0.40555233 -0.45731673 -0.45354098 0.46284512 -0.0591645 -0.092186205 0.18323924 -0.15786682 -0.6062508 0.14051624 -0.16864549 0.29859087 -0.07741478 -0.20298935 -0.07835755 -0.8159815 -0.27874747 -0.05203295 0.1636806 0.03630524 0.42511073 0.19340444 -0.307027 -0.44904733 0.025510516 -0.02726375 -0.21331099 0.9310607 0.4204767 0.61490905 -0.12002302 -0.041097548 -0.28239062 -0.12194709 -0.1709618 -0.32887384 -0.08577264 0.1577199 0.11406452 -0.41897824 -0.23723938 0.31000444 0.10103097 0.05924309 -0.16554733 0.6325539 0.007827991 0.22964045 -0.15824649 -0.08943942 -0.26848793 -0.2536399 -0.34772506 -0.07738952 -0.5676423 -0.13200206 0.15671253 -0.15495543 -0.4248118 0.36237684
design -0.27312922 0.2803017 -0.0029499326 -0.12616509 0.09843595 0.10045826 -0.0059590167 0.03845083 -0.26149377 -0.23146926 -0.10485493 -0.17228836 -0.14591229 -0.14816251 -0.21852925 0.02312672 -0.12173842 -0.124879055 0.33415443 -0.21565896 0.15786971 -0.31957963 -0.34271023 0.13436323 -0.28902304 -0.13276675 0.29231864 0.1274275 -0.14264904 0.21849799 -0.12533721 -0.20174088 0.18768182 0.38629478 -0.41058716 -0.324841 0.028223641 -0.48622474 0.019245585 -0.2232025 0.0737274 -0.29682404 0.068433896 -0.29363945 -0.30028802 0.4429476 -0.0594552 -0.0064578652 -0.39528117 -0.051654134 0.0021834336 0.4306348 -0.3306715 -0.3025194 -0.109377846 -0.39028254 0.19242513 -0.04988896 -0.58680654 0.09806196 0.14367795 0.15269133 0.18676227 -0.34430835 -0.107386395 0.14762504 -0.19113392 -0.095462576 0.36427602 0.27029306 -0.012101989 0.33815318 0.056483373 -0.22931589 -0.05796641 0.2690817 -0.1358008 0.060982045 -0.14110753 0.3878817 -0.13959202 -0.035187785 0.118785806 0.09777142 -0.083341174 0.5771206 -0.13812901 -0.2768901 0.20973234 -0.121610865 0.44355223 -0.05980664 0.5029913 0.20335232 -0.03972232 -0.043265536 0.053056467 0.10187533 0.14911672 0.030802144
quality -0.07961652 -0.4726042 -0.0032326686 0.041386496 0.035037123 0.06914433 0.2979838 0.0741942 -0.06376399 0.13692759 0.08035712 0.21469152 0.15320787 -0.24685135 -0.26592332 0.06838417 -0.65846914 -0.048602555 0.1452258 -0.4454794 -0.11097254 -0.036855254 0.48800796 -0.033653177 0.36562857 0.4265979 -0.28672123 -0.05792517 0.28332278 -0.021528376 0.1223981 -0.3127241 -0.08396632 0.26257887 -0.2634285 -0.29432926 0.33683005 0.089554794 0.3999265 -0.024987726 -0.0051235394 -0.21081293 0.29767522 0.24214657 -0.10786921 0.060903665 -0.13950115 0.22232318 -0.07969871 0.496995 -0.0064026257 0.12670338 -0.17529184 -0.014836621 -0.4543617 -0.26013982 0.05473728 0.11676237 -0.0802668 -0.39474094 -0.31814435 0.0020863316 0.20454936 -0.17117569 0.10406029 0.24591222 -0.16107523 0.27652565 0.3301633 0.052108496 -0.05838095 -0.30992895 -0.5554672 0.013968833 0.13585214 -0.21840934 0.12800114 0.17598881 0.03620248 -0.26747414 -0.8359341 -0.11905945 -0.10221903 -0.06739902 0.15183102 -0.22101165 0.13679826 0.054992378 -0.40470147 0.00015164567 -0.12434403 0.10506657 0.7669798 0.19447507 0.19178064 -0.12320698 -0.46523145 0.2163752 -0.13103135 0.21320687
optimization -0.0139752235 -0.13667159 0.27379203 -0.21112932 0.37805533 -0.039758462 0.12578873 -0.16923317 0.2972525 0.2247761 -0.29543087 -0.08566991 -0.17118037 -0.054462537 0.20014447 -0.10864947 -0.21865113 -0.13488786 0.009618484 -0.09546117 -0.31056142 -0.0134689 0.09357938 0.055246264 -0.013118815 -0.1541752 -0.34683833 0.096337155 -0.39031506 0.8535586 0.38401473 0.17665793 -0.00457123 0.14341198 0.054353412 -0.069527864 0.060999148 0.2815855 0.3918881 -0.14865118 -0.24773712 -0.44511324 0.22705975 0.08107234 -0.34592447 0.038537778 -0.22197396 -0.32696807 -0.20356327 0.38289022 0.6175933 0.41363913 -0.08490763 0.28306723 0.18586604 0.2430426 0.174228 -0.16057996 0.12490189 -0.37963614 0.26208943 0.28606063 -0.02605545 -0.023152307 0.0288468 -0.45063773 -0.21632195 0.22838478 0.20840837 0.15572658 0.4882032 -0.19082278 -0.098066494 -0.09665998 -0.08715302 -0.13046949 0.5326543 0.1987946 0.19690488 0.2467908 -0.67043054 -0.10653923 -0.05552313 -0.010258366 -0.04377985 0.08865961 0.11756514 0.086730205 0.36953628 -0.1988526 -0.0020773113 0.06093382 -0.04323014 0.06968518 0.31182733 0.061689083 0.103380635 -0.2931501 0.18659618 0.19374768
evaluation -0.14716825 0.007369425 0.14986353 -0.22008991 -0.023140058 -0.19645381 -0.04565045 0.21235605 -0.015820717 0.008785358 -0.2337185 0.06753418 -0.065772705 -0.17699832 -0.33385816 0.24772164 0.18492247 -0.06587442 -0.4188148 -0.15423656 0.03116344 -0.20808075 0.10473339 0.17613567 -0.79384816 -0.07680025 -0.2988105 -0.2255659 0.08659594 -0.09435685 0.21667708 0.1837235 -0.02431968 -0.2750628 -0.1177207 -0.18452169 0.018048823 -0.3290369 -0.30275586 -0.6765367 0.051595632 -0.24573758 0.15611057 0.21624897 0.1070675 -0.10403368 0.022963991 -0.13906607 -0.012756029 0.08008041 0.23881713 -0.08060696 -0.00564402 -0.06682414 0.3514212 -0.23722786 -0.15907212 0.12505157 -0.11184324 -0.077858664 0.19463664 0.057405945 -0.39930263 -0.44894728 0.016391028 -0.13614565 -0.07125206 0.13045523 -0.04378274 0.2954188 0.16072874 -0.29889348 -0.066276014 -0.13996372 0.38176137 0.43888217 0.32533854 -0.15772396 -0.30548227 -0.1638132 -0.03788681 -0.062129892 -0.12937535 0.2242266 -0.17018041 0.0512132 -0.13604225 -0.026736056 -0.077731244 -0.23006701 0.49006918 -0.21011496 -0.0008272674 0.5024407 -0.084712796 0.058511097 -0.12476214 0.039656736 0.07347284 0.3373467
cost -0.029351959 -0.2091965 0.23809193 0.4548553 0.058103144 -0.108423896 0.19583817 -0.22668585 -0.0935479 0.23102558 -0.15982606 -0.29746452 0.2184917 -0.50460136 0.32769346 0.012472085 0.095625095 0.1615016 -0.12256426 -0.2965513 0.19937867 -0.2130087 0.019348683 0.17676914 -0.13065538 -0.25082302 0.18948562 -0.14849854 0.47110704 0.099943005 0.5683884 0.25506046 -0.29859987 0.43091145 -0.2833237 -0.1283843 0.65715855 -0.14818804 0.02272908 -0.32498354 -0.16044159 -0.07856511 0.13120914 -0.24457662 0.3958425 -0.15338883 0.16540761 -0.23866048 -0.30020636 0.09474061 -0.25682667 -0.11503282 0.076819286 0.19120653 -0.29838452 -0.38432166 0.28269336 -0.047029257 0.07239485 -0.21443084 0.17925851 -0.16551937 0.07188524 -0.018614866 0.3541286 -0.037962407 -0.029963301 -0.07579412 0.008131283 -0.09443076 -0.12050073 -0.14362541 0.073325455 0.28490904 0.2866411 -0.48523498 0.024445657 -0.36185354 0.39294508 0.2251171 -0.2903496 -0.15640478 0.38931802 -0.14635979 0.018565709 -0.17540002 -0.017700152 0.3284481 -0.32783216 0.11256557 0.5423527 -0.29950768 0.29202077 0.023774344 -0.29938132 -0.3401866 -0.32325473 -0.40421057 0.39202926 0.0005239853
accuracy 0.092885695 0.41371667 -0.2108123 -0.17298603 0.33032933 -0.3916758 0.23460928 0.16265532 0.1744415 -0.036824364 -0.065176226 -0.049665745 -0.2882049 0.028266374 0.5034997 0.17512779 -0.31794608 -0.17457294 -0.26383206 -0.1691759 0.28365993 0.04504988 0.15165083 -0.082232386 -0.45993719 0.115996085 -0.05642136 -0.39646843 0.024690393 0.1943812 -0.07963088 0.14680754 0.40786576 -0.18261828 -0.0059967064 -0.037943404 0.26841554 0.06698378 -0.059243906 -1.1815137e-06 0.18379335 0.117156684 0.8035801 0.47235388 -0.11369163 -0.0139888255 -0.19058041 0.38761243 0.45317882 0.0075540887 -0.25648367 0.091887265 -0.079281576 0.13337368 -0.38585714 0.06979827 0.1829166 0.22597472 0.4666941 0.04584976 0.42681792 -0.16356127 0.16730627 -0.019515377 -0.038355026 0.015474185 0.053003773 0.2446097 -0.021450017 0.16733228 0.16214159 -0.23942219 -0.41865253 -0.117567234 0.32390395 0.24117936 0.38890252 -0.23647448 -0.030608606 -0.04851663 -0.05017968 -0.6873635 0.02009458 -0.010889353 -0.1740651 -0.21091606 -0.34475574 -0.0036324982 0.49393612 0.44661316 0.17044097 -0.07278841 0.013453312 0.0023753424 0.030911952 -0.2940712 -0.27615196 -0.33789572 0.06656991 -0.31038874
simulation 0.41114703 -0.06544451 0.44548553 -0.027690098 0.15437233 0.06812587 -0.057406325 0.52895975 -0.073742844 0.27350843 -0.030402774 -0.39178553 -0.8655318 -0.048888016 0.31171182 -0.012946231 -0.10383539 -0.14134559 -0.21613368 -0.33815625 0.08232426 -0.21008149 -0.28199205 0.072473325 0.2594581 0.28433672 0.08724671 -0.6701869 0.09468848 0.22489806 -0.10396774 -0.3943001 0.02834706 -0.043207914 -0.051647708 0.35258502 0.2466942 -0.25717616 -0.00067105505 -0.40971464 0.17077841 0.42866024 0.29873082 -0.4221633 0.021209806 -0.16790512 0.044270687 -0.009851684 0.10942435 0.63712484 -0.08621846 0.11139461 0.36369705 0.13273029 0.7605972 0.028395211 0.0023546214 -0.2529061 -0.0073609566 0.32334876 0.0630754 0.2591701 -0.056074798 0.046569616 0.71442443 0.063611925 -0.32944664 -0.18545407 0.21140568 0.00096326787 0.26220927 0.14005361 -0.006882049 -0.28057757 0.100271635 0.23622629 -0.13124636 -0.23219065 0.55906385 0.1571997 -0.36402687 -0.1007865 0.2553643 -0.0754733 0.00042829692 0.3870325 -0.008179236 0.3434713 0.020390382 0.118960075 0.16523686 -0.25824344 0.46981487 -0.19108157 0.23684219 0.1670888 0.3267843 0.15780197 0.48254818 0.21512996
software 0.47195327 -0.052748233 -0.2162699 0.19427224 0.050273437 0.56022525 -0.09852606 -0.12219081 -0.11431497 -0.1618188 0.27774164 -0.10061421 0.120108925 -0.12327004 -0.24095207 -0.09452988 -0.13170652 -0.45298508 -0.11204809 -0.1416541 0.36522126 -0.2557032 0.13763583 -0.22719006 0.13475926 0.0696175 0.09098375 -0.32067618 -0.46302912 -0.14533687 -0.1749793 0.43927938 0.6040737 0.16551116 -0.75273865 -0.2449065 -0.088943005 -0.07468866 0.2466227 -0.065817565 0.4489379 -0.60605085 0.2525379 0.30502418 -0.091826074 -0.13016956 0.3042869 0.18895201 0.4371846 0.4186138 0.15191278 -0.07850791 0.07257854 0.14886759 0.031068994 -0.21676941 -0.23395042 0.010930969 -0.4884349 0.0875204 0.03008382 -0.10518833 0.22563265 0.120431446 0.28704685 -0.46135813 -0.27603522 -0.32448104 -0.07632722 0.19304688 -0.022263356 -0.07669247 0.47336045 -0.3316933 0.16439442 0.06165636 0.4351771 -0.3335711 0.06867944 0.7953123 -0.18528551 -0.141887 -0.17713004 -0.18179931 0.13665527 0.078052685 0.13323845 -0.07070924 0.26436827 0.08715355 -0.0897499 -0.17878255 0.5167726 0.13949317 0.045685347 -0.2577962 0.31684172 0.05012125 0.23633139 -0.079629585
consumption 0.10902848 -0.45835668 -0.16202027 0.27758065 0.4949601 0.121249944 -0.18199392 -0.051011473 -0.18673399 -0.023652114 0.15546156 -0.035432886 0.109864436 0.21856019 0.13483493 0.5321913 -0.009340044 0.12701944 -0.13885595 -0.042566024 0.2988435 -0.20646998 0.18032736 -0.06535338 -0.07131785 -0.046686836 -0.117877856 -0.5568901 -0.11331739 0.15328589 0.22229832 -0.17515096 0.25177792 0.15426722 -0.0232589 0.028190218 -0.036415055 -0.03934265 0.35995954 0.23539028 -0.025330419 -0.4601698 0.08229901 -0.27839646 0.11699485 0.49570796 0.3759784 0.26414996 -0.31783956 0.06380577 0.7918579 0.24314104 -0.12673329 0.014762616 0.119340405 -0.33147922 0.22409701 -0.86135095 -0.15418945 0.11006069 -0.056458242 0.37157592 0.11727644 -0.114177674 -0.11048321 -0.047851454 0.034573104 -0.24194263 -0.17473727 0.08159523 0.3067181 0.07337541 -0.06457524 0.16307777 0.005819725 -0.23936823 0.21391979 0.012916336 0.30566046 0.2641566 -0.7886497 -0.60697764 0.017936079 0.08819169 0.06535577 0.12461051 0.13955283 0.10207424 -0.16054817 0.48938212 -0.0211041 -0.6399024 0.57150894 -0.13956708 -0.105446994 0.010399251 0.020225085 0.19911242 -0.28200164 -0.24584574
technology 0.011233945 -0.0068090125 -0.14349088 -0.2410365 0.23349778 -0.2691588 0.37309095 0.031715512 -0.15413155 -0.10806272 0.2975397 0.013902398 -0.40905184 -0.27862382 -0.10766364 0.10932926 0.028149452 -0.49129108 0.14010328 -0.009932491 0.4574495 -0.0014193838 0.2598531 -0.0029955434 -0.39108798 -0.43509474 0.087495126 0.031349402 -0.0328889 0.14277016 0.13779807 0.3626374 -0.014668057 -0.024257023 0.008022958 -0.3150056 0.21107806 -0.50261825 0.13017078 0.08740036 0.069069535 0.16061875 0.042084746 0.17410477 0.39166772 0.066639975 0.26097465 -0.045732226 0.44428524 0.31728873 -0.29583344 0.3614501 0.063844204 -0.8227093 0.40720168 -0.32671416 0.090657085 -0.1548449 -0.4055683 0.05836477 0.547692 -0.3869495 -0.13311397 0.22088625 0.10279278 0.19946441 0.03366224 0.21689793 -0.037210137 0.19264954 -4.5044348e-05 -0.054842032 -0.09575471 -0.31443697 -0.26940325 -0.56079316 -0.13128719 -0.24409842 -0.08534465 0.03692987 -0.797567 -0.15401572 -0.05351376 -0.094383016 0.26526874 -0.0929632 0.02779778 0.0036315972 0.12475247 0.08728608 0.41233638 0.08225334 -0.13666089 -0.5965682 -0.43260378 0.0038268098 0.013214748 0.03080187 -0.12981053 -0.30402178
image 0.7421144 -0.33452466 0.36132905 -0.0584532 -0.31593543 -0.34893158 0.1380387 0.078746326 0.43099198 0.046579093 0.043397877 0.1375841 0.87684715 -0.07263698 0.078805186 -0.2684422 -0.10198518 -0.20879866 -0.2371881 -0.46391466 -0.4748194 -0.15073219 0.20456636 0.15607497 -0.31991464 -0.53150916 -0.24940833 0.1790344 -0.09472997 -0.0424616 -0.16164687 -0.021877242 0.8413335 0.057089664 0.0074378843 -0.34819302 0.13029063 -0.084398985 0.35112485 -0.25544718 0.82290196 -0.6257727 0.7882402 -0.001365645 -0.14326148 -0.24127065 0.12574768 0.24092747 0.5072065 0.67434055 -1.0386841 -0.25596175 -0.38107723 0.06615591 -0.34185818 0.4079102 -0.35632786 -0.31715474 -0.45155096 -0.21284416 0.19279839 0.21709695 0.16759801 -0.65886056 -0.0870405 -0.1916142 0.3965177 0.34607065 -0.04863691 0.80213964 0.17000614 -0.046341863 -0.4256663 -0.5047907 0.21104042 0.1355352 -0.88749903 0.10870621 0.04921235 0.38559523 -0.49939188 0.23509733 -0.36831355 -0.18531296 -0.37522483 -0.23388508 -0.80999124 -0.0069268644 -0.2760318 0.1575106 0.74721205 -0.4063376 0.08673471 -0.2311441 0.031866655 -0.12464626 -0.36368555 0.19833803 0.18747596 -0.13067478
power -0.26331186 -0.4943607 -0.06442137 -0.097111344 0.35393062 0.23198773 0.1771482 -0.07543445 0.2031768 -0.14577761 -0.044431604 -0.16036925 -0.066191435 0.31265637 0.46923295 -0.45449445 0.1303875 -0.46094972 0.19785115 0.03708836 -0.07234949 -0.41106334 -0.14986531 0.010699977 0.055450317 -0.4000532 -0.047465406 -0.58460134 0.02174538 0.006866338 0.1015089 0.14172323 0.098456845 0.11627658 0.21049419 -0.36594227 -0.042341024 -0.046640232 0.6261731 -0.13596323 -0.15383649 -0.22196259 -0.20087434 -0.39645487 0.024755908 -0.07035331 0.14630263 0.344805 -0.43989056 0.9028379 0.35471153 0.093026675 0.25717407 -0.18411909 0.27323118 -0.07497885 0.3212103 -0.2236342 -0.77554077 -0.14203407 -0.14130653 0.37145737 -0.10675272 -0.23048602 -0.074576706 -0.23759112 -0.04522127 0.2067612 0.15670034 0.20437574 -0.25208893 -0.182417 -0.010603364 -0.23348819 -0.092330426 0.21435693 0.49468777 0.35059026 0.48043412 -0.19191533 -0.8103069 -0.45658743 -0.09168416 0.086877756 0.10606501 0.077317454 0.010953753 0.07527155 0.27910283 0.505581 -0.13760468 -0.2887648 -0.8494486 -0.06601295 -0.39493135 -0.15905593 -0.30525893 -0.32373366 -0.2542786 -0.009966733
iot 0.11875835 -0.0686549 0.21570796 0.09299525 0.18564878 -0.079521954 0.4800932 0.08169131 -0.31002486 -0.055438437 0.099877544 -0.24626908 -0.3210919 -0.004608654 -0.24098642 -0.10391569 0.22297847 -0.18239982 -0.08818984 -0.11426812 -0.14779194 0.20549804 0.069990225 0.011742641 0.03586199 0.17569809 0.57326406 0.07909003 -0.19734694 -0.27430132 0.17252445 0.5417132 0.17452067 0.069597274 0.3812206 -0.9881302 0.030326465 -0.0536173 0.027301382 -0.42574474 -0.2452403 -0.010153338 0.14197324 0.051371872 -0.23366535 -0.11642966 0.6312678 -0.42884445 0.020638142 0.62381285 -0.19824938 0.22930808 -0.19532141 -0.24137473 0.52654546 -0.21845593 0.030743126 0.12697673 0.011906881 -0.30918023 0.11959471 0.38703403 -0.10886469 -0.27073112 -0.16264267 0.046019033 -0.14623997 0.7396745 0.5594524 0.21832977 -0.20954159 0.30822003 -0.27287948 -0.26092887 0.30935973 -0.22946204 -0.08477265 -0.7793568 0.0060862615 -0.13227896 -0.15678607 -0.42843378 0.04783747 0.022544786 -0.7231813 0.576538 0.029540371 0.20425911 -0.23593341 -0.3414 0.15809456 -0.22942095 -0.13472484 -0.57702535 -0.3103226 -0.009995127 0.24138802 0.22215311 -0.07303799 -0.3063693
strategy -0.020691646 -0.26642942 0.375044 0.08413593 0.34906912 -0.40018666 0.52112114 0.44612825 0.07640208 -0.22475064 0.030603368 0.11837231 -0.18074888 -0.39022785 0.6846928 -0.7013971 -0.5443083 -0.024845235 -0.28652266 -0.03338563 -0.10602237 0.30821645 0.2550932 0.23613717 0.44996628 -0.036260147 0.0020644406 -0.24687941 0.57777685 -0.027807264 0.4915139 -0.06598922 0.30339795 0.34935907 -0.085099354 0.117341064 0.27649915 -0.3604974 0.21543428 0.122972734 0.02078907 -0.3529589 -0.069445394 -0.36640516 -0.12511009 0.05933135 0.49099454 0.03380856 -0.0616414 -0.008181093 0.0020484522 0.25177437 -0.032589193 0.0073781884 0.02123074 0.23683514 -0.30207083 0.03671679 0.3614915 -0.12498973 0.21725886 -0.13701166 -0.07381634 0.07812391 -0.40483308 -0.28409076 -0.47691047 -0.053128608 0.29002997 -0.1786444 0.27657717 -0.2898013 0.12903033 -0.32344982 0.031958453 0.23118512 0.080496244 0.062251255 -0.062237147 -0.03387226 -0.44135988 0.050778583 -0.049684577 -0.082108274 0.23831616 -0.2782001 -0.018448235 -0.17505392 0.20508522 0.31796807 0.20291322 -0.1608605 -0.17640273 0.22328864 0.26513678 0.043743204 0.39800897 -0.15225966 0.062952824 0.20603283
machine -0.27834123 -0.08889617 -0.1331888 -0.29550424 0.3469847 -0.15767002 -0.01981401 -0.09530993 0.12403033 0.33581498 -0.022732615 0.41259754 0.5412714 0.08193833 -0.10749291 0.10494148 -0.49431106 -0.040339384 0.046279468 0.039346077 0.046014983 -0.038681787 0.05504115 -0.06665826 -0.23363262 0.23065475 0.0134181995 -0.6732855 0.00676092 0.35238305 0.061486978 0.46760827 0.48189417 0.055045772 -0.14133961 -0.20285422 -0.55825466 -0.17526479 0.14621535 -0.20220405 0.28898883 -0.10413231 0.07144802 -0.22851545 -0.2923673 0.15381871 0.18737857 0.11508333 0.4711398 0.28290662 -0.19697268 0.5193811 0.010672059 -0.32408437 -0.4880861 0.060847946 0.13613097 0.25449902 0.3608723 0.102663405 0.12721016 0.18077832 -0.1981735 0.22777027 0.09776173 0.4336763 -0.062137485 -0.3263066 0.21933606 0.12623262 0.56087136 -0.03998799 0.2079986 -0.20553327 0.07205075 -0.2874203 -0.14267147 0.060735498 0.18008913 -0.522555 -0.19105417 0.10343953 -0.30008945 0.03987338 0.15519707 0.13686116 -0.17173797 -0.11396426 0.1680419 0.11717752 0.18962054 -0.24602243 0.2073591 -0.1855697 0.45527527 -0.3859015 0.013122456 -0.58264303 0.15199567 0.39005396
development 0.024429506 -0.06630984 -0.028342515 -0.46234006 0.14505363 0.31968015 -0.31860793 -0.40713632 -0.41087654 -0.13380776 0.530947 0.10776306 -0.06336052 0.043307707 -0.19579643 -0.18407461 0.3907214 -0.2838451 -0.49009165 -0.09734752 0.051417105 -0.2222612 0.34796742 -0.16188481 -0.33487567 -0.21478325 0.45373523 -0.4673784 -0.2669436 0.19050114 -0.09053508 0.23464568 0.40204796 -0.30880782 0.020088425 -0.22649127 -0.006411347 -0.42882082 0.31385154 -0.36448076 0.07011422 -0.09969074 -0.1547144 0.60948026 0.08927844 -0.36131236 0.307161 -0.111006945 0.27184996 0.39896777 -0.18707252 0.024085935 -0.46152624 0.35443866 -0.054859847 -0.8054299 0.2046749 0.32449737 -0.31374723 0.20239651 0.21736497 0.19133884 -0.12244156 0.25128102 -0.21833311 -0.13861999 -0.504493 -0.33004645 0.097359 0.008952191 0.25855196 -0.1980619 -0.57069105 0.062317245 0.2503124 -0.02753927 -0.13772176 -0.0211518 -0.19011433 0.20160085 -0.40648255 0.035550162 0.17472345 0.009286781 0.5144791 0.14405733 -0.031360727 0.5054588 0.18386564 0.0011870693 0.21518914 0.0024127318 0.53610533 -0.012646701 0.011297401 0.054928966 -0.07298291 -0.32065073 0.29340154 -0.49987608
knowledge 0.029367587 -0.072214074 0.13415617 -0.40517634 -0.3836399 -0.096563116 0.00021051057 0.06127116 -0.20716165 0.06353214 0.21102242 0.016840363 -0.044859618 -0.022572918 -0.12471969 0.14165692 -0.21469603 0.28328434 -0.25017226 -0.533845 0.29138872 0.17560768 0.44097254 0.1262434 -0.38950598 -0.5095817 -0.0555712 -0.5122878 -0.21773472 -0.12481097 0.11100589 0.18513547 0.12073613 0.020834127 -0.021870632 -0.06931025 -0.15947989 -0.37802917 -0.14172372 0.016378742 0.18479314 0.018155314 -0.17402363 -0.008636734 -0.25159958 0.34666938 0.2803888 -0.10868166 0.19540995 0.02236249 -0.58473796 0.07861771 -0.06921239 -0.0680603 0.007097076 -0.17301269 0.01280906 0.57922375 -0.25431895 -0.20792426 0.3037189 0.06872873 0.12124643 -0.5755738 0.19091289 -0.01721763 -0.72687364 -0.24114783 0.07638969 0.19528292 -0.45531365 -0.25414854 0.19854675 -0.07849432 -0.2522818 -0.30124506 0.083385155 0.23487267 -0.4238623 0.018540744 0.09240576 0.047559477 0.02974528 -0.027046768 -0.1710563 -0.103354394 -0.01596034 0.30689427 0.22931404 0.22320235 -0.048460644 -0.44075352 0.44606388 -0.19104873 0.39883262 0.18722224 0.57889736 0.37256637 -0.14721261 -0.04511412
case -0.07468667 -0.029453112 0.18273622 0.06804795 -0.18010843 -0.38487223 -0.3216126 -0.13958362 0.4479711 -0.20134217 -0.45752937 0.15178517 -0.29960886 0.021673763 -0.14896126 -0.10880937 -0.2320089 -0.14360939 -0.024001159 -0.7017599 0.35442817 -0.30795702 0.21519703 0.6264748 -0.7267364 0.22285298 -0.08956413 -0.12457127 -0.44941124 -0.055850632 0.33360025 0.08636623 0.18773328 0.35364032 0.1703582 -0.029109227 0.17806613 0.13292745 -0.24843632 -0.19379874 -0.06015803 -0.25071087 -0.03841565 0.031875063 -0.30842537 -0.102722205 0.16123599 0.24620557 0.4298776 0.013523052 -0.053225122 -0.04324254 0.19480602 -0.0025905967 -0.05569119 -0.2029917 -0.30390817 0.00087452907 -0.0439511 -0.16292483 -0.09267639 -0.35630757 0.18801369 -0.0708766 -0.08441943 0.039381996 -0.10483404 -0.3597563 0.47504336 0.28795904 0.23044848 -0.102067515 0.15334637 -0.079484284 -0.04870983 -0.16225453 0.17569913 -0.098969534 -0.0100417575 0.10519707 -0.011167077 0.0051375115 0.41019523 -0.064575225 0.22739498 0.04228632 0.21512258 -0.13158403 0.038784184 0.06552111 0.122018576 0.0009321279 0.41821003 -0.041312397 -0.1303173 0.10946928 0.3785089 0.062964074 -0.41285804 -0.24655326
study 0.25047785 0.7832367 -0.31023493 -0.35947138 0.10801198 -0.07408699 -0.087570466 -0.4272235 0.28003165 0.36377227 -0.08862227 0.27028552 -0.24296193 -0.078127906 -0.24689575 0.15878834 0.00054273196 -0.024035856 0.110519126 -0.39682183 0.09951816 -0.060993683 0.05515888 0.43475768 -0.042391762 0.4476875 -0.21077076 -0.45567212 -0.21978027 0.08975508 0.444216 0.13339552 -0.013073667 -0.16109549 -0.082741275 -0.088330485 0.024801329 -0.03387182 0.12626736 -0.11272907 -0.02791715 -0.3420582 0.057081185 -0.07811591 -0.10934839 0.24279864 0.23336639 0.25717574 0.010224115 0.15528573 -0.23398452 0.22333814 -0.2531993 -0.06258525 0.17677538 0.064206615 0.12095285 0.31366682 -0.03725313 -0.23713763 0.24779461 -0.07058721 0.3143436 -0.020669319 -0.0055892863 -0.104522154 0.23580006 -0.15343136 0.37862208 0.27875736 0.063771956 0.04801992 0.02829594 0.18746099 -0.03931328 -0.40670407 -0.20756254 0.03330049 -0.07433949 -0.11168726 -0.07000692 -0.29919288 0.45517394 0.11405773 0.015607405 0.24265943 0.01819278 -0.19576982 -0.03058121 -0.022465615 0.49826303 -0.22382388 0.23377867 0.13329649 -0.20810865 0.20536646 -0.111672275 0.18771805 0.03634357 -0.14657187
graph 0.2658399 0.31543347 0.47275537 -0.014839567 0.19548647 0.27923125 -0.16163203 0.21098943 -0.6319442 -0.2780987 -0.0006157887 -0.35569093 0.07915744 0.10215067 -0.32098365 -0.05593763 -0.6610986 -0.2653659 -0.019106543 -0.6876185 -0.00609756 0.25448924 0.13396214 0.36657554 -0.13685246 0.12175546 -0.37978444 -0.5199286 0.0056441487 -0.43094522 0.3785346 0.38903123 -0.124345124 0.18931396 -0.3979011 -0.09777245 0.38293812 0.5110086 -0.18295887 0.2678704 0.36771533 0.22955434 -0.42942828 0.15981811 -0.4941464 0.10784728 -0.31009495 0.06397941 0.03926419 0.22028285 -0.14738476 0.4565467 -0.08382864 0.3594559 -0.1506723 -0.45274216 0.5464903 0.097523995 0.284769 -0.16942528 -0.115843795 0.48147348 0.08455999 -0.5556984 -0.12653555 0.051843517 -0.11536336 -0.6834171 -0.0054121646 -0.020566205 -0.04040312 -0.2007624 -0.42069668 -0.042105325 -0.18532033 0.70736146 0.36086982 0.38782534 0.3031763 -0.11768316 -0.072315544 0.39096934 0.21099389 0.17437398 -0.21812542 -0.3887338 0.35389256 -0.52719635 0.23756222 -0.0022305495 0.64704585 -0.13248675 0.14125724 -0.13957511 0.21467789 -0.5034074 0.41661197 0.003704221 -0.04270109 -0.49406105
level -0.14624928 0.058130696 -0.38078767 0.24103177 0.11511022 0.11287043 0.33643788 0.38643086 0.34294486 -0.21380277 -0.34526667 0.17119575 0.23736107 -0.03499308 -0.36376905 0.06863889 -0.36310068 -0.016261954 0.38574556 0.091729596 0.62743914 0.042415492 0.0693815 0.15914427 0.09227482 0.22488172 0.121704 -0.26952994 0.3368666 0.017729815 0.34371296 -0.020625442 -0.06196468 -0.32648504 -0.2883015 -0.1339046 0.03930087 -0.52804327 0.053460803 -0.12462154 0.1928993 -0.5693855 0.2893004 -0.5575344 -0.27460697 -0.53953636 0.4952085 -0.1368152 -0.013803836 0.14467898 -0.5782795 -0.116521664 0.14226452 0.333797 0.27451462 -0.14632684 -0.21174908 -0.26601458 -0.26261896 -0.082225494 0.18396571 0.10613485 -0.21275845 -0.09079762 0.28021854 -0.42461282 -0.636739 0.05658144 -0.44232652 -0.04395568 0.5961107 -0.013513313 -0.5385173 -0.010781964 -0.5620406 0.036588583 0.29703373 -0.06610068 0.031583283 0.1675938 -0.15464325 -0.077888526 -0.1392316 0.2810611 0.1809121 -0.10584452 0.26526022 0.22586045 -0.35785925 -0.160805 0.049884725 0.38415122 0.19206743 0.1399668 -0.39425293 -0.25817814 0.10782421 -0.012738086 -0.00955989 0.07051455
prediction 0.60030055 0.18947122 -0.70574725 -0.12879054 0.36360866 -0.36499563 0.23745508 0.10827337 0.11851344 -0.07432767 -0.29170483 0.2509721 -0.11357585 0.025748556 0.41328156 -0.11030281 0.16854812 -0.006632902 -0.2916776 -0.4064435 -0.30395237 0.35548976 0.10752374 -0.04644506 -0.39691272 -0.10803098 -0.87352496 -0.3513596 0.24573565 -0.251974 0.15745082 0.029977815 0.109889016 -0.12220042 -0.5471274 -0.33784813 0.14576311 -0.2934258 0.16082634 -0.026862219 -0.115142964 -0.67847157 0.8248386 -0.22495696 -0.08378941 -0.34812033 -0.060342323 -0.25402114 -0.21123996 0.41477662 -0.35115656 0.025544684 0.29437888 0.20912859 -0.41835067 -0.6443635 -0.26802516 -0.12183115 0.41486022 0.19789708 0.056342665 0.73757315 0.08791438 0.3402677 -0.026034677 0.27229387 -0.38735858 -0.52411 -0.21979362 0.22015204 -0.065214016 0.23618604 -0.74052477 -0.38899007 0.43946993 -0.24932398 -0.29637745 0.24962078 -0.65632993 -0.19961187 -0.03600655 0.1251558 -0.5292263 -0.38027844 -0.08289795 -0.11207159 0.022317307 0.07912233 0.22377333 -0.2273683 -0.43541208 -0.30258307 0.17755958 -0.26516518 0.16856204 -0.3661288 0.23612718 -0.4964356 0.18248665 0.18800592
edge -0.21132684 0.09166587 0.06372824 -0.053595126 0.8833535 0.41297707 -0.17106736 0.0024060241 -0.24908048 -0.0748838 -0.17548911 -0.032261457 0.29696357 -0.28884754 0.18798159 -0.36553645 -0.16242628 0.06951791 -0.25796923 -0.31454724 -0.26691568 -0.4250821 0.2565318 -0.4798276 -0.13176188 -0.13136552 0.019449864 -0.169254 0.21826214 0.24648328 0.53635097 -0.17833154 0.34384373 0.072125204 0.36580816 -0.35645372 0.20851359 -0.096637554 0.38196766 -0.17509156 0.18057564 0.5080903 -0.3773115 -0.53044254 -0.26786166 -0.18132348 0.14708859 -0.22263728 -0.1356786 0.2911089 0.0624189 -0.4258763 -0.04138255 -0.40655118 0.21806869 0.0012236477 -0.36961114 -0.007833692 0.005291758 -0.19164492 -0.027417189 0.04634871 0.43493792 -0.30522913 -0.3069617 0.44859055 -0.5373614 0.4853766 -0.28837645 0.643689 0.54169506 0.28758705 -0.08484674 -0.500516 0.65661937 -0.21659468 0.21698458 -0.27556592 -0.20039128 0.09279571 0.53442377 -0.58945286 -0.68070704 -0.70469075 -0.30101243 0.2058251 0.2170152 -0.16666028 -0.22370379 -0.08990245 0.30420095 -0.28351998 0.20334694 -0.34710503 -0.1863738 0.35265818 -0.088957116 -0.570169 -0.16381381 -0.11140879
support -0.28514704 -0.0691216 0.46109 0.38226724 -0.09930591 -0.13638784 -0.069189474 -0.1410742 -0.30528003 -0.40995634 0.18438837 -0.10707732 0.013607204 0.16390258 -0.19326204 0.041311547 -0.24852528 -0.079977944 0.19273408 0.1820018 0.17260556 -0.19012992 -0.32505527 -0.10367001 -0.09993344 -0.34307674 -0.35500517 -0.25217798 -0.02616374 -0.0152314985 0.3067955 0.036375213 0.076120324 -0.09444694 -0.1867545 -0.26220155 -0.3636491 0.26937413 0.041306432 -0.54011995 0.074204236 -0.27353233 0.12253959 0.15518011 -0.2275332 -0.31532222 -0.012376795 -0.31218833 -0.3325688 -0.030640285 -0.49084184 0.36031127 -0.47640258 -0.555256 0.18831226 -0.0039140442 0.12736686 0.20807631 -0.23671548 0.09602168 0.36586368 -0.09678586 -0.24812514 -0.043254197 0.22512737 0.6065668 -0.23729524 -0.13161018 -0.04026579 0.17982939 0.10600307 -0.06487332 -0.18561731 -0.5792307 0.044195734 -0.2721092 -0.24448745 0.044477545 -0.27341756 0.36260447 -0.38979495 -0.21605879 0.016715981 -0.31085718 -0.04169527 0.25682607 0.04512731 0.19566618 0.3461896 -0.06968172 -0.07890624 0.249165 0.36563498 0.38093293 -0.028747158 0.10784158 0.19659819 0.051155627 -0.11094029 -0.2431838
mechanism -0.6066577 0.62111497 -0.038029887 0.012172432 -0.46654072 -0.10478409 0.100710616 0.22422333 -0.10897583 -0.20160829 0.023482839 0.024218483 -0.46173134 -0.0056484127 0.054678418 -0.29083025 -0.22151484 0.008549941 -0.24663752 -0.7195963 -0.01931608 -0.028177539 0.11393869 -0.1588642 -0.37518945 -0.2999449 -0.12391794 0.2304741 -0.29985636 -0.0324918 -0.024002628 0.5983756 0.04968469 0.11871783 -0.31666288 -0.17265867 -0.27626875 -0.107639514 0.04404509 -0.15107419 -0.50800997 -0.2603992 -0.09007256 -0.067281306 -0.13415042 -0.1369455 -0.28405526 0.49987257 -0.30269557 -0.21599878 -0.27225706 0.049093187 -0.19689935 -0.132832 0.100144684 0.040584434 -0.22217609 -0.25580898 0.15974753 -0.11806817 0.11542508 0.27949068 -0.026501989 0.03436018 0.48035738 0.11282793 0.08478813 0.030241529 0.013954657 0.03857539 -0.25757048 -0.45618767 -0.3642934 0.14604196 -0.1149225 -0.32191652 -0.0051483223 -0.43827963 0.23818135 0.18708849 -0.33750308 -0.374353 -0.36087528 0.20936055 -0.06924896 -0.06367864 0.34459284 -0.28550023 -0.11228285 0.21639201 0.13570623 -0.051613778 -0.085127085 0.0575717 -0.08427498 -0.07155908 0.22999673 -0.2242615 -0.43261048 -0.46988717
classification 0.12937842 -0.09246173 -0.3970893 0.2411638 0.3047491 -0.9083975 0.2998892 0.02688328 -0.33205584 0.18450043 0.08333942 -0.16010945 0.39427686 0.2280694 0.08252224 0.16166842 -0.4298988 -0.23347229 -0.30232218 -0.10102019 0.12044969 -0.101988 0.029029515 -0.0865132 -0.440458 -0.46791324 -0.42262307 -0.37444863 0.25768137 0.5021138 0.108508326 0.049596168 0.35723448 0.22722036 -0.16432473 -0.26763868 -0.32574368 0.18393777 0.3371273 0.41216707 0.41891593 -0.10978217 0.57048506 -0.38870382 -0.029768018 -0.2757628 -0.29710147 -0.3371179 0.74168265 -0.17408255 -0.40388608 0.11606904 -0.3091359 -0.089239255 0.026986636 -0.24855968 0.29232448 0.13901278 -0.2077153 0.025091682 0.0717437 0.18660682 0.32718924 -0.3301354 0.10556318 0.015022654 0.2703033 0.20138897 0.36801183 0.47354448 -0.1400291 -0.30954075 0.022695703 0.13145022 0.057350617 -0.033613734 -0.05361174 0.3656445 -0.05640053 -0.23198597 -0.21605346 -0.24266168 0.12809867 0.2143806 -0.47303876 -0.20705366 -0.30617645 -0.1484744 0.47488788 -0.085780576 -0.06761128 0.1723813 0.29701737 0.12047689 0.37248722 0.11681916 0.11753047 -0.024253167 -0.088892646 0.20811144
platform 0.067846134 0.29997393 -0.0062264022 0.37821957 -0.14041321 -0.0472271 -0.019312624 -0.059192043 -0.20232251 -0.05467039 -0.27761364 0.21061654 -0.28722164 -0.2661315 -0.008113205 0.10855966 -0.48412502 0.011450103 -0.12828545 0.31452742 0.3427207 -0.61736286 0.11825945 0.22085528 -0.35989612 0.12340909 0.1445233 -0.004288195 -0.30427182 0.129745 0.12594055 0.18489611 0.23471092 -0.15247107 0.10314628 0.12276089 0.009406773 -0.27748802 0.48095313 -0.21371184 0.11863476 -0.07194819 0.035962798 0.07960345 0.25681105 -0.23810166 0.23046893 -0.25294834 -0.14467634 0.68699074 0.026443304 -0.067793936 -0.36645526 -0.04432953 -0.0070888693 -0.19586353 -0.29169673 -0.21589416 -0.4399623 0.124659985 -0.2283293 -0.5474639 -0.12631828 -0.04676213 -0.0905031 0.20462668 0.0006605545 -0.19995719 0.11817117 0.10593942 -0.017589089 -0.07816242 -0.22645243 -0.2681726 0.23366605 -0.15498509 -0.38392365 -0.21354231 0.1454829 -0.20811293 -0.4251578 -0.07870992 -0.1099608 0.00051948364 -0.032608774 0.028715609 0.4474209 0.05392053 -0.039307103 0.006760636 0.34023952 0.12968874 0.29373425 -0.035436 0.09447695 -0.35737267 0.38233995 0.13116227 -0.00970058 -0.058981624
feature 0.31658024 -0.067604154 0.15905723 0.14410087 0.2113611 -0.62832624 -0.34370634 0.26726204 0.067898385 0.3341249 0.27521387 0.03888905 0.34162876 0.20747374 0.12227501 -0.47503525 -0.27478063 -0.4249323 0.10346749 -0.6903556 -0.023654105 -0.06485632 0.8510607 -0.2531287 -0.5575252 0.034228493 0.075231105 -0.53634006 0.290965 0.096313864 0.41274375 -0.24535327 -0.22401024 0.06710208 -0.10985908 -0.83732224 -0.5747849 -0.050779313 0.117916875 0.4855029 0.40455 0.19109902 -0.0007719624 0.61069643 0.06359599 -0.632346 -0.2475244 -0.23061256 0.0060876245 0.03716957 -0.5053946 0.024169305 0.16181645 -0.50125873 -0.1139704 -0.053805716 0.2903987 -0.15559886 0.13203992 -0.36655083 -0.2124901 0.24438484 -0.18754342 0.03453181 -0.12047493 0.19411144 -0.07073937 -0.051660508 0.56559426 0.7081741 0.07386284 0.19361423 0.3422935 0.12205942 -0.6002221 0.48724592 -0.0938725 0.13885489 0.34268457 -0.063163646 -0.33663714 0.045522485 -0.31720847 0.20275164 -0.21384439 -0.09259631 0.003174517 0.04264985 0.053438224 0.09849373 0.57913816 -0.4084184 0.34192193 0.6389239 -0.4969514 0.1652534 -0.58088636 -0.1911743 -0.44087955 0.22106461
traffic 0.23928274 -0.14614776 -0.039271995 -0.058112327 0.23720326 1.0317638 -0.061303157 0.39247602 -0.28079557 -0.20252687 -0.5426738 0.525845 -0.28957272 0.04440759 0.38818285 0.105929635 -0.2635725 -0.6202639 0.028689826 0.12839404 0.40120456 0.16859709 0.096749924 -0.18825957 -0.104669735 -0.37503338 0.08650353 -0.47565958 -0.14768249 -0.12062936 0.17914152 -0.19180137 -0.0680512 -0.80423725 0.013121125 -0.19367851 0.20319794 -0.16052884 0.0475565 0.21835154 -0.5292595 -0.8999041 0.5737408 0.23504122 0.0880248 0.99531496 -0.08455118 0.15635821 0.48178333 0.27027965 -0.36693144 0.61395246 0.3216826 0.40280586 0.53585845 -0.10669938 0.10934133 0.046925593 -0.16088901 -0.17886266 0.15743807 0.613917 -0.18305615 -0.48996362 0.05857457 -0.19428092 0.27458668 -0.07201733 0.23824298 -0.40132642 0.14117175 -0.18705346 0.69827753 -0.23263972 0.1509522 -0.4272981 0.35958126 0.21764006 0.39993468 0.29227632 -0.3906149 0.06207602 -0.512076 -0.014692677 -0.7135288 -0.08595402 0.58911806 -0.0021536346 -0.05873827 0.14642969 0.03670631 -0.4832887 0.2581246 -0.4710712 -0.104707874 0.44653407 0.00034297863 -0.31880224 -0.32997647 0.19295746
computation -0.37783173 0.42949674 0.10260577 0.35223967 0.040180814 -0.1515162 -0.5098822 -0.2067447 0.06703757 0.016213542 0.24693002 -0.029594036 0.29102132 -0.50857973 -0.010468013 0.030226208 -0.23743176 0.1247224 0.269215 -0.16585311 -0.23183145 0.3673735 -0.3500853 -0.25319877 0.14716165 0.08675214 0.082275964 -0.14604326 0.17906073 0.24201277 0.290599 0.19354808 0.0030259327 0.074884616 -0.21251942 -0.11218193 0.4473003 -0.049452227 -0.21868315 -0.325939 0.39779893 0.10107665 0.26055253 -0.098465465 -0.3593741 -0.5219791 0.19052085 0.26506954 -0.65257823 0.12212851 0.111271255 -0.12031195 0.033564903 -0.13829918 0.31123543 -0.09208745 0.3035211 0.029608121 -0.5161866 -0.06590335 0.5636779 0.07016984 -0.06971411 -0.5239035 -0.4665926 -0.115561806 -0.2576324 -0.052930836 0.2369073 -0.4303591 0.25032014 -0.10835674 0.27367884 0.013638547 0.40745676 -0.02219238 0.24980333 -0.22887132 0.10976589 -0.06061969 0.048234574 -0.21415256 -0.11185905 0.0753385 -0.258937 0.16710806 0.76016814 0.110087104 -0.29610127 0.27410805 0.3098196 -0.7039684 -0.11005756 -0.54800415 0.13998257 0.13087152 0.078414775 -0.11416682 -0.32622057 -0.30640697
infrastructure -0.37160647 0.30352262 -0.046996426 -0.022826696 -0.10672049 0.21739441 0.06712563 0.07272456 -0.33132985 0.27479586 0.12377652 0.024824167 -0.011514145 0.04942994 -0.37821332 0.05621888 -0.614527 -0.26250252 -0.17157081 -0.1588891 0.23769987 -0.4146417 -0.19226405 -0.20109206 -0.15358937 -0.012543445 -0.22134599 -0.33413756 0.3452708 -0.22036892 0.32192948 0.21251898 -0.14985812 0.21921355 0.19804883 -0.10229448 -0.050945554 -0.23513968 -0.023281252 -0.031505797 -0.14152569 -0.4919839 -0.07597551 -0.38007402 -0.109622054 -0.6022876 0.24729319 0.3701721 0.024475945 0.27165362 0.15443948 -0.28101775 -0.15727387 -0.3557851 -0.01771543 0.007918073 0.090832084 0.31867108 -0.19201268 0.04631938 -0.012252642 -0.08166216 0.006207956 0.10047368 -0.04891898 -0.24391751 -0.5265101 -0.35085958 0.13929494 0.38003415 0.21980195 0.093821816 0.044057243 0.53843105 0.2621334 0.05933668 0.32438773 -0.12635975 -0.20190153 0.19838193 -0.4028823 -0.17794994 0.082522355 -0.21553591 -0.08387375 -0.19421287 0.24774987 0.60137004 0.1043686 -0.12325389 -0.0056771818 0.13091162 0.27292547 -0.022207983 -0.41460544 0.023681141 -0.16143964 -0.2047801 0.15677483 0.096249126
memory 0.18919788 0.21807952 0.28429177 0.4858005 0.21024509 0.080505125 0.1265473 0.1387027 -0.13168664 -0.3177932 0.0876868 0.039918456 0.45040008 0.36049372 0.15458085 0.07148387 -0.23116176 -0.037514906 -0.16609383 0.10565194 0.47987044 -0.0979497 0.068646014 0.21421848 0.14090364 -0.36724177 -0.78090096 -0.398219 0.019311722 0.07497992 0.1526756 0.4535053 0.29105082 -0.18929741 0.11063775 -0.28260183 -0.19559316 -0.55625904 -0.10195767 -0.06800036 0.15023297 0.23649393 0.18824442 -0.60660774 -0.010566477 0.039931513 -0.1715991 0.09651179 -0.47844493 -0.43784744 -0.28429413 -0.0056995465 0.13284215 0.2737641 0.24758412 -0.2828121 0.055058762 0.2540361 0.22674792 -0.045292817 -0.49996543 0.49522775 0.35504895 0.07611924 -0.35047966 0.3302016 -0.2414567 0.123418935 0.32535246 0.67405176 -0.006593708 0.008548774 0.16573077 -0.1499876 0.012780922 -0.34707296 0.6410282 -0.3438766 0.04632432 0.25777096 -0.20545188 0.023892127 -0.10469856 0.21223685 0.49754733 -0.09892548 0.54328114 0.22356114 -0.11292694 0.6110082 0.030865226 -0.3570036 -0.5573177 -0.08825667 -0.024811149 0.009272881 0.06370732 0.4122702 -0.34086424 -0.32102656
way -0.5395899 -0.14551678 0.22789174 0.17094123 -0.24610078 -0.01202213 -0.13691702 0.14465714 -0.097861126 0.05055403 0.6649966 0.28982112 -0.21525377 0.00053160294 -0.22400078 -0.09110558 -0.03577681 -0.21938993 0.3836621 0.008217477 0.32381102 -0.31158957 0.30920348 0.15059704 -0.2133045 -0.3859548 -0.028492289 -0.15637049 -0.12205727 -0.08195736 0.1834104 0.057156786 0.13063802 -0.2441944 0.10304028 -0.126645 0.274454 0.04228962 0.34485987 -0.2558527 0.13186623 -0.2660004 0.19843142 -0.12094239 0.23514935 -0.4814466 0.13916588 -0.035722222 -0.5037674 0.23303673 0.06570643 0.34911355 0.024700709 0.32800034 0.0066610957 -0.5064802 -0.09892486 0.21068251 -0.055114746 -0.061577804 0.4242123 0.27387238 0.11251549 0.014516158 0.03129854 -0.117411785 -0.5116698 -0.38469106 0.40005362 0.26377758 0.065588795 -0.003855827 -0.014260275 -0.18485986 -0.57593346 -0.093943715 0.05518838 -0.03625785 0.3301352 -0.33239973 0.26558092 0.033700842 -0.3408367 -0.53988165 -0.027801555 -0.2897036 -0.19214311 -0.34381452 0.006579591 -0.16519251 0.31686395 0.22100858 -0.012133437 -0.1549932 0.23626709 0.017042322 -0.01778141 -0.2561512 0.18896256 0.08472297
internet 0.058276575 0.045764253 0.09761165 -0.44742116 0.18551975 0.31561983 -0.12357358 0.11992498 -0.3121318 -0.295603 0.14558387 0.032498594 -0.0704257 -0.21974057 0.12363849 -0.33614028 -0.5889377 -0.6584869 0.290517 -0.23781453 0.026450396 -0.06967519 0.12690273 -0.6189986 0.3507685 0.20630126 -0.19434124 -0.34928006 0.05515538 0.15862206 0.27995822 0.23090589 0.21712075 0.039084964 -0.45718133 -0.53577006 0.108973116 -0.30512136 -0.15245403 -0.3386999 -0.42709997 0.16307811 -0.23637484 0.1845411 0.0066469563 -0.41394046 0.7799039 -0.01845823 -0.06808648 0.31286168 0.15031452 0.19438593 -0.047363445 0.23276713 0.04888579 -0.39450765 -0.4152187 -0.18402353 -0.1712935 0.33416787 0.47141284 -0.27740875 -0.07546454 -0.2146432 0.12616667 0.42930415 -0.020869013 -0.21366812 0.22807503 -0.034827102 -0.1449662 0.66454196 -0.44110376 0.07361879 -0.25887868 -0.25384825 0.42557377 0.13297805 -0.300932 -0.2073442 0.021205807 -0.09148799 -0.014009849 0.27406928 -0.1848229 -0.14215519 -0.27651426 -0.24232563 -0.17201641 0.25070128 0.79268545 -0.58896387 0.14669144 -0.14609925 -0.028135292 -0.07954901 0.65409213 -0.28207207 -0.12923521 -0.29786494
addition -0.0443004 0.13587578 -0.15897158 -0.26940286 -0.5546784 -0.31953785 -0.036013205 -0.049902145 -0.073238865 0.4759301 -0.14599085 0.12809028 0.02582307 0.12923896 0.11700059 -0.3007706 -0.33077133 -0.041892536 0.5010788 0.025851587 0.22398299 0.05709948 0.17533317 0.31333855 -0.24841179 -0.105397135 -0.36146894 -0.21203509 0.5721912 -0.1306497 0.03469523 0.2688821 -0.050692026 0.0044613495 0.2789534 0.118642636 0.22123444 -0.32178482 0.084562466 -0.36421078 0.5614012 -0.2093306 0.32922766 0.3802036 0.14885086 0.062313877 0.08947124 0.052274093 -0.15938449 -0.041637976 -0.44252855 0.124364406 -0.011612212 -0.042390347 0.21469836 0.36785576 -0.062038668 -0.1957811 -0.1846144 -0.11498028 0.009966767 0.33892068 -0.12916021 -0.3282887 0.020532379 0.005994441 -0.16768949 0.099520646 0.059833642 0.22856784 0.19736256 -0.17690714 -0.40609163 -0.23346755 0.05899473 -0.14352362 0.34450415 -0.4050636 0.14186254 -0.16798837 0.057173442 -0.042057503 0.22344726 0.25285965 -0.1914783 0.1867217 -0.03618972 -0.0366924 0.35353273 0.23869263 0.52762145 -0.06326843 0.33127913 0.22135141 0.063476376 0.03250965 -0.13392039 0.12848784 -0.48632616 -0.054646898
implementation -0.018104536 0.0305146 0.08413998 -0.28136283 0.3492314 0.51944107 -0.042409997 0.08656616 -0.22710384 -0.22069198 0.30231982 -0.08852814 -0.26213643 0.1674236 -0.14151256 -0.12563576 -0.07500596 0.089058764 -0.1053679 -0.29319558 0.25299945 -0.76527953 0.20752983 0.29188764 0.03424497 -0.06742013 0.1911368 -0.2550493 0.05370918 -0.34444955 0.14086236 -0.28869668 0.15907392 -0.14221513 0.13133468 0.24864855 0.23238683 -0.017848268 -0.29601243 -0.50253284 0.2575137 -0.40372238 -0.13983105 -0.254178 -0.15610449 -0.2657828 -0.18517001 0.29342765 0.13843417 0.55157834 0.30447415 0.37687403 -0.01319462 0.20229371 0.04147106 -0.004702283 0.10241229 0.71459246 -0.023941964 -0.063847795 0.12678882 -0.21864559 0.23775475 0.2601127 -0.13075982 0.07389921 -0.013896948 -0.11051816 0.52626514 0.10398466 0.15590617 0.097494096 -0.31176263 -0.1573066 -0.19102786 -0.24003002 -0.16979 0.21968141 -0.029782511 -0.13139515 -0.22311926 -0.14691573 -0.0013309822 -0.06625311 -0.33819112 0.15070078 -0.027308486 -0.07857225 0.17183158 0.0741583 0.15947728 0.16081601 0.017419307 0.121651754 -0.078403786 0.16922829 0.12808758 0.35583606 0.10506356 -0.18406995
technique 0.09604894 0.36200863 -0.10233164 -0.35747743 -0.04206348 0.06065729 0.3590557 -0.1087697 0.14012912 0.39503843 -0.2863545 0.123085245 -0.20355159 -0.033461165 -0.17315228 0.54348606 -0.32284838 0.29823023 0.28803337 0.03926966 0.14915504 -0.2386422 -0.25163293 -0.19070658 0.1643682 -0.022861157 0.0036470506 -0.028511843 0.38479415 -0.016483156 0.67920464 0.8008531 0.34680668 0.10968583 -0.10957398 -0.23890357 0.21502927 -0.47076046 -0.1510757 0.07387828 0.14660312 -0.48432064 0.48479924 0.42259052 -0.12927999 -0.04952502 0.1002277 0.093494885 -0.02828086 0.32109523 0.011909769 0.47481978 0.1585065 -0.55078673 -0.2220344 0.1478549 0.45331496 0.16362238 -0.207968 -0.26335114 -0.14368409 0.20566927 0.5785813 -0.4057611 0.08639844 -0.0039347904 0.050411522 0.27953163 0.3102682 -0.0081544835 0.26298866 -0.003446875 0.020638462 -0.092671484 -0.15730003 -0.022444077 -0.020696362 0.19394986 0.31421134 -0.035706785 0.13580915 0.17270033 0.18719216 -0.26525 -0.016402932 0.0055436003 -0.0266612 -0.088877216 0.46660137 0.27997193 -0.09482712 -0.05306464 0.09163807 0.06330731 0.29912943 0.17278326 -0.13017468 0.02575523 -0.16381156 0.19436122
decision -0.21771818 0.12827528 0.23225248 -0.40552467 0.17695588 -0.08071025 -0.2678537 -0.13650353 -0.29004505 0.082738034 0.32865116 -0.09530135 0.2986905 -0.35366315 0.2483789 0.40308595 -0.062346656 -0.15892775 0.18176109 -0.0673831 -0.014635362 -0.08700482 0.0156181855 -0.049988188 -0.17740749 -0.508424 -0.23217292 -0.16620074 -0.2216364 0.6412344 0.37540835 0.028245052 0.58306164 0.113614455 -0.18838653 0.25313893 0.13256317 0.17106785 0.06188124 0.06323046 0.54548395 -0.57627857 0.20350729 0.22363737 0.3910231 -0.3484903 0.069333635 -0.59758615 -0.15858407 0.43385082 -0.11746477 0.27331436 0.3902159 -0.40283254 -0.0014355439 0.14221595 -0.13309069 -0.014599937 0.05726637 -0.36297294 -0.02025672 0.16219272 0.014952574 0.2831331 0.35679215 0.053768903 -0.12493123 0.03417409 0.0039174273 -0.35570663 -0.1337324 -0.23697728 -0.2586347 -0.35296398 -0.21175669 0.06478631 0.060551554 0.2542258 -0.4091346 -0.15573004 -0.27903318 -0.042733137 0.1707767 0.05299742 -0.26783335 0.086274855 0.5291725 0.17479613 -0.15028085 0.23102188 0.24679315 0.27068377 0.4236694 -0.21125974 0.17464799 -0.17010655 0.5764215 -0.34456956 0.022022126 0.1569773
amount -0.06236683 0.20706248 0.035696436 0.20599435 0.08373935 0.1440218 -0.24636994 0.33111626 -0.18046406 0.05011839 0.22024964 0.15871915 -0.11131312 -0.19761302 0.21234256 0.22545935 -0.028364778 -0.22591561 -0.26738724 0.19762029 0.050609894 -0.1391181 -0.15341775 -0.055343036 0.010331652 -0.4725537 -0.21148776 -0.5787437 -0.17279804 -0.041735776 0.14878646 0.47810322 0.18893695 0.3729862 -0.59220153 0.09550781 -0.1273032 -0.1359759 0.26971132 -0.32701418 0.10093917 0.022875896 0.039520897 0.23699266 0.29019302 -0.039024822 0.25325087 -0.17275704 -0.3733882 0.100572675 -0.34212524 0.07479657 -0.4273507 -0.082601264 -0.11793112 0.16861264 -0.44181365 -0.34365115 0.32786885 0.36610362 0.30884263 0.2826367 -0.32946366 -0.4409256 0.07528783 -0.05979479 -0.073962204 0.013788665 0.39159468 -0.23583333 -0.019316604 -0.06966955 -0.3296853 0.19236203 -0.29628217 -0.40706068 -0.06357043 0.47114772 0.007035863 -0.19930068 -0.08774947 -0.18112443 -0.19347727 -0.23111725 0.2185187 -0.040074438 0.502626 -0.2087098 0.39294147 0.15264474 -0.09551576 -0.51489854 0.028866103 -0.20717482 -0.2973706 -0.20381136 0.062749885 -0.30072552 -0.1978326 -0.14522754
health 0.7947154 0.17469496 0.27675065 0.47130105 -0.22812365 -0.562933 0.719655 -0.28405604 -0.26291433 0.22898509 -0.29717734 0.6507663 -0.0069027357 -0.851724 0.090655245 0.21538901 0.083462134 -0.389122 -0.16575962 -0.51608056 -0.21548943 -0.081840426 -0.22226563 -0.31981692 0.048940726 -0.58776605 0.2462355 -0.55246735 -0.42372453 -0.40775424 0.16779085 0.243067 0.26214346 0.1107838 -0.5081923 0.5654764 -0.31277868 -0.09828242 0.8580539 -0.5099687 0.64050174 -0.2010424 -0.086355835 0.40125677 0.19987066 0.011171068 0.37241414 0.013800475 0.033938456 0.19728975 -0.28302354 -0.22297452 -0.18297313 0.35893708 0.002413551 -0.06342752 0.26559114 0.16075161 -0.5198619 -0.31415382 0.5026181 0.4174551 -0.50010014 -0.37958184 0.0738875 0.82531315 -0.30631083 -0.20120728 0.5811251 0.3121746 0.4420976 0.49382502 -0.7225252 0.13452762 0.23125966 -0.21089938 0.2598859 0.55437815 -0.10984918 -0.072517246 -0.11798445 -0.037251104 -0.018978667 -0.19621232 -0.037571393 -0.3033573 -0.3477205 -0.39250195 0.036597606 0.34182346 0.11634144 0.4677988 0.35065895 0.17142162 -0.20214894 -0.43149674 0.48744288 0.083843164 -0.23248409 0.10535243
user 0.39733443 -0.18926223 -0.5418029 0.14792177 -0.001801084 -0.2247457 -0.754806 -0.2663588 -0.11977706 0.20991127 -0.2132758 -0.14518799 -0.4202667 -0.25184834 0.11118575 0.11389421 -0.39666757 0.4795652 -0.29873517 -0.5183253 -0.05411782 -0.40968543 -0.0036119611 -0.7430315 -0.2901182 0.13415065 0.18381754 -0.19953118 0.04580114 -0.17744978 -0.08496534 0.35551262 0.2155547 0.052859455 -0.29942358 -0.5510804 0.23841417 -0.122052096 -0.23982556 0.10715112 0.03083697 0.44884992 0.63082737 0.15531814 -0.43230647 0.08094819 0.08326131 -0.07025032 -0.16185214 0.14481063 -0.4992195 -0.25228927 0.24588504 -0.03520061 0.30107507 -0.12236593 -0.051823564 0.17184709 -0.58274275 -0.05363634 0.13587768 0.1450966 0.20049506 0.005694704 0.62539506 0.122818425 -0.56982535 0.18409517 -0.09960716 -0.15822752 0.6470855 0.27643457 -0.16453558 0.22122552 -0.104479834 -0.4232349 0.10115526 -0.011539786 0.19741526 -0.53588843 -0.2644029 0.0031445113 -0.007957755 0.30025238 -0.36846533 -0.4845882 0.60598534 -0.012823857 -0.13501039 -0.6093255 0.03328184 -0.21782896 -0.19555119 0.36309448 -0.41641873 -0.33004215 0.5283776 0.24315175 -0.48986807 0.4052602
propose -0.01787883 0.56676805 0.16875702 -0.021751337 0.08973703 -0.18271293 0.07511935 0.15345094 -0.0039380356 -0.21771906 -0.48212075 0.32847756 0.25983953 -0.11977782 -0.32149932 -0.36890516 -0.13452663 0.17211945 -0.34639245 -0.052857067 -0.38987863 -0.3161719 0.35155857 -0.6474191 0.31940636 -0.042568587 -0.09897009 -0.045493796 0.07465387 0.088951655 0.21854185 0.6647798 -0.61751837 -0.28912908 0.18257545 -0.22008395 0.059536625 -0.08177872 -0.48013467 -0.0829825 0.29315302 -0.08951713 0.2628356 0.10781963 0.19327466 0.18594162 -0.0644985 -0.14528145 -0.41718993 0.13838819 -0.16960362 0.41730785 -0.17756818 -0.0971863 -0.08290535 -0.14252059 -0.0329704 -0.004175835 -0.29899877 -0.25104472 0.08971613 0.066938035 0.27194518 0.19018859 0.5018799 0.22576916 -0.39237413 0.23447342 0.24698687 -0.0572876 -0.009097806 -0.14779046 0.07793284 -0.2568611 -0.2203213 -0.40243652 -0.15847604 0.17384875 0.2188761 0.06898464 -0.1366432 0.000114939714 -0.14513728 -0.40918306 -0.2943996 0.08121919 0.11693421 0.29952702 0.6270144 0.15018736 0.578263 -0.06875301 0.19972526 -0.060793966 -0.1695788 -0.03849631 0.18400708 -0.19917944 0.1124804 -0.0958257
distribution 0.09604351 -0.20860624 -0.16845216 0.11698139 0.07725029 0.52959996 0.08775513 0.58895296 0.082094304 -0.102698244 0.12327521 0.33957776 -0.054548487 -0.48752022 -0.32025197 -0.31412515 -0.56179696 0.26882717 -0.49571878 -0.38770095 0.061007734 -0.26974994 0.50291765 0.06337845 0.07232489 -0.6002641 0.13862106 -0.54121107 -0.42210022 0.09861303 0.118594944 0.15573546 -0.37164956 0.040751453 0.002182653 0.30023593 -0.062389273 0.2107713 -0.012307708 -0.116598785 0.20089997 -0.33711162 0.10734025 -0.36577174 -0.3558818 -0.22476888 0.020304272 0.32036677 -0.5347337 -0.081843644 -0.30787036 0.36346036 0.08925187 0.13040482 0.48778912 -0.099451356 0.47994775 -0.01833842 -0.1058129 0.9365041 0.078408465 0.072493725 0.0586831 -0.23619278 -0.014821389 -0.3526824 0.42054063 0.31272414 0.08923734 -0.42158526 0.31441683 0.30218896 -0.17837286 0.19395085 0.4187508 0.21727714 -0.27804175 0.29275322 -0.058000587 0.1871201 -0.051933374 -0.035332326 -0.09880611 -0.04349471 0.07850151 0.28259593 -0.02076036 -0.0038258322 -0.0625283 0.25053892 0.3353888 0.06666322 0.3452495 -0.10623746 -0.04325279 -0.2504281 -0.11095008 -0.0052644513 -0.298381 0.20219748
latency -0.010027612 -0.3291698 -0.056455076 0.10159416 -0.06375445 0.3820173 -0.004796415 -0.5431543 0.071537495 -0.3223531 0.014842543 0.2835823 -0.4935702 -0.25793535 0.027362175 -0.18494606 0.17804553 0.17836982 -0.7645534 0.017894927 -0.42294294 -0.43101028 -0.21598199 -0.29512754 -0.20966189 -0.03954412 0.10626826 -0.10581676 0.6822462 0.15869108 0.7376502 0.20263302 0.010667334 0.08551219 -0.46058407 -0.66060317 0.17029014 -0.2825003 -0.11705325 -0.33491874 0.28674963 -0.161028 -0.38256854 -0.28195354 -0.2632169 0.060124885 0.21386154 0.29126057 0.0900422 0.3730017 -0.14626697 0.0035387985 -0.31831086 -0.35637867 0.37137038 0.47693238 0.25725454 0.13250908 0.115299255 -0.09385119 0.17450546 0.09529229 -0.4284912 -0.43901226 0.024786321 -0.6587938 0.029028231 0.20872207 1.0617188 -0.5763249 0.17052604 0.6251557 0.16131102 -0.1969402 0.60190934 -0.23745944 -0.06942887 -0.35366252 0.39220738 -0.20940813 0.0016978261 -0.41049248 -0.15535618 -0.10039939 -0.0052278037 -0.25299922 0.42907324 0.21001299 0.20453806 0.32997197 -0.11740972 0.27432 0.16222033 0.036823038 0.30044168 0.21535383 -0.021185426 0.1044841 -0.44915268 -0.43513885
business -0.19980782 -0.05140176 0.24418786 -0.5747321 0.19977456 0.15239076 -0.14711758 -0.13701366 -0.35887742 -0.2753811 -0.3106644 -0.36045444 -0.28258425 0.3632995 -0.4675778 0.59446615 -0.8426377 -0.5748512 -0.6085075 -0.22810584 0.34483352 -0.3103853 0.052241694 0.049132273 -0.18521306 -0.7093669 0.08537882 0.07253077 0.20267664 -0.307165 0.5961807 0.19948836 -0.3034512 0.23728834 0.4899213 -0.44919023 0.010600077 -0.5183475 0.45343462 -0.38710448 0.09606597 -0.18978567 -0.40221798 0.7019914 -0.09548796 -0.38832211 0.2998685 0.122047864 -0.14374962 0.15605031 0.2640378 -0.23025009 -0.13935101 0.022692952 -0.32035947 -0.24948548 0.07399461 -0.06152657 -0.47254378 0.4406239 0.31906903 0.37901825 -0.33581403 0.09226536 0.22437648 0.11368749 -0.79698277 -0.16754262 -0.003461696 -0.050858937 0.26013565 -0.033709645 0.15820105 -0.70858955 -0.555406 -0.31861967 0.4364631 -0.083389804 -0.0802689 0.44449246 -0.5434309 -0.21143003 -0.61420566 0.2352168 -0.22191817 0.18833855 -0.10194472 -0.6457281 -0.82840073 -0.26224872 -0.11908887 -0.022112168 0.17749384 -0.4404761 0.12510909 -0.6776735 -0.3033593 0.14261445 -0.2148685 0.14082499
function 0.13128144 -0.025036363 -0.10002446 -0.101113066 0.6967151 0.06193717 -0.18926673 0.17171025 -0.17418277 0.054518975 0.18894243 0.5968019 0.009777835 -0.42723063 0.18414159 -0.0028041778 -0.17023464 -0.29422742 0.5729022 -0.12885593 -0.05920843 -0.035840355 0.7055944 0.31609777 -0.10106248 0.17541775 0.32022813 -0.55059105 -0.2635021 0.35098875 0.2183961 0.49307603 0.20307744 0.24061677 -0.5492055 -0.23901573 -0.19922014 -0.17383374 0.151363 -0.34831288 -0.008403248 -0.41129342 0.24698344 -0.056256436 -0.2753613 0.14086209 -0.1336895 -0.10178193 -0.33227685 0.18145737 0.020921856 -0.45165917 -0.10248799 -0.21300098 0.076271005 0.012918137 0.27602524 -0.32280326 0.02367747 -0.17045356 0.116712525 0.13836724 -0.01665218 0.04661895 0.17140734 -0.08536611 0.12966676 -0.12994415 0.5800026 -0.43344226 0.37012106 -0.7384455 -0.15330075 -0.0136462245 0.25385246 -0.08912057 0.055851165 -0.26228532 -0.54116 0.68323314 0.31997502 -0.48316067 -0.24412069 -0.070133254 -0.3245246 0.16143835 0.23509426 0.7418266 -0.03098308 -0.034167908 0.35805628 0.48144728 -0.46071896 0.25086412 0.0848204 -0.105874136 0.023942776 0.27040738 0.34138787 -0.0796714
